tree
version=v4
num_class=1
num_tree_per_iteration=1
label_index=0
max_feature_idx=1
objective=regression
feature_names=bid_ask_spread imbalance
feature_infos=[-463.57948086279794:410.52143622846052] [-0.95242301666592299:0.95909227765481997]
tree_sizes=2989 2977 2884 2973 2965 2965 2977 2973 2969 2977 2986 2979 2994 2883 2972 2980 2985 2978 2990 2982 2972 2982 2979 2969 2980 2975 2980 2979 2795 2984 2970 2978 2988 2982 2875 2797 2698 3000 2793 2715 2892 2996 2979 2894 2979 2883 2893 2883 2980 2793 2985 2984 2984 2973 2801 2885 2870 2879 2982 2981 2979 2983 2980 2897 2891 2983 2797 2986 2987 2888 2984 2977 2800 2983 2994 2981 2973 2892 2981 2976 2895 2991 2985 2995 2892 2901 2983 2796 2976 2989 2803 2979 2995 2890 2788 2984 2886 2888 2980 2706

Tree=0
num_leaves=31
num_cat=0
split_feature=0 1 0 0 0 1 1 1 0 0 0 1 0 1 0 1 1 0 0 1 0 0 0 1 1 0 1 1 1 0
split_gain=1.06517e-05 3.80114e-06 2.95115e-06 2.76538e-06 2.58925e-06 2.18985e-06 1.10188e-05 4.79755e-06 3.28201e-06 4.62172e-06 5.71303e-06 9.26128e-06 3.44076e-06 2.99229e-06 5.83499e-06 6.19525e-06 4.46473e-06 2.07709e-06 2.01849e-06 1.37373e-06 3.66915e-06 2.28599e-06 1.22656e-06 1.22483e-06 1.05765e-06 1.0516e-06 9.56634e-07 7.3634e-07 7.23826e-07 3.95658e-07
threshold=194.28527262964056 0.65340627156245168 -174.92397146530854 -158.04344490351647 -210.6023903817331 -0.11232706393845361 -0.19574969914966875 1.0000000180025095e-35 -86.472612122277482 -42.492617299612895 -8.6571885013181582 0.44184202611001017 -113.45463841714808 -0.55309057931231853 109.39966059249129 -0.35179225696821431 -0.65532202119487504 -29.794468090753067 219.76467153955312 0.28257541785408474 112.3417632368437 52.645024677010959 17.485819233974329 0.13953866524987529 0.21568978271011396 76.21268327289728 -0.071285995318734349 -0.14663809897271338 -0.23966408576701995 -42.492617299612895
decision_type=2 2 2 2 2 2 2 2 2 2 2 2 2 2 2 2 2 2 2 2 2 2 2 2 2 2 2 2 2 2
left_child=1 2 4 -4 28 6 13 26 12 24 -11 19 -9 16 15 -15 25 -3 -2 20 23 -21 -17 -12 -10 29 -7 -20 -1 -5
right_child=18 17 3 5 -6 7 -8 8 9 10 11 -13 -14 14 -16 22 -18 -19 27 21 -22 -23 -24 -25 -26 -27 -28 -29 -30 -31
leaf_value=-1.3423468220806124e-05 -7.5620443322805669e-05 -5.4522469830642833e-05 -4.4185610825826874e-05 -5.162357902485941e-06 4.4095935378338306e-05 7.6390703467010113e-06 -7.2398671797094862e-05 -7.9938074574015663e-06 4.4498621760923976e-05 -4.8846450915508545e-05 -3.1595419292639317e-05 4.6825570391790332e-05 -5.7756280761039262e-05 3.4695010039744486e-05 -4.5750349012321702e-05 -3.1143242761957634e-05 -5.5422609956842791e-05 -1.7408618033632162e-05 -5.2493124398834279e-05 -5.368821895207383e-06 2.6130791009693034e-05 -5.2608266409022645e-05 2.7178061701688897e-06 -3.2477471700637122e-06 1.2724804186999259e-05 1.2774851899068432e-05 3.4107263929124761e-05 -2.7526007498540807e-05 1.3480544845280796e-05 -2.4352277102929578e-05
leaf_weight=20 21 25 21 21 20 22 29 33 20 30 35 32 24 58 20 23 26 38 21 21 25 20 20 27 22 20 36 27 20 22
leaf_count=20 21 25 21 21 20 22 29 33 20 30 35 32 24 58 20 23 26 38 21 21 25 20 20 27 22 20 36 27 20 22
internal_value=-1.22066e-05 -8.65688e-06 -6.43919e-06 -8.53047e-06 1.47177e-05 -7.25273e-06 -1.46186e-05 -2.1794e-06 -7.44697e-06 -2.16477e-06 -8.80076e-06 -1.2922e-06 -2.89464e-05 -6.63945e-06 3.59806e-06 1.337e-05 -2.05579e-05 -3.21363e-05 -4.97621e-05 -1.33216e-05 -6.20987e-06 -2.84125e-05 -1.53939e-05 -1.92505e-05 2.78552e-05 -6.16925e-06 2.40676e-05 -3.84491e-05 2.85383e-08 -1.49805e-05
internal_weight=799 730 667 607 60 586 239 347 289 232 190 160 57 210 121 101 89 63 69 128 87 41 43 62 42 63 58 48 40 43
internal_count=799 730 667 607 60 586 239 347 289 232 190 160 57 210 121 101 89 63 69 128 87 41 43 62 42 63 58 48 40 43
is_linear=0
shrinkage=1


Tree=1
num_leaves=31
num_cat=0
split_feature=0 1 1 0 1 0 0 0 1 1 1 1 1 1 0 0 1 0 0 1 1 0 1 0 1 1 1 1 0 1
split_gain=8.62789e-06 3.11651e-06 2.71069e-06 8.46609e-06 6.93725e-06 3.93551e-06 2.26294e-06 3.22484e-06 2.57585e-06 1.79146e-06 1.79079e-06 5.31124e-06 3.21206e-06 4.12491e-06 1.70025e-06 1.65831e-06 1.57056e-06 3.02226e-06 1.40876e-06 1.34467e-06 1.08539e-06 9.15182e-07 8.62338e-07 7.10357e-07 6.39959e-07 2.64067e-06 8.85679e-07 5.13749e-07 1.17283e-06 1.94443e-07
threshold=194.28527262964056 0.64966278026451352 0.43415273402821503 20.933855152958134 0.36258808546166427 -63.779662467801238 30.140728545440655 52.645024677010959 0.29452884909150329 -0.11232706393845361 -0.31149201118713526 -0.42512025637214729 -0.075913744807209041 -0.017517313128917394 -33.105635443011117 227.72960164875261 -0.65532202119487504 110.89090844504973 84.708938807692917 -0.14663809897271338 -0.55309057931231853 120.59650668568067 0.77940938314689767 -76.284932953742086 0.10678744635886304 0.059719238242620452 0.15239163311356405 -0.22291071730338818 -97.525382253043048 0.23872266538657935
decision_type=2 2 2 2 2 2 2 2 2 2 2 2 2 2 2 2 2 2 2 2 2 2 2 2 2 2 2 2 2 2
left_child=1 2 4 5 6 -4 8 -8 10 16 11 20 27 -14 -3 -2 -9 -18 -11 -17 23 -20 -16 -1 25 -15 -26 -12 -29 -28
right_child=15 14 3 -5 -6 -7 7 9 -10 18 12 -13 13 24 22 19 17 -19 21 -21 -22 -23 -24 -25 26 -27 29 28 -30 -31
leaf_value=8.4995286749250702e-06 -5.3135228814358857e-05 -3.8084239669842644e-05 2.3827447096534475e-05 6.9311053980177696e-05 -4.8587628727545965e-05 -3.2691675584250004e-05 -3.0324579539511534e-05 1.2035134330227296e-05 4.4008737556093066e-05 3.5111557024885604e-05 -2.9325355199034676e-05 5.1941072226988831e-05 4.4497344048256218e-05 -7.6030465901139366e-06 -1.985731418244541e-05 -4.0136416428140367e-05 2.0170151199434056e-06 -4.3795583527147151e-05 -1.191400029711076e-05 -4.3098144735929308e-06 1.9707867149604841e-05 1.4636657564354923e-05 9.1565855958227384e-06 -1.5218599479080047e-05 -2.0794293318647848e-05 3.5209783396567222e-05 8.5664048158158097e-06 7.1957616498929429e-06 -2.5164278607311038e-05 -4.0805411117617044e-06
leaf_weight=23 27 25 28 26 25 22 36 29 21 22 20 33 29 34 20 20 36 24 20 22 29 37 21 28 21 25 31 21 24 20
leaf_count=23 27 25 28 26 25 22 36 29 21 22 20 33 29 34 20 20 36 24 20 22 29 37 21 28 21 25 31 21 24 20
internal_value=2.90264e-13 3.19479e-06 5.25476e-06 2.30268e-05 2.95769e-06 -1.04097e-06 5.24656e-06 -3.16381e-06 1.00257e-05 2.65636e-06 7.91433e-06 1.81854e-05 2.75597e-06 1.03714e-05 -1.75298e-05 -3.37999e-05 -7.07261e-06 -1.6308e-05 1.36168e-05 -2.13701e-05 4.26121e-06 5.32064e-06 -4.99654e-06 -4.52219e-06 2.81686e-06 1.0538e-05 -3.51017e-06 -1.59898e-05 -1.00629e-05 3.60682e-06
internal_weight=799 730 664 76 588 50 563 204 359 168 338 113 225 160 66 69 89 60 79 42 80 57 41 51 131 59 72 65 45 51
internal_count=799 730 664 76 588 50 563 204 359 168 338 113 225 160 66 69 89 60 79 42 80 57 41 51 131 59 72 65 45 51
is_linear=0
shrinkage=0.1


Tree=2
num_leaves=30
num_cat=0
split_feature=0 1 1 0 1 0 0 1 1 0 1 1 1 1 1 0 0 0 0 1 1 1 0 0 1 0 0 1 0
split_gain=6.98859e-06 2.56907e-06 3.89723e-06 5.84791e-06 3.21912e-06 2.23258e-06 3.01328e-06 1.92073e-06 1.43097e-06 1.37459e-06 1.28655e-06 3.79972e-06 3.29291e-06 3.01361e-06 1.27216e-06 2.45458e-06 1.22566e-06 2.73662e-06 1.1531e-06 1.13251e-06 1.44004e-06 8.79168e-07 8.73273e-07 1.21451e-06 1.31525e-06 5.75389e-07 5.12144e-07 4.5983e-07 3.4664e-07
threshold=194.28527262964056 0.59953659223283451 0.45318233043458384 -3.1249539137497773 0.33474552261932894 30.140728545440655 52.645024677010959 0.26119177682552591 -0.11232706393845361 219.76467153955312 -0.27334923209942313 -0.42512025637214729 -0.075913744807209041 -0.017517313128917394 -0.65532202119487504 111.65226735665057 -33.105635443011117 41.617174790313591 22.246850319024819 0.0038302262967902108 0.11167653644973886 -0.55309057931231853 -142.68418205582563 -39.552960164721291 0.13953866524987529 -76.284932953742086 1.0000000180025095e-35 -0.14663809897271338 -97.525382253043048
decision_type=2 2 2 2 2 2 2 2 2 2 2 2 2 2 2 2 2 2 2 2 2 2 2 2 2 2 2 2 2
left_child=1 2 4 -4 5 7 -7 10 14 -2 11 21 28 -14 -8 -16 -3 -18 -6 -10 -21 25 -15 24 -24 -1 -25 -11 -12
right_child=9 16 3 -5 18 6 8 -9 19 27 12 -13 13 22 15 -17 17 -19 -20 20 -22 -23 23 26 -26 -27 -28 -29 -30
leaf_value=7.6495767881051105e-06 -5.1758890220385399e-05 -2.6866336592272429e-05 3.8771843537688262e-07 7.1969021796359736e-05 -3.4983667969104969e-05 -3.0016495147719977e-05 1.0831621091648262e-05 3.7174508194463372e-05 3.14279192831567e-05 -3.2182285243228158e-05 -9.0299962994322411e-06 4.2239399418145985e-05 4.0047609989665825e-05 -1.4408327496355577e-05 7.1256712975522722e-07 -4.1259585677008464e-05 2.5212734863089283e-05 -2.3989472301676732e-05 -3.9850306555828348e-06 -1.682315607467899e-05 1.6814048597422827e-05 1.7737082139476491e-05 3.1082157988748804e-05 -1.4926546249295247e-05 -1.1253348930040375e-06 -1.3696739581194249e-05 6.4150530553651265e-06 -1.2452265946194531e-05 -2.4231745038984326e-05
leaf_weight=23 21 38 25 21 28 35 29 24 22 21 30 38 29 21 38 22 20 26 21 20 35 29 32 22 21 28 23 27 30
leaf_count=23 21 38 25 21 28 35 29 24 22 21 30 38 29 21 38 22 20 26 21 20 35 29 32 22 21 28 23 27 30
internal_value=1.211e-13 2.87531e-06 5.0145e-06 3.30661e-05 2.86388e-06 5.04819e-06 -3.3515e-06 9.87201e-06 2.27064e-06 -3.04199e-05 7.86202e-06 1.62026e-05 3.13035e-06 1.11417e-05 -6.36535e-06 -1.46772e-05 -1.35761e-05 -2.59721e-06 -2.16985e-05 1.22525e-05 4.58234e-06 3.83509e-06 4.09735e-06 8.06285e-06 1.83207e-05 -4.06997e-06 -4.01862e-06 -2.10841e-05 -1.66309e-05
internal_weight=799 730 646 46 600 551 201 350 166 69 326 118 208 148 89 60 84 46 49 77 55 80 119 98 53 51 45 48 60
internal_count=799 730 646 46 600 551 201 350 166 69 326 118 208 148 89 60 84 46 49 77 55 80 119 98 53 51 45 48 60
is_linear=0
shrinkage=0.1


Tree=3
num_leaves=31
num_cat=0
split_feature=0 1 0 0 0 1 1 1 1 1 1 0 0 0 1 0 0 0 1 1 0 0 1 1 1 1 1 0 1 1
split_gain=5.66076e-06 2.12769e-06 2.1858e-06 2.16561e-06 2.15332e-06 1.21831e-06 4.25324e-06 5.5356e-06 3.53993e-06 3.30779e-06 3.20493e-06 2.72738e-06 3.5398e-06 4.40433e-06 6.69008e-06 2.85373e-06 1.74774e-06 1.21321e-06 2.90696e-06 2.17476e-06 1.17031e-06 1.14525e-06 9.59965e-07 7.27372e-07 7.07156e-07 6.74621e-07 6.65672e-07 6.56126e-07 5.29308e-07 4.90606e-07
threshold=194.28527262964056 0.64966278026451352 -174.92397146530854 -158.04344490351647 -210.6023903817331 -0.55309057931231853 -0.35806926790593235 -0.11232706393845361 -0.19574969914966875 -0.65532202119487504 1.0000000180025095e-35 -86.472612122277482 -42.492617299612895 -8.6571885013181582 0.44809435811680565 -113.45463841714808 62.014568630620495 81.094127540280184 0.30637706830920003 0.18080490994302698 -33.105635443011117 227.72960164875261 -0.14663809897271338 -0.23966408576701995 0.21568978271011396 0.13953866524987529 0.77940938314689767 76.21268327289728 -0.071285995318734349 -0.43450203813243665
decision_type=2 2 2 2 2 2 2 2 2 2 2 2 2 2 2 2 2 2 2 2 2 2 2 2 2 2 2 2 2 2
left_child=1 2 4 -4 23 9 16 8 -8 27 28 15 24 -14 17 -12 29 18 25 -19 -3 -2 -23 -1 -13 -15 -22 -5 -9 -7
right_child=21 20 3 5 -6 6 7 10 -10 -11 11 12 13 14 -16 -17 -18 19 -20 -21 26 22 -24 -25 -26 -27 -28 -29 -30 -31
leaf_value=-4.3868156353710218e-06 -4.3446223664297441e-05 -3.1589180876835603e-05 -2.9068268797177987e-05 -1.7270654795940447e-06 4.9285032000625511e-05 2.9245927079399636e-05 -6.0433124399780505e-06 1.6511828487802466e-05 -4.9801394975631797e-05 -3.7161390871285851e-05 2.4597106279212644e-06 4.7666915488662201e-05 -3.389046368879619e-05 -1.6937421147693905e-05 5.3831664179058323e-05 -4.2859360776977457e-05 3.4109576517948882e-06 4.9600536726757127e-06 3.5033858701353894e-05 -3.7611078802174668e-05 -1.7194713855133159e-05 -3.2904547661019028e-05 -2.6336054195946251e-06 2.2583017380384265e-05 2.168591147231134e-05 4.8241046850558509e-06 8.2969117751677652e-06 2.0196676514387947e-05 3.6200005736949001e-05 4.9120866179177744e-05
leaf_weight=20 27 25 21 43 20 27 51 22 29 26 33 20 29 28 27 24 20 28 25 21 20 20 22 20 22 29 21 20 36 23
leaf_count=20 27 25 21 43 20 27 51 22 29 26 33 20 29 28 27 24 20 28 25 21 20 20 22 20 22 29 21 20 36 23
internal_value=-3.85063e-14 2.58778e-06 4.28986e-06 2.48153e-06 2.24937e-05 3.61797e-06 5.5583e-06 1.78812e-06 -2.19056e-05 -7.15198e-06 7.29829e-06 2.95158e-06 7.82361e-06 1.93143e-06 8.50634e-06 -1.6622e-05 2.83948e-05 -8.35522e-07 6.60363e-06 -1.32847e-05 -1.45362e-05 -2.73779e-05 -1.70483e-05 9.0981e-06 3.40578e-05 -5.86577e-06 -4.13803e-06 5.23285e-06 2.87321e-05 3.83884e-05
internal_weight=799 730 664 604 60 583 494 424 80 89 344 286 229 187 158 57 70 131 82 49 66 69 42 40 42 57 41 63 58 50
internal_count=799 730 664 604 60 583 494 424 80 89 344 286 229 187 158 57 70 131 82 49 66 69 42 40 42 57 41 63 58 50
is_linear=0
shrinkage=0.1


Tree=4
num_leaves=31
num_cat=0
split_feature=0 1 1 1 0 0 0 0 0 0 0 0 1 1 1 1 0 0 1 0 0 1 1 0 0 0 1 1 1 0
split_gain=4.58522e-06 1.73289e-06 2.81646e-06 5.87497e-06 2.87098e-06 1.34433e-06 2.65807e-06 2.13273e-06 1.33662e-06 3.04758e-06 2.11519e-06 1.95476e-06 1.58333e-06 1.4649e-06 1.41818e-06 1.24549e-06 1.72829e-06 1.31812e-06 1.97483e-06 1.15451e-06 9.349e-07 9.03541e-07 1.15597e-06 8.40845e-07 7.90905e-07 2.18907e-06 7.77987e-07 1.86604e-06 5.18691e-07 1.9678e-07
threshold=194.28527262964056 0.59953659223283451 0.42821381006368114 0.36258808546166427 20.933855152958134 34.928474105712674 52.645024677010959 18.661794413892498 -6.3307452687004107 -66.537423525303879 -81.019623981926983 -42.492617299612895 -0.35918833749957241 -0.55309057931231853 -0.1368581374753795 0.087828462176532687 138.09743543082007 98.454259647645827 -0.54746443000187917 112.3417632368437 219.76467153955312 -0.22291071730338818 0.24292482867193191 112.3417632368437 -33.105635443011117 41.617174790313591 0.073437084755682266 -0.019753619372010343 -0.0076872170170947081 7.343538892440848
decision_type=2 2 2 2 2 2 2 2 2 2 2 2 2 2 2 2 2 2 2 2 2 2 2 2 2 2 2 2 2 2
left_child=1 2 3 5 -4 7 -7 8 9 10 12 -11 13 -1 -13 16 17 18 -8 -17 -2 -14 26 -19 -3 -26 27 -23 -22 -10
right_child=20 24 4 -5 -6 6 15 -9 29 11 -12 14 21 -15 -16 19 -18 23 -20 -21 28 22 -24 -25 25 -27 -28 -29 -30 -31
leaf_value=1.1537811753276568e-06 -4.2238379024811805e-05 -2.1858441687072628e-05 6.8605818847168448e-06 -4.7565574831147074e-05 5.1511891479094635e-05 -2.9516785739800867e-05 -2.9641360776043839e-05 3.7083311549988299e-05 -3.6922540343569025e-06 3.9812023278500422e-05 -2.6625290668865394e-05 -6.1066036533492695e-06 -2.0336280267656549e-05 3.5916144487499777e-05 2.692230815367881e-05 3.1163359381025658e-07 -2.4474930363079955e-05 3.2062816462712365e-05 8.3877569927103144e-06 3.3882742389410158e-05 -7.7732072474679663e-06 1.3864982358882116e-05 -1.8975974780914841e-05 3.412776415990222e-06 2.2509567643282934e-05 -2.1495902819879122e-05 2.1087092042354678e-05 -2.2946685134056246e-05 -2.8727998142130673e-05 -1.6773278390572795e-05
leaf_weight=22 21 38 36 23 24 31 22 23 23 40 24 26 20 27 26 20 28 20 36 21 27 40 20 21 20 26 29 21 21 23
leaf_count=22 21 38 36 23 24 31 22 23 23 40 24 26 20 27 26 20 28 20 36 21 27 40 20 21 20 26 29 21 21 23
internal_value=3.22755e-13 2.329e-06 4.0859e-06 1.97308e-06 2.47211e-05 3.99687e-06 -2.61193e-06 7.60992e-06 5.62198e-06 8.09424e-06 1.25178e-06 2.31923e-05 4.98949e-06 2.03086e-05 1.04079e-05 2.35266e-06 -2.53956e-06 3.66438e-06 -6.03708e-06 1.75066e-05 -2.46402e-05 -7.84619e-07 2.77023e-06 1.73884e-05 -1.11824e-05 -2.36309e-06 7.60272e-06 1.19211e-06 -1.69409e-05 -1.02328e-05
internal_weight=799 730 646 586 60 563 199 364 341 295 203 92 179 49 52 168 127 99 58 41 69 130 110 41 84 46 90 61 48 46
internal_count=799 730 646 586 60 563 199 364 341 295 203 92 179 49 52 168 127 99 58 41 69 130 110 41 84 46 90 61 48 46
is_linear=0
shrinkage=0.1


Tree=5
num_leaves=31
num_cat=0
split_feature=0 1 0 0 0 0 0 0 0 1 0 0 1 1 1 0 0 0 0 0 1 1 1 0 0 1 1 0 1 1
split_gain=3.71402e-06 1.45771e-06 1.83316e-06 1.77409e-06 1.68066e-06 1.05329e-06 1.00912e-06 4.58674e-06 2.09139e-06 2.40983e-06 1.84853e-06 1.6114e-06 3.61899e-06 2.82995e-06 1.5028e-06 1.68699e-06 1.17321e-06 2.93659e-06 2.2176e-06 1.98076e-06 1.22978e-06 1.96749e-06 8.93555e-07 8.02961e-07 1.04094e-06 2.02769e-06 1.11182e-06 7.67861e-07 8.72748e-07 6.26316e-07
threshold=194.28527262964056 0.65340627156245168 -174.92397146530854 -210.6023903817331 -158.04344490351647 154.37406563527477 -86.472612122277482 -97.525382253043048 -42.492617299612895 -0.23546213972445654 -66.537423525303879 -8.6571885013181582 0.46063919302261602 0.034446500060769901 0.14598527626812699 -121.01963926707684 30.140728545440655 18.661794413892498 42.822069572786866 5.4640714278066307 0.21568978271011396 0.087828462176532687 0.84062827409246677 63.955456958799921 98.454259647645827 -0.48684410159078267 -0.3774907602874133 227.72960164875261 -0.14663809897271338 -0.23966408576701995
decision_type=2 2 2 2 2 2 2 2 2 2 2 2 2 2 2 2 2 2 2 2 2 2 2 2 2 2 2 2 2 2
left_child=1 2 3 29 -4 6 7 14 9 -8 -11 13 16 -10 15 -6 17 19 -18 -13 21 23 -3 -20 26 -26 -25 -2 -29 -1
right_child=27 22 4 -5 5 -7 8 -9 11 10 -12 12 -14 -15 -16 -17 18 -19 20 -21 -22 -23 -24 24 25 -27 -28 28 -30 -31
leaf_value=-4.5280438644113018e-06 -3.5333215129395725e-05 -2.0566115460687163e-05 -2.5974968242995342e-05 4.4462058795033955e-05 2.7170587821495468e-05 -1.5434296583407557e-05 -4.4272298139360453e-06 -4.8060665167213299e-05 5.9936008351781457e-06 1.351277846229745e-05 4.9535144478732979e-05 2.1603174987831154e-05 4.2196593101834884e-05 -3.6348496952861618e-05 -1.3976705983319942e-05 -5.0422467117233944e-06 -3.1596203817488542e-05 4.5832184132450495e-05 1.7728145853059529e-05 -1.6806753457534924e-05 -1.6228855359562051e-05 3.3536864793859426e-05 5.0186706721433445e-06 -3.0862300315805315e-05 3.1541976495645942e-05 -9.8470383693046622e-06 3.4936511656269434e-07 -2.8836771198257337e-05 2.6308738266710532e-08 2.0498254871199608e-05
leaf_weight=20 27 43 21 20 37 30 27 20 38 28 29 25 25 27 30 29 22 20 23 29 30 22 20 21 20 29 25 20 22 20
leaf_count=20 27 43 21 20 37 30 27 20 38 28 29 25 25 27 30 29 22 20 23 29 30 22 20 21 20 29 25 20 22 20
internal_value=-1.24643e-14 2.0961e-06 3.46945e-06 2.01441e-05 1.82122e-06 2.81732e-06 3.80212e-06 -4.49507e-06 5.98957e-06 2.01826e-05 3.18399e-05 2.64064e-06 5.82034e-06 -1.15947e-05 4.5811e-06 1.30165e-05 2.40152e-06 1.3099e-05 -1.72147e-06 9.75621e-07 2.14467e-06 6.08185e-06 -1.2444e-05 9.63124e-07 -3.09578e-06 7.04644e-06 -1.38994e-05 -2.21761e-05 -1.3718e-05 7.98511e-06
internal_weight=799 730 667 60 607 586 556 116 440 84 57 356 291 65 96 66 266 74 192 54 170 140 63 118 95 49 46 69 42 40
internal_count=799 730 667 60 607 586 556 116 440 84 57 356 291 65 96 66 266 74 192 54 170 140 63 118 95 49 46 69 42 40
is_linear=0
shrinkage=0.1


Tree=6
num_leaves=31
num_cat=0
split_feature=0 1 0 0 0 1 0 1 0 1 0 1 1 1 1 0 1 0 1 1 0 0 0 0 1 0 1 1 1 1
split_gain=3.00836e-06 1.18074e-06 1.48486e-06 1.43701e-06 1.36596e-06 2.74676e-06 1.79439e-06 1.90409e-06 2.11941e-06 1.10844e-06 2.74326e-06 1.25742e-06 9.40373e-07 7.69137e-06 2.77343e-06 1.82493e-06 2.28238e-06 2.5526e-06 1.2651e-06 1.21736e-06 7.9012e-07 6.92488e-07 1.57831e-06 6.36681e-07 6.17228e-07 1.27136e-06 5.58283e-07 5.07316e-07 5.00581e-07 4.91063e-07
threshold=194.28527262964056 0.65340627156245168 -174.92397146530854 -210.6023903817331 -90.415835558145758 0.2509154120078701 -42.492617299612895 -0.41683953682811248 -66.537423525303879 0.42821381006368114 20.933855152958134 0.34116840737690241 -0.10446630817576626 -0.19574969914966875 -0.0076872170170947081 110.89090844504973 -0.54746443000187917 20.933855152958134 0.11167653644973886 -0.7697320806104192 -29.794468090753067 -121.01963926707684 -147.62049752478194 219.76467153955312 0.28257541785408474 56.340668579156052 0.041264558960170818 -0.23966408576701995 -0.0076872170170947081 -0.14999468688584042
decision_type=2 2 2 2 2 2 2 2 2 2 2 2 2 2 2 2 2 2 2 2 2 2 2 2 2 2 2 2 2 2
left_child=1 2 3 27 5 21 7 -6 -9 11 -11 12 13 15 -14 16 19 -18 26 -8 -3 22 -4 -2 25 -20 -16 -1 -25 -23
right_child=23 20 4 -5 6 -7 9 8 -10 10 -12 -13 14 -15 18 -17 17 -19 24 -21 -22 29 -24 28 -26 -27 -28 -29 -30 -31
leaf_value=-4.0752392669674009e-06 -3.4481221484297534e-05 -2.5006520241731778e-05 -9.9846459706895989e-06 4.0015853701333979e-05 -9.7991817840790791e-06 -3.2897870767101267e-05 1.3387011385930238e-05 7.9153681695429817e-06 4.2501048573526269e-05 -1.1781470741632142e-05 3.5046772432643784e-05 -2.5292712089139967e-05 3.4649388050768595e-05 -5.8304084940692009e-05 -1.6479707087653326e-07 -1.7768728551648867e-05 -2.9555480622271403e-06 3.946754238583978e-05 -2.3764543281383039e-06 -1.846363241687262e-05 -2.1160418136308804e-06 2.8801473308703866e-06 2.4301874954885694e-05 -4.5985876231161121e-06 -6.3576380125596196e-06 2.925592535002916e-05 -2.0872911530508043e-05 1.8448429873387795e-05 -2.5184313355046993e-05 -1.8545006316897979e-05
leaf_weight=20 21 25 25 20 21 32 20 37 34 22 29 20 28 23 23 30 23 37 24 30 38 20 29 27 20 27 30 20 21 23
leaf_count=20 21 25 25 20 21 32 20 37 34 22 29 20 28 23 23 30 23 37 24 30 38 20 29 27 20 27 30 20 21 23
internal_value=3.60162e-14 1.88649e-06 3.1225e-06 1.81297e-05 1.63909e-06 -7.49245e-06 4.10346e-06 1.66535e-05 2.44775e-05 1.11226e-06 1.48464e-05 -9.78596e-07 5.65157e-07 -4.71106e-06 6.22321e-06 4.09351e-06 1.00559e-05 2.32054e-05 -1.95608e-07 -5.72337e-06 -1.11996e-05 8.88722e-07 8.42849e-06 -1.99585e-05 8.5313e-06 1.43701e-05 -1.18864e-05 7.1866e-06 -1.36048e-05 -8.57982e-06
internal_weight=799 730 667 60 607 129 478 92 71 386 51 335 315 163 152 140 110 60 124 50 63 97 54 69 71 51 53 40 48 43
internal_count=799 730 667 60 607 129 478 92 71 386 51 335 315 163 152 140 110 60 124 50 63 97 54 69 71 51 53 40 48 43
is_linear=0
shrinkage=0.1


Tree=7
num_leaves=31
num_cat=0
split_feature=0 1 1 1 1 1 0 1 1 1 0 1 1 1 1 1 0 0 0 1 1 1 0 1 0 0 0 1 0 1
split_gain=2.43677e-06 9.70909e-07 1.39921e-06 4.11415e-06 2.73983e-06 1.20857e-06 1.20656e-06 1.03754e-06 3.42938e-06 3.42846e-06 2.32971e-06 3.08307e-06 1.93776e-06 1.75972e-06 2.1096e-06 1.74211e-06 1.30134e-06 1.39177e-06 1.24225e-06 7.77089e-07 7.9175e-07 9.99363e-07 7.73788e-07 6.90632e-07 9.90671e-07 6.19031e-07 6.13423e-07 6.10724e-07 1.21365e-06 6.06907e-07
threshold=194.28527262964056 0.64966278026451352 0.42821381006368114 0.36258808546166427 0.50382582961681699 0.30637706830920003 -20.423679955252734 -0.31149201118713526 -0.11232706393845361 -0.55309057931231853 -35.586418975930421 -0.20607892699737823 -0.65532202119487504 -0.47105629738226168 -0.42512025637214729 0.0038302262967902108 112.3417632368437 3.0958282884239456 -60.32885146406624 0.059719238242620452 0.11167653644973886 0.22240097718926916 17.485819233974329 0.84062827409246677 -0.84566372293193115 76.21268327289728 -63.779662467801238 -0.30730467657557875 242.29480713757223 0.15239163311356405
decision_type=2 2 2 2 2 2 2 2 2 2 2 2 2 2 2 2 2 2 2 2 2 2 2 2 2 2 2 2 2 2
left_child=1 2 3 5 -4 7 -6 9 10 12 -9 -12 25 -11 -15 18 17 19 -10 -17 -21 -22 -16 24 -3 26 -1 -2 -29 -19
right_child=27 23 4 -5 6 -7 -8 8 15 13 11 -13 -14 14 22 16 -18 29 -20 20 21 -23 -24 -25 -26 -27 -28 28 -30 -31
leaf_value=1.0281384937202565e-05 -3.2186256395930074e-05 -1.2869480666598645e-06 3.7900675022228827e-05 -4.0282589729347663e-05 -1.5708062028352289e-05 2.311899278148693e-05 1.6713733715402088e-05 -2.7894109100384942e-06 1.0298220237520331e-06 4.4516277315172675e-05 -9.3451474510532402e-06 -6.4205570179183273e-05 -2.7778214358217419e-05 -1.435139272871311e-05 3.3905111054228918e-05 -1.398166436543265e-05 1.9732308003138036e-05 -8.4170423733934624e-06 2.7570699078043821e-05 2.3906314535928513e-05 -1.0586967096060108e-05 1.5807560213523594e-05 9.0439097783971759e-06 5.6440279513481076e-06 -3.0665244094052471e-05 1.8238701995869631e-05 -1.2328025643780296e-05 -2.6366687003386547e-05 5.5464056231357977e-06 -2.9449742641704888e-05
leaf_weight=21 21 22 32 23 24 28 22 43 29 24 21 20 28 20 31 22 26 34 45 21 32 26 21 20 24 20 28 26 22 23
leaf_count=21 21 22 32 23 24 28 22 43 29 24 21 20 28 20 31 22 26 34 45 21 32 26 21 20 24 20 28 26 22 23
internal_value=-2.08023e-14 1.69784e-06 2.84762e-06 1.17285e-06 1.54299e-05 2.86642e-06 -2.01986e-07 1.80647e-06 -1.50173e-06 7.66866e-06 -1.90512e-05 -3.61063e-05 -5.59064e-06 2.10661e-05 1.32493e-05 4.21206e-06 -9.99097e-07 -4.41059e-06 1.71695e-05 2.6401e-06 7.26894e-06 1.24506e-06 2.3865e-05 -9.86967e-06 -1.66148e-05 3.41302e-06 -2.63828e-06 -1.79627e-05 -1.17399e-05 -1.69039e-05
internal_weight=799 730 664 586 78 563 46 535 342 193 84 41 97 96 72 258 184 158 74 101 79 58 52 66 46 69 49 69 48 57
internal_count=799 730 664 586 78 563 46 535 342 193 84 41 97 96 72 258 184 158 74 101 79 58 52 66 46 69 49 69 48 57
is_linear=0
shrinkage=0.1


Tree=8
num_leaves=31
num_cat=0
split_feature=0 1 0 0 0 1 0 1 1 1 0 1 0 1 0 1 1 1 1 1 0 0 0 0 0 1 1 0 1 0
split_gain=1.97379e-06 7.86436e-07 1.16937e-06 1.21416e-06 1.1571e-06 2.25913e-06 1.50139e-06 7.84153e-07 2.00518e-06 1.79162e-06 1.3832e-06 3.11959e-06 1.71851e-06 3.3877e-06 2.26921e-06 3.08189e-06 3.34657e-06 2.39671e-06 2.56024e-06 1.9448e-06 1.73885e-06 2.26253e-06 1.02037e-06 7.57132e-07 6.22778e-07 5.99703e-07 1.52229e-06 1.47518e-06 4.94687e-07 9.83055e-07
threshold=194.28527262964056 0.64966278026451352 -174.92397146530854 -210.6023903817331 -90.415835558145758 0.2509154120078701 -73.101561401468629 -0.54746443000187917 -0.68202327943065078 -0.46556090853637011 -42.492617299612895 0.11380918635472846 -8.6571885013181582 0.47064721233148865 81.094127540280184 -0.2645274670428393 0.30637706830920003 0.22677871627570445 -0.23546213972445654 0.034446500060769901 62.014568630620495 30.140728545440655 120.59650668568067 -33.105635443011117 7.8704280830788784 -0.41683953682811248 -0.071285995318734349 -129.45820189986259 -0.30730467657557875 242.29480713757223
decision_type=2 2 2 2 2 2 2 2 2 2 2 2 2 2 2 2 2 2 2 2 2 2 2 2 2 2 2 2 2 2
left_child=1 2 3 -1 5 25 -6 8 -8 -9 11 -11 19 14 15 -14 20 18 -16 -12 21 24 -20 -3 -17 -4 -27 -28 -2 -30
right_child=28 23 4 -5 6 -7 7 9 -10 10 12 -13 13 -15 17 16 -18 -19 22 -21 -22 -23 -24 -25 -26 26 27 -29 29 -31
leaf_value=5.8188275761494879e-06 -2.8967629554071684e-05 -2.2598965239012615e-05 1.4960094526114435e-05 3.5995370053569788e-05 2.4096839898089511e-05 -3.019886370339009e-05 5.5885289798930498e-06 3.2966083804240039e-05 -2.8495650881918015e-05 4.4208300823811446e-05 1.9031662564624902e-06 -9.1008623019747798e-06 4.317704908663429e-05 3.985875384545501e-05 -3.3638601113731666e-05 -1.4049093029329514e-05 3.2101302942330086e-05 -4.2971439852408367e-05 -1.0411937923890947e-05 -3.6078073375952398e-05 1.7473401021561587e-05 -4.1456791080671121e-05 1.8053749146715478e-05 -5.1912725544619802e-07 1.0332668935006951e-05 -2.1265009854687379e-05 2.7172026672079008e-05 -9.1201873904841104e-06 -2.3730018756396021e-05 4.9917645273208933e-06
leaf_weight=40 21 25 22 20 33 32 45 20 28 23 28 21 21 23 21 22 27 20 20 26 20 23 34 41 20 30 21 24 26 22
leaf_count=40 21 25 22 20 33 32 45 20 28 23 28 21 21 23 21 22 27 20 20 26 20 23 34 41 20 30 21 24 26 22
internal_value=4.61008e-15 1.52806e-06 2.56286e-06 1.58777e-05 1.2402e-06 -7.15863e-06 3.52114e-06 1.98495e-06 -7.48486e-06 3.85838e-06 2.19032e-06 1.87653e-05 -2.00827e-07 3.28083e-06 -4.09045e-07 8.02247e-06 1.43099e-06 -1.22132e-05 -4.01096e-06 -1.63841e-05 -8.31135e-06 -1.62451e-05 7.5109e-06 -8.8827e-06 -2.43873e-06 4.42266e-07 -3.8163e-06 7.81618e-06 -1.61664e-05 -1.05659e-05
internal_weight=799 730 664 60 604 129 475 442 73 369 349 44 305 251 228 133 112 95 75 54 85 65 54 66 42 97 75 45 69 48
internal_count=799 730 664 60 604 129 475 442 73 369 349 44 305 251 228 133 112 95 75 54 85 65 54 66 42 97 75 45 69 48
is_linear=0
shrinkage=0.1


Tree=9
num_leaves=31
num_cat=0
split_feature=0 1 1 1 1 1 1 1 1 0 1 1 1 0 1 1 1 0 0 1 1 0 0 0 0 1 1 0 1 1
split_gain=1.59877e-06 6.37013e-07 1.17389e-06 3.29063e-06 2.29105e-06 9.61749e-07 7.36236e-07 2.76448e-06 2.41184e-06 1.69858e-06 2.56615e-06 1.40907e-06 1.68675e-06 1.35255e-06 1.29355e-06 1.22786e-06 1.81931e-06 9.70393e-07 1.01068e-06 7.46625e-07 7.72792e-07 7.0172e-07 6.24059e-07 5.14137e-07 4.83795e-07 4.7256e-07 4.39397e-07 4.35815e-07 4.00696e-07 8.53528e-07
threshold=194.28527262964056 0.64966278026451352 0.42821381006368114 0.36258808546166427 0.50382582961681699 0.30637706830920003 -0.31149201118713526 -0.11232706393845361 -0.55309057931231853 -35.586418975930421 -0.20607892699737823 -0.036449430929820226 -0.075913744807209041 112.3417632368437 -0.65532202119487504 -0.47105629738226168 -0.3774907602874133 -25.116837836183546 -62.069067302087198 0.073437084755682266 0.18687693303370564 -20.423679955252734 64.65730946346595 76.21268327289728 -118.00861644880204 0.80540989317714062 -0.42512025637214729 -63.779662467801238 -0.30730467657557875 0.095677676412784088
decision_type=2 2 2 2 2 2 2 2 2 2 2 2 2 2 2 2 2 2 2 2 2 2 2 2 2 2 2 2 2 2
left_child=1 2 3 5 -4 6 8 9 14 24 -11 12 -9 17 23 -10 26 18 19 -13 -21 -6 25 27 -8 -3 -17 -1 -2 -30
right_child=28 22 4 -5 21 -7 7 11 15 10 -12 13 -14 -15 -16 16 -18 -19 -20 20 -22 -23 -24 -25 -26 -27 -28 -29 29 -31
leaf_value=7.8901079091121496e-06 -2.6070867135699487e-05 -2.411028356921937e-05 3.4379527326677818e-05 -3.6302423477932082e-05 -1.2288278442914211e-05 2.0353697488774612e-05 -1.4691109281557149e-05 -6.1822287361359321e-08 3.7105115355492063e-05 -7.3497251876341627e-06 -5.7400206237616665e-05 -1.4076310323998183e-05 3.9560350590115628e-05 1.9006668761986395e-05 -2.2969300555684771e-05 -1.3442891286103987e-05 2.9268155682779427e-05 -1.1061053162559735e-05 2.1027538732596443e-05 2.0054780335548069e-05 -6.4780824924009323e-06 1.2437154642115773e-05 6.752601702828543e-06 1.6026399789552668e-05 6.5749094811389629e-06 -3.8198971279515804e-06 7.2678542762462579e-06 -1.1167158611767394e-05 4.3932644115082677e-06 -2.2299622505670415e-05
leaf_weight=21 21 24 32 23 24 28 20 21 24 21 20 31 22 33 28 20 31 82 25 21 23 22 20 20 23 22 21 28 23 25
leaf_count=21 21 24 32 23 24 28 20 21 24 21 20 31 22 33 28 20 31 82 25 21 23 22 20 20 23 22 21 28 23 25
internal_value=2.12348e-13 1.37525e-06 2.30658e-06 7.72564e-07 1.38313e-05 2.28717e-06 1.34164e-06 -1.44511e-06 6.2798e-06 -1.72018e-05 -3.17646e-05 3.68496e-06 2.021e-05 3.79958e-07 -4.84124e-06 1.75167e-05 1.09872e-05 -2.99741e-06 3.61477e-06 -2.18948e-06 6.18533e-06 -4.63071e-07 -7.99443e-06 2.51507e-06 -3.31626e-06 -1.44062e-05 -2.83495e-06 -2.99976e-06 -1.45498e-05 -9.50928e-06
internal_weight=799 730 664 586 78 563 535 342 193 84 41 258 43 215 97 96 72 182 100 75 44 46 66 69 43 46 41 49 69 48
internal_count=799 730 664 586 78 563 535 342 193 84 41 258 43 215 97 96 72 182 100 75 44 46 66 69 43 46 41 49 69 48
is_linear=0
shrinkage=0.1


Tree=10
num_leaves=31
num_cat=0
split_feature=0 0 0 0 0 1 0 1 1 1 0 1 0 1 0 0 1 1 1 1 1 1 1 1 1 1 0 1 1 1
split_gain=1.295e-06 6.10678e-07 1.14395e-06 3.08615e-06 1.31854e-06 9.95263e-07 9.56373e-07 1.20458e-06 5.78472e-07 2.46998e-06 2.21185e-06 1.79784e-06 1.00303e-06 1.95215e-06 1.61471e-06 1.35466e-06 1.85134e-06 3.51649e-06 1.75698e-06 2.16535e-06 2.10717e-06 1.06191e-06 6.81589e-07 5.93331e-07 5.75257e-07 5.41151e-07 5.37274e-07 4.21203e-07 1.09118e-06 3.48396e-07
threshold=194.28527262964056 -174.92397146530854 -86.472612122277482 -97.525382253043048 -73.101561401468629 0.2709091807099327 -109.0249926286924 -0.071285995318734349 0.50382582961681699 0.43415273402821503 64.65730946346595 0.63978715122078367 110.89090844504973 0.30637706830920003 98.454259647645827 81.094127540280184 -0.60877760785618829 -0.35179225696821431 -0.10793605160670201 1.0000000180025095e-35 -0.20607892699737823 -0.45443708790293297 -0.2645274670428393 0.099292488001666471 0.0038302262967902108 -0.7697320806104192 3.0958282884239456 -0.25934898731625661 0.24292482867193191 -0.098928960238288857
decision_type=2 2 2 2 2 2 2 2 2 2 2 2 2 2 2 2 2 2 2 2 2 2 2 2 2 2 2 2 2 2
left_child=1 27 3 5 -4 6 7 -3 9 12 11 -10 13 14 15 16 25 21 20 -20 -19 -18 -14 -21 -24 -6 -25 -1 -29 -2
right_child=29 2 4 -5 8 -7 -8 -9 10 -11 -12 -13 22 -15 -16 -17 17 18 19 23 -22 -23 24 26 -26 -27 -28 28 -30 -31
leaf_value=2.1145188846908836e-05 -2.0516534051707959e-05 -1.3669572366873184e-05 2.3998258472635859e-05 -4.302648282776188e-05 -6.6976898995649432e-06 -1.7043928997854012e-05 2.2421344155667439e-05 1.2508599959915046e-05 -3.9743402189544766e-05 3.7072845007060099e-05 1.5906070653467658e-05 -1.6968673595261795e-06 -2.2282226697055965e-05 2.8303621623089042e-05 2.8436633801902644e-05 -2.6054494101117597e-05 1.5161408088676146e-05 2.8729371297231412e-06 2.9025342303578292e-05 7.2524819122945973e-06 -4.3030945853388403e-05 4.6264018413109758e-05 1.0867644523386845e-05 7.2976300333931042e-07 -1.0625357699058386e-05 -2.9399716004263611e-05 -1.9066976779742681e-05 -8.7291901797504613e-06 2.1273003287867389e-05 -6.2915198517051371e-06
leaf_weight=23 33 39 27 21 21 31 21 32 23 20 28 27 26 29 20 20 23 20 27 33 20 21 20 26 33 21 29 27 22 36
leaf_count=23 33 39 27 21 21 31 21 32 23 20 28 27 26 29 20 20 23 20 27 33 20 21 20 26 33 21 29 27 22 36
internal_value=5.06682e-14 1.23773e-06 2.80977e-07 -7.59658e-06 2.48792e-06 -1.54757e-06 3.67402e-06 -1.87096e-06 1.29536e-06 2.80044e-06 -6.59671e-06 -1.91983e-05 1.03837e-06 3.60176e-06 1.05246e-06 -1.04594e-06 1.02946e-06 5.056e-06 -2.02653e-06 4.25259e-06 -2.0079e-05 3.00058e-05 -9.02053e-06 -3.34814e-06 -2.51479e-06 -1.80487e-05 -9.70852e-06 9.98135e-06 4.74118e-06 -1.30948e-05
internal_weight=799 730 658 144 514 123 92 71 487 409 78 50 389 310 281 261 241 199 155 115 40 44 79 88 53 42 55 72 49 69
internal_count=799 730 658 144 514 123 92 71 487 409 78 50 389 310 281 261 241 199 155 115 40 44 79 88 53 42 55 72 49 69
is_linear=0
shrinkage=0.1


Tree=11
num_leaves=31
num_cat=0
split_feature=0 1 1 0 0 1 0 1 1 1 1 1 0 1 1 0 1 1 1 0 1 0 0 1 0 0 1 0 0 1
split_gain=1.05618e-06 5.87491e-07 1.1793e-06 2.60183e-06 5.81042e-06 2.24817e-06 7.02457e-07 5.48953e-07 5.7706e-07 1.9837e-06 1.83815e-06 1.32148e-06 1.0852e-06 1.0783e-06 9.74472e-07 1.50825e-06 1.23266e-06 9.15167e-07 2.13767e-06 1.10389e-06 7.41125e-07 7.26641e-07 4.89424e-07 4.83079e-07 4.69246e-07 6.48074e-07 6.3351e-07 5.66263e-07 7.64356e-07 2.88173e-07
threshold=192.1926427191793 0.64966278026451352 0.45318233043458384 20.933855152958134 -63.779662467801238 0.38058228880185285 -0.84566372293193115 0.30637706830920003 -0.35179225696821431 -0.38554739655689124 -0.11232706393845361 -0.16640337428494165 -76.284932953742086 -0.23966408576701995 -0.036449430929820226 112.3417632368437 -0.075913744807209041 -0.50515465360003553 -0.60877760785618829 78.134087230748278 -0.7697320806104192 27.252444738660419 20.933855152958134 -0.55309057931231853 -142.68418205582563 -106.38836648262803 0.034446500060769901 -0.84566372293193115 -48.212398892595949 -0.30730467657557875
decision_type=2 2 2 2 2 2 2 2 2 2 2 2 2 2 2 2 2 2 2 2 2 2 2 2 2 2 2 2 2 2
left_child=1 2 5 4 -4 7 -3 8 9 12 11 13 23 22 16 21 -12 18 19 20 -14 24 -10 -1 -16 -26 -27 28 -28 -2
right_child=29 6 3 -5 -6 -7 -8 -9 10 -11 14 -13 17 -15 15 -17 -18 -19 -20 -21 -22 -23 -24 -25 25 26 27 -29 -30 -31
leaf_value=5.3717530531487329e-06 -2.1412127482887759e-05 1.8571455439087004e-06 3.4522453309667377e-05 4.4849234441244335e-05 -3.8458463823189962e-05 -2.6498844548267044e-05 -1.8814115773854994e-05 1.3996905727253762e-05 -2.7350383507754573e-05 3.4729232172702768e-05 -2.906222583814746e-07 -3.4436198918476953e-05 -3.6139302756055261e-06 7.308233159619704e-06 -1.0931361085285659e-05 2.0924585805914832e-05 3.3580921196765055e-05 -1.8444440753102816e-05 2.6725223578978332e-05 1.1265647117397748e-05 -3.0511499304945273e-05 -1.4842810199411361e-05 -5.7360916252946485e-06 2.6349647582503082e-05 1.9658703640743626e-05 1.558444546390092e-05 -5.1592730869742815e-07 9.3554511425151905e-06 -2.5436585162879054e-05 -7.4934528891604069e-06
leaf_weight=23 21 35 24 20 20 29 31 36 22 21 21 22 20 32 29 31 22 29 25 20 21 40 20 21 20 20 32 21 20 51
leaf_count=23 21 35 24 20 20 29 31 36 22 21 21 22 20 32 29 31 22 29 25 20 21 40 20 21 20 20 32 21 20 51
internal_value=-4.45641e-14 1.14418e-06 2.04245e-06 1.4943e-05 1.34931e-06 6.59471e-07 -7.85208e-06 2.04607e-06 1.23737e-06 5.84301e-06 -1.11778e-06 -1.29184e-05 2.02785e-06 -6.52117e-06 3.30744e-06 5.35335e-07 1.7039e-05 -3.08231e-06 2.09795e-06 -7.9952e-06 -1.73907e-05 -2.93756e-06 -1.70579e-05 1.53839e-05 4.16032e-07 3.3282e-06 -1.83742e-07 -4.50379e-06 -1.01008e-05 -1.15531e-05
internal_weight=799 727 661 64 44 597 66 568 532 180 352 96 159 74 256 213 43 115 86 61 41 182 42 44 142 113 93 73 52 72
internal_count=799 727 661 64 44 597 66 568 532 180 352 96 159 74 256 213 43 115 86 61 41 182 42 44 142 113 93 73 52 72
is_linear=0
shrinkage=0.1


Tree=12
num_leaves=31
num_cat=0
split_feature=0 1 0 1 1 1 1 1 1 0 0 1 0 1 1 1 1 1 1 1 1 0 1 1 0 1 0 1 0 1
split_gain=9.41064e-07 1.18046e-06 1.13207e-06 8.34831e-07 1.48815e-06 1.1442e-06 2.29831e-06 7.48858e-07 2.10675e-06 9.89283e-07 2.37966e-06 1.24127e-06 4.54982e-06 1.20002e-06 8.60926e-07 1.57078e-06 3.94899e-06 3.09819e-06 1.97308e-06 1.24899e-06 1.15929e-06 9.31316e-07 7.14366e-07 8.62054e-07 5.04877e-07 6.49212e-07 1.069e-06 3.15067e-07 2.15835e-07 1.49673e-07
threshold=122.81041739211652 0.65340627156245168 -0.84566372293193115 0.29452884909150329 0.067203071773327655 -0.40797008875983115 -0.19772202930472213 0.45318233043458384 0.51021926240358895 -66.537423525303879 -35.035013074309965 0.2709091807099327 -81.019623981926983 -0.18101327207147505 0.23516162813411084 -0.22291071730338818 -0.095990866249161907 -0.38554739655689124 1.0000000180025095e-35 0.36258808546166427 -0.68202327943065078 7.8704280830788784 0.13174264780908027 -0.44430860420142942 -194.07588309551645 -0.071285995318734349 -118.00861644880204 -0.54746443000187917 78.89420577102284 0.59531544549554494
decision_type=2 2 2 2 2 2 2 2 2 2 2 2 2 2 2 2 2 2 2 2 2 2 2 2 2 2 2 2 2 2
left_child=1 7 -3 4 5 -2 -7 9 -9 11 13 12 22 -11 15 17 -17 20 -18 -16 -12 -20 23 -1 -25 26 -26 -22 -23 -10
right_child=3 2 -4 -5 -6 6 -8 8 29 10 14 -13 -14 -15 19 16 18 -19 21 -21 27 28 -24 24 25 -27 -28 -29 -30 -31
leaf_value=1.7617092904903735e-05 6.8703707964030198e-06 -8.8503100628526336e-07 -2.9997552858483028e-05 -2.2590038899015155e-05 1.7377619895761692e-05 -4.3376293090411559e-05 -1.8954540872287265e-06 3.9053883500898899e-05 -5.5469078818402655e-06 7.2456693742424251e-06 1.2169939824768032e-05 -2.3278868450558679e-05 -4.4534910263055718e-05 3.6486279697101054e-05 2.8779355343431234e-05 -5.0058255765179639e-05 2.5897243349824015e-05 3.4436138448654675e-05 -2.6667220291052392e-05 -3.5104573370240949e-06 -2.2049601414307422e-05 3.7920485101494703e-06 2.1234257956561836e-05 8.924307849156321e-06 -2.8336499129485065e-05 4.0977332951620661e-06 2.5579382573986161e-06 -5.8460246171827231e-06 -9.619221054890659e-06 6.1299103317255886e-06
leaf_weight=29 27 34 22 29 26 22 34 21 21 25 30 28 21 32 25 20 21 30 21 23 21 30 23 32 24 36 21 28 20 23
leaf_count=29 27 34 22 29 26 22 34 21 21 25 30 28 21 32 25 20 21 30 21 23 21 30 23 32 24 36 21 28 20 23
internal_value=-3.33519e-14 1.5681e-06 -1.23221e-05 -7.51099e-06 -3.49914e-06 -1.00388e-05 -1.81915e-05 2.85381e-06 1.29944e-05 1.63318e-06 5.10104e-06 -3.64963e-06 -6.94691e-07 2.36615e-05 1.16817e-06 -1.46835e-06 -9.78534e-06 7.07754e-06 -1.03035e-06 1.33072e-05 -3.3118e-06 -8.99485e-06 4.88497e-06 2.23685e-06 -1.71029e-06 -5.91162e-06 -1.39191e-05 -1.27904e-05 -1.57246e-06 5.56883e-07
internal_weight=799 661 56 138 109 83 56 605 65 540 326 214 186 57 269 221 112 109 92 48 79 71 165 142 113 81 45 49 50 44
internal_count=799 661 56 138 109 83 56 605 65 540 326 214 186 57 269 221 112 109 92 48 79 71 165 142 113 81 45 49 50 44
is_linear=0
shrinkage=0.1


Tree=13
num_leaves=30
num_cat=0
split_feature=0 1 0 0 0 1 0 0 1 1 1 0 0 0 0 1 1 0 1 1 0 0 1 0 0 1 1 0 1
split_gain=7.62261e-07 9.56172e-07 9.16977e-07 6.88613e-07 1.33159e-06 1.56406e-06 1.08309e-06 1.06853e-06 7.21003e-07 2.04464e-06 7.11707e-07 1.29003e-06 1.10429e-06 9.10311e-07 1.00773e-06 2.52343e-06 1.08115e-06 7.19647e-07 6.76213e-07 1.2054e-06 1.16129e-06 2.23843e-06 5.93739e-07 5.17156e-07 1.0048e-06 5.03958e-07 4.39281e-07 4.18685e-07 3.44623e-07
threshold=122.81041739211652 0.65340627156245168 -0.84566372293193115 -174.92397146530854 -90.415835558145758 0.2509154120078701 -210.6023903817331 -73.101561401468629 0.50382582961681699 0.30637706830920003 0.21568978271011396 98.454259647645827 63.955456958799921 42.822069572786866 -25.116837836183546 -0.35179225696821431 -0.012107436587353694 -58.728603995317819 0.29452884909150329 0.067203071773327655 208.8312419317663 168.02043976750431 -0.23966408576701995 -121.01963926707684 -147.62049752478194 -0.3774907602874133 -0.1368581374753795 36.24102763515112 -0.14999468688584042
decision_type=2 2 2 2 2 2 2 2 2 2 2 2 2 2 2 2 2 2 2 2 2 2 2 2 2 2 2 2 2
left_child=1 3 -3 6 5 23 22 -6 9 10 11 12 13 14 17 -16 -17 -9 19 20 21 -2 -1 24 -5 -14 -19 -11 -25
right_child=18 2 -4 4 7 -7 -8 8 -10 27 -12 -13 25 -15 15 16 -18 26 -20 -21 -22 -23 -24 28 -26 -27 -28 -29 -30
leaf_value=-8.9474045671522612e-06 -3.7816968675282888e-07 -7.9652767025810832e-07 -2.6997798026555264e-05 -9.2789404152426876e-06 2.1467484629917607e-05 -2.659833669440559e-05 3.1737119315948802e-05 -4.9114007803533847e-06 -1.1186977248786101e-05 3.1810213011340238e-05 -1.4580948808989653e-05 2.0360099941691653e-05 -2.5041175623690446e-05 2.1162099072171258e-05 1.448389419452082e-05 -3.8790289399912583e-05 -9.1518380259003617e-06 6.5607640256833593e-06 -2.0331034523038703e-05 1.5639857478023401e-05 5.1651041597805869e-06 -4.3567916916453258e-05 1.5419357368955388e-05 3.1482552003581083e-07 1.8077964056107608e-05 -4.9775982651842631e-06 2.5501365649688525e-05 1.3685463076958864e-05 -1.7633645778835712e-05
leaf_weight=20 28 34 22 25 33 32 20 24 34 25 27 35 21 25 34 20 32 24 29 26 34 21 20 20 29 31 25 26 23
leaf_count=20 28 34 22 25 33 32 20 24 34 25 27 35 21 25 34 20 32 24 29 26 34 21 20 20 29 31 25 26 23
internal_value=1.85799e-14 1.41129e-06 -1.10899e-05 2.56843e-06 1.44902e-06 -7.42742e-06 1.27364e-05 4.20157e-06 2.71391e-06 4.06815e-06 9.01701e-07 2.44425e-06 -2.12759e-07 3.42369e-06 6.34633e-07 -6.70014e-06 -2.05512e-05 9.2756e-06 -6.75989e-06 -3.14922e-06 -9.03496e-06 -1.88881e-05 3.23598e-06 -1.10299e-06 5.41273e-06 -1.30802e-05 1.62243e-05 2.25701e-05 -9.28552e-06
internal_weight=799 661 56 605 545 129 60 416 383 349 298 271 236 184 159 86 52 73 138 109 83 49 40 97 54 52 49 51 43
internal_count=799 661 56 605 545 129 60 416 383 349 298 271 236 184 159 86 52 73 138 109 83 49 40 97 54 52 49 51 43
is_linear=0
shrinkage=0.1


Tree=14
num_leaves=31
num_cat=0
split_feature=0 0 0 0 0 0 1 0 0 0 0 0 1 1 1 1 1 0 0 1 0 0 1 1 0 1 1 0 1 1
split_gain=6.61196e-07 3.76293e-06 2.76928e-06 9.96183e-07 1.649e-06 1.7624e-06 1.4358e-06 1.52275e-06 9.2546e-07 8.99426e-07 1.18842e-06 1.33591e-06 1.42228e-06 1.27736e-06 1.07524e-06 2.43253e-06 2.75535e-06 8.60319e-07 9.18062e-07 7.31406e-07 6.93798e-07 6.09814e-07 1.11405e-06 1.59673e-06 6.64763e-07 1.81043e-06 4.62279e-07 1.36077e-06 6.40776e-07 3.28973e-07
threshold=34.928474105712674 42.822069572786866 20.933855152958134 82.546233229215446 93.182329849703834 107.00799403127168 -0.42512025637214729 57.921627836774867 116.83932640483546 5.4640714278066307 -66.537423525303879 -129.45820189986259 0.45318233043458384 -0.019753619372010343 0.34116840737690241 0.073437084755682266 -0.14999468688584042 -231.37123974383573 -154.7055953641902 0.14975026850123704 154.37406563527477 -51.351220141550577 0.56596635455827171 -0.31149201118713526 -8.6571885013181582 0.11380918635472846 -0.046187355960913258 208.8312419317663 0.29452884909150329 0.032072715808553566
decision_type=2 2 2 2 2 2 2 2 2 2 2 2 2 2 2 2 2 2 2 2 2 2 2 2 2 2 2 2 2 2
left_child=2 -2 9 6 -5 -6 -3 -8 -7 10 11 12 13 17 15 16 -13 -1 -19 -9 29 -12 23 -23 25 -25 27 -22 -28 -10
right_child=1 3 -4 4 5 8 7 19 20 -11 21 14 -14 -15 -16 -17 -18 18 -20 -21 26 22 -24 24 -26 -27 28 -29 -30 -31
leaf_value=-8.968983768552011e-06 -4.4418796564319307e-05 -1.512435032054782e-05 3.4770462312735621e-05 -3.0910072694366267e-05 2.2296531716603098e-05 -2.4865758660737249e-05 -6.1535688308305739e-06 1.4023107511699587e-05 2.7205385049455802e-07 -1.3737116734091615e-05 2.1014803254123158e-05 -2.1801473243006819e-07 2.513442094722349e-05 -1.4206478755070187e-05 -2.9315939521082961e-05 1.8398552280511165e-05 -4.2148585358518178e-05 2.6986765247524354e-05 -1.0651530396899035e-06 3.9577770266554408e-05 -3.3202324820671321e-05 2.2582517466127265e-05 2.7178217533219143e-05 2.589208980357545e-06 8.2525628551428038e-06 -3.6001303215016378e-05 8.3873993844463261e-06 1.0227776818702785e-06 -1.349503712370516e-05 1.7478916561231017e-05
leaf_weight=21 21 20 25 21 27 21 22 24 25 40 33 42 27 42 23 30 25 28 20 21 21 26 20 31 22 20 32 26 23 20
leaf_count=21 21 20 25 21 27 21 22 24 25 40 33 42 27 42 23 30 25 28 20 21 21 26 20 31 22 20 32 26 23 20
internal_value=9.60718e-14 -3.4831e-06 2.37584e-06 -6.45973e-07 -4.28496e-06 -1.41764e-06 8.38876e-06 1.54076e-05 -5.22885e-06 5.7614e-07 1.97256e-06 -2.15987e-06 4.55025e-06 -4.56706e-07 -9.87651e-06 -5.26716e-06 -1.58638e-05 7.91272e-06 1.52985e-05 2.59486e-05 -2.42358e-06 8.9868e-06 5.65131e-06 1.30244e-06 -6.27677e-06 -1.25443e-05 -6.98672e-06 -1.42693e-05 -7.63438e-07 7.91955e-06
internal_weight=799 324 475 303 216 195 87 67 168 450 410 258 138 111 120 97 67 69 48 45 147 152 119 99 73 51 102 47 55 45
internal_count=799 324 475 303 216 195 87 67 168 450 410 258 138 111 120 97 67 69 48 45 147 152 119 99 73 51 102 47 55 45
is_linear=0
shrinkage=0.1


Tree=15
num_leaves=31
num_cat=0
split_feature=0 0 1 0 1 0 1 0 0 1 1 0 0 1 1 1 0 1 1 1 1 0 0 0 1 1 1 0 1 1
split_gain=5.80454e-07 5.58434e-07 8.15654e-07 1.0939e-06 8.25678e-07 9.58663e-07 7.4097e-07 1.82451e-06 4.22156e-06 1.53141e-06 1.74721e-06 8.30892e-07 7.91397e-07 6.4327e-07 2.18684e-06 1.35125e-06 1.53005e-06 1.18338e-06 7.67222e-07 6.31944e-07 1.06256e-06 6.5052e-07 1.50145e-06 7.26227e-07 5.72491e-07 4.66602e-07 1.25552e-06 3.53678e-07 2.66744e-07 7.35861e-07
threshold=194.28527262964056 170.89636795859408 0.65340627156245168 138.09743543082007 0.84062827409246677 -0.84566372293193115 0.45318233043458384 -73.101561401468629 -3.1249539137497773 0.33474552261932894 0.28604032806611607 116.83932640483546 22.246850319024819 -0.27334923209942313 -0.55309057931231853 -0.11232706393845361 -35.586418975930421 -0.036449430929820226 -0.65532202119487504 0.23516162813411084 0.18687693303370564 -25.116837836183546 -142.68418205582563 9.5926048442051997 0.070458371600409422 -0.42512025637214729 -0.35806926790593235 -118.00861644880204 0.085040259753371969 -0.30730467657557875
decision_type=2 2 2 2 2 2 2 2 2 2 2 2 2 2 2 2 2 2 2 2 2 2 2 2 2 2 2 2 2 2
left_child=1 2 3 6 5 -4 9 -8 -9 10 11 13 -11 14 18 16 27 -17 -1 20 21 22 -19 -23 -24 -16 -27 -15 29 -2
right_child=28 -3 4 -5 -6 -7 7 8 -10 12 -12 -13 -14 15 25 17 -18 19 -20 -21 -22 23 24 -25 -26 26 -28 -29 -30 -31
leaf_value=1.4714207312770947e-07 -1.7321695555611292e-05 1.6899472428208572e-05 -3.4595880909667666e-06 -2.0014670280943395e-05 6.1189816005935435e-06 -3.3675676760529837e-05 3.7428416180773642e-05 -3.3115840706159362e-05 2.8523484797915446e-05 -2.6912776206700073e-05 3.0189153153514781e-05 1.9525095778287022e-05 -8.6781768914079305e-07 -1.1671589672914707e-05 7.1251243549628086e-06 1.7364970486405104e-05 -3.2747264369196012e-05 -1.6683741639347072e-05 -1.9953741139033811e-05 1.2665664207816008e-05 -2.5376459372983807e-05 -2.446059799694922e-05 4.182070034193412e-06 -1.022904479423932e-06 2.5376059465315849e-05 3.3982121429730658e-05 3.5463554962442013e-06 7.1347297125612388e-06 -1.6762884975972925e-05 8.8487452640864926e-06
leaf_weight=59 21 21 21 23 20 21 20 20 25 28 22 24 20 20 38 38 28 22 28 25 21 20 26 39 25 33 23 20 26 22
leaf_count=59 21 21 21 23 20 21 20 20 25 28 22 24 20 20 38 38 28 22 28 25 21 20 26 39 25 33 23 20 26 22
internal_value=1.20125e-13 8.28655e-07 3.52651e-07 1.40261e-06 -1.06042e-05 -1.85676e-05 2.19203e-06 1.22975e-05 1.12823e-06 1.01698e-06 2.62114e-06 1.38086e-06 -1.60607e-05 4.44386e-07 5.10336e-06 -2.52489e-06 -1.48185e-05 1.34534e-06 -6.32211e-06 -2.07459e-06 -4.48312e-06 -1.15918e-06 5.15196e-06 -8.96789e-06 1.45713e-05 1.5678e-05 2.14817e-05 -2.26843e-06 -8.76693e-06 -3.93217e-06
internal_weight=799 730 709 647 62 42 624 65 45 559 511 489 48 465 181 284 68 216 87 178 153 132 73 59 51 94 56 40 69 43
internal_count=799 730 709 647 62 42 624 65 45 559 511 489 48 465 181 284 68 216 87 178 153 132 73 59 51 94 56 40 69 43
is_linear=0
shrinkage=0.1


Tree=16
num_leaves=31
num_cat=0
split_feature=0 0 0 0 0 0 0 1 1 1 1 0 1 1 1 0 0 1 1 1 0 0 0 1 0 1 1 0 0 1
split_gain=4.99588e-07 3.11694e-06 2.27302e-06 7.95604e-07 2.05039e-06 1.8012e-06 1.19052e-06 1.72579e-06 7.94232e-07 1.37516e-06 7.61037e-07 8.04395e-07 2.25655e-06 7.11214e-07 3.64901e-06 2.68857e-06 2.53152e-06 2.38071e-06 8.56211e-07 1.23347e-06 8.72912e-07 1.63977e-06 2.34131e-06 7.60122e-07 1.08821e-06 9.48773e-07 7.5871e-07 6.65712e-07 5.84857e-07 4.18269e-07
threshold=34.928474105712674 42.822069572786866 20.933855152958134 81.094127540280184 91.421160031553896 107.00799403127168 56.340668579156052 0.070458371600409422 -0.65532202119487504 -0.28436765499351507 0.29452884909150329 192.1926427191793 0.087828462176532687 0.33474552261932894 0.42821381006368114 -148.98975993237397 -33.105635443011117 0.22086088280264418 0.10678744635886304 0.059719238242620452 -21.800357249660006 -67.507883971200485 -83.855957855201254 -0.44430860420142942 -130.80975119486536 -0.071285995318734349 -0.25451699530940114 -82.024735658327685 -42.492617299612895 0.15239163311356405
decision_type=2 2 2 2 2 2 2 2 2 2 2 2 2 2 2 2 2 2 2 2 2 2 2 2 2 2 2 2 2 2
left_child=2 -2 13 6 -5 -6 -3 -8 -7 -10 11 12 -11 17 -15 -16 -17 18 19 20 21 22 23 -1 25 26 -25 -19 -23 -20
right_child=1 3 -4 4 5 8 7 -9 9 10 -12 -13 -14 14 15 16 -18 27 29 -21 -22 28 -24 24 -26 -27 -28 -29 -30 -31
leaf_value=1.5656061946331115e-05 -4.0284272559109101e-05 -1.2791660241245629e-05 3.1414055669301886e-05 -3.3330159723326302e-05 2.2102665119139906e-05 1.4205677980498876e-05 8.2744802450572424e-07 3.4445855740509262e-05 -2.4676488053099839e-05 -7.239784512281543e-06 -1.429473191177856e-05 -8.0986811714383832e-06 3.7438789295265455e-05 -4.4049964539486351e-05 3.2623892382782127e-05 -2.4647908446097163e-05 1.4583825997823593e-05 1.1781000903283712e-05 -2.3722557263216093e-05 2.3792903717232709e-05 -1.5550157309696785e-05 2.8332693652070403e-05 -3.5382533969823274e-05 9.6645255962357636e-06 -1.7195311599661022e-05 2.1746650219773238e-05 -1.7880161994980881e-05 3.6989188736862911e-05 7.6818222169094948e-06 -3.5158719583705534e-06
leaf_weight=29 21 21 25 21 30 20 37 26 34 26 34 34 20 21 22 38 29 20 21 23 33 24 20 20 34 22 20 22 32 20
leaf_count=29 21 21 25 21 30 20 37 26 34 26 34 34 20 21 22 38 29 20 21 23 33 24 20 20 34 22 20 22 32 20
internal_value=3.63897e-14 -3.02766e-06 2.06518e-06 -4.45519e-07 -3.61906e-06 -4.67888e-07 7.82837e-06 1.47017e-05 -4.49834e-06 -7.02591e-06 -1.76171e-06 3.56483e-06 1.21857e-05 4.3469e-07 -6.55467e-06 2.29254e-06 -7.66701e-06 2.69595e-06 -4.45498e-07 1.69546e-06 -4.76513e-07 1.99826e-06 -3.61484e-06 1.46799e-06 -2.81799e-06 5.06635e-06 -4.10782e-06 2.49853e-05 1.65322e-05 -1.38656e-05
internal_weight=799 324 475 303 219 198 84 63 168 148 114 80 46 450 110 89 67 340 298 257 234 201 145 125 96 62 40 42 56 41
internal_count=799 324 475 303 219 198 84 63 168 148 114 80 46 450 110 89 67 340 298 257 234 201 145 125 96 62 40 42 56 41
is_linear=0
shrinkage=0.1


Tree=17
num_leaves=31
num_cat=0
split_feature=0 0 0 0 1 0 0 0 0 1 1 1 0 0 0 0 1 0 1 0 1 1 1 1 0 1 1 0 0 1
split_gain=4.04667e-07 2.52472e-06 1.84115e-06 6.67354e-07 1.16686e-06 1.18523e-06 1.07398e-06 1.45897e-06 7.81088e-07 6.38503e-07 2.69163e-06 6.46057e-07 8.15989e-07 6.21584e-07 1.00186e-06 9.374e-07 8.07266e-07 9.29893e-07 2.25199e-06 1.08924e-06 6.69707e-07 1.54483e-06 2.1905e-06 5.07126e-07 4.23064e-07 6.4776e-07 8.71242e-07 8.58489e-07 1.07691e-06 5.14768e-08
threshold=34.928474105712674 42.822069572786866 20.933855152958134 78.134087230748278 -0.35918833749957241 64.65730946346595 91.421160031553896 107.00799403127168 116.83932640483546 -0.42512025637214729 -0.19772202930472213 -0.012107436587353694 208.8312419317663 5.4640714278066307 -66.537423525303879 -129.45820189986259 0.45318233043458384 -147.62049752478194 -0.25934898731625661 -174.92397146530854 0.34116840737690241 0.073437084755682266 -0.14999468688584042 0.23516162813411084 -56.827590973312901 -0.31149201118713526 0.56596635455827171 -35.586418975930421 -8.6571885013181582 -0.41683953682811248
decision_type=2 2 2 2 2 2 2 2 2 2 2 2 2 2 2 2 2 2 2 2 2 2 2 2 2 2 2 2 2 2
left_child=2 -2 13 4 -3 -6 -5 -8 -9 -10 -11 -12 23 14 15 16 17 18 -1 -20 21 22 29 -13 -16 -26 27 -27 -29 -17
right_child=1 3 -4 6 5 -7 7 8 9 10 11 12 -14 -15 24 20 -18 -19 19 -21 -22 -23 -24 -25 25 26 -28 28 -30 -31
leaf_value=1.8153809352432808e-05 -3.6255844003920048e-05 -1.0973322281168532e-05 2.8272650568396788e-05 -2.0724704154417853e-05 2.0997665842514834e-06 3.2384114637314575e-05 1.989239848626312e-05 -2.2088830190200716e-05 1.1544003852274426e-05 -3.547159935608405e-05 1.8640825373950065e-05 1.7427056833263994e-05 -1.3983303189536768e-05 -1.1507646486279556e-05 1.9343805211570321e-05 3.7751518406862903e-06 1.888647249735961e-05 1.7033032319583676e-05 -4.2237105707031203e-06 -3.1591780994998629e-05 -2.4047850883621522e-05 1.3791150813631249e-05 -3.6949272577658126e-05 -4.3456901039462535e-06 1.9587332630740444e-05 1.2720267291873219e-05 1.9930870690759984e-05 -2.1719666779063119e-05 7.0212734664726843e-06 -3.2346244188374841e-06
leaf_weight=28 21 23 25 30 28 24 30 21 30 23 20 23 31 40 27 22 27 24 33 26 23 30 25 20 26 24 21 32 22 20
leaf_count=28 21 23 25 30 28 24 30 21 30 23 20 23 31 40 27 22 27 24 33 26 23 30 25 20 26 24 21 32 22 20
internal_value=2.98801e-14 -2.72489e-06 1.85866e-06 -4.00967e-07 7.78168e-06 1.60772e-05 -3.09263e-06 -4.21099e-07 -4.04851e-06 -1.47132e-06 -4.80858e-06 2.69407e-06 -1.61586e-06 3.91221e-07 1.55209e-06 -2.24214e-06 3.37874e-06 -3.93417e-07 -5.20071e-06 -1.62842e-05 -8.70614e-06 -5.06842e-06 -1.3513e-05 7.3002e-06 7.99228e-06 5.54035e-06 1.85125e-06 -3.01634e-06 -1.00104e-05 4.37163e-07
internal_weight=799 324 475 303 75 52 228 198 168 147 117 94 74 450 410 258 138 111 87 59 120 97 67 43 152 125 99 78 54 42
internal_count=799 324 475 303 75 52 228 198 168 147 117 94 74 450 410 258 138 111 87 59 120 97 67 43 152 125 99 78 54 42
is_linear=0
shrinkage=0.1


Tree=18
num_leaves=31
num_cat=0
split_feature=1 1 1 0 0 0 0 0 1 0 1 1 1 0 1 1 1 1 1 1 0 0 1 1 0 1 1 0 0 1
split_gain=4.2612e-07 2.21511e-06 1.15171e-06 1.50442e-06 3.86663e-07 5.67969e-07 8.60861e-07 6.80979e-07 3.10433e-06 1.06432e-06 8.61317e-07 1.69871e-06 7.36872e-07 1.40677e-06 7.25158e-07 1.68428e-06 1.23489e-06 7.58661e-07 6.52168e-07 7.02891e-07 5.92229e-07 2.16028e-06 1.75124e-06 1.45027e-06 1.33358e-06 2.82909e-06 1.29491e-06 3.01059e-07 1.56216e-07 1.04798e-07
threshold=-0.59835499268018755 -0.53030572512233143 -0.68202327943065078 93.182329849703834 -204.93411222492429 -160.37495583084817 -142.68418205582563 -86.472612122277482 0.2709091807099327 -73.101561401468629 -0.38554739655689124 -0.31149201118713526 -0.19241497959988907 -109.0249926286924 -0.10446630817576626 -0.0076872170170947081 -0.19241497959988907 0.059719238242620452 0.095677676412784088 0.13953866524987529 82.546233229215446 56.340668579156052 0.51021926240358895 0.30637706830920003 170.89636795859408 0.46063919302261602 0.63978715122078367 79.640814902100843 91.421160031553896 -0.026444603428373608
decision_type=2 2 2 2 2 2 2 2 2 2 2 2 2 2 2 2 2 2 2 2 2 2 2 2 2 2 2 2 2 2
left_child=2 -2 3 -1 29 -6 -7 8 12 -9 27 -12 -8 -14 16 -16 28 -17 -19 -20 21 22 23 -21 25 -22 -24 -11 -13 -3
right_child=1 4 -4 -5 5 6 7 9 -10 10 11 14 13 -15 15 17 -18 18 19 20 24 -23 26 -25 -26 -27 -28 -29 -30 -31
leaf_value=-9.6972530337417142e-06 3.069327652838183e-05 4.3163037678988827e-06 -2.5235162676532738e-05 2.2497171422790935e-05 -1.2363513188518028e-05 1.9832642352585462e-05 -1.304074335383207e-05 2.1227494486690071e-05 -3.9571134584548419e-05 -2.2989078970567789e-05 2.869846284738742e-05 -5.3862103543776491e-06 2.6183970370160144e-05 -9.256788152491763e-06 2.0971384279059399e-05 -1.5676703444000851e-05 -2.7017965546222585e-05 1.5664658267793967e-05 -1.6878840600838885e-05 -4.5180942025682371e-06 -4.5256474863890616e-05 3.2682762906441223e-05 -3.4134093688667883e-05 2.4504848735170636e-05 9.8631653478757165e-06 5.6682895319681847e-06 -1.0248605071360038e-06 -5.8458184433956856e-06 6.8112305944807657e-06 1.4318038010969759e-05
leaf_weight=47 24 22 24 21 40 21 21 24 24 20 21 21 24 21 39 32 26 26 25 36 20 23 21 33 30 24 27 21 21 20
leaf_count=47 24 22 24 21 40 21 21 24 24 20 21 21 24 21 39 32 26 26 25 36 20 23 21 33 30 24 27 21 21 20
internal_value=-2.06842e-13 8.33061e-07 -6.40189e-06 2.45143e-07 -2.162e-07 -8.25248e-07 -5.73104e-08 -7.77464e-07 -8.77267e-06 6.91043e-07 -3.66628e-07 9.68694e-07 2.42677e-06 9.64495e-06 -4.72705e-07 1.43324e-06 -9.89032e-06 -1.13237e-06 6.23923e-07 -1.01231e-06 8.41259e-07 4.66589e-06 -8.41697e-07 9.36244e-06 -6.39453e-06 -1.74793e-05 -1.55102e-05 -1.42084e-05 7.1251e-07 9.07903e-06
internal_weight=799 707 92 68 683 641 601 580 90 490 466 425 66 45 404 336 68 297 265 239 214 140 117 69 74 44 48 41 42 42
internal_count=799 707 92 68 683 641 601 580 90 490 466 425 66 45 404 336 68 297 265 239 214 140 117 69 74 44 48 41 42 42
is_linear=0
shrinkage=0.1


Tree=19
num_leaves=31
num_cat=0
split_feature=0 0 0 1 1 1 1 1 1 0 1 0 0 1 1 0 1 0 0 1 0 0 0 0 1 1 0 1 1 0
split_gain=3.80945e-07 2.00674e-06 1.46476e-06 5.77568e-07 3.01037e-06 2.78358e-06 1.88196e-06 7.62717e-07 7.70688e-07 5.38066e-07 1.72981e-06 5.21038e-07 1.00746e-06 1.05873e-06 1.39131e-06 8.72557e-07 1.18194e-06 7.0371e-07 5.64594e-07 5.29086e-07 1.05291e-06 4.80517e-07 1.27041e-06 1.87366e-06 5.31934e-07 5.20185e-07 6.75909e-07 7.86071e-07 4.99362e-07 4.35965e-07
threshold=34.928474105712674 42.822069572786866 22.246850319024819 0.33474552261932894 0.42821381006368114 0.51021926240358895 0.22086088280264418 0.1085256970621685 0.059719238242620452 -131.79201319278215 0.63978715122078367 82.546233229215446 93.182329849703834 -0.68202327943065078 -0.35918833749957241 56.340668579156052 0.070458371600409422 122.81041739211652 242.29480713757223 0.29452884909150329 194.28527262964056 -21.800357249660006 -67.507883971200485 -83.855957855201254 -0.18101327207147505 -0.44430860420142942 -130.80975119486536 -0.071285995318734349 -0.25451699530940114 -82.024735658327685
decision_type=2 2 2 2 2 2 2 2 2 2 2 2 2 2 2 2 2 2 2 2 2 2 2 2 2 2 2 2 2 2
left_child=2 -2 3 6 -5 -6 7 8 21 -7 -11 15 -13 -14 -15 -3 -17 -16 19 20 -19 22 23 25 -24 -1 27 28 -27 -8
right_child=1 11 -4 4 5 9 29 -9 -10 10 -12 12 13 14 17 16 -18 18 -20 -21 -22 -23 24 -25 -26 26 -28 -29 -30 -31
leaf_value=1.3261468045349266e-05 -3.2537886658073626e-05 -1.1792071433904182e-05 2.7623304962227329e-05 -3.9749886032257656e-05 3.5214539675507691e-05 6.075912560018796e-06 1.1798332307080273e-05 -1.3162723492617565e-05 1.8526373027270892e-05 -3.3674466745155353e-05 3.7964163181771128e-06 -2.4014794464511353e-05 2.0247452942255355e-05 -2.2727807622539979e-05 1.2514633714532907e-05 1.2396446292864552e-07 2.7200811121019797e-05 6.9689067413492021e-06 1.0360578364824229e-05 -2.063999669520523e-05 -2.0682746062881226e-05 -1.0936308878145236e-05 6.8709914076487838e-06 -3.14410727514769e-05 2.6826923038408331e-05 7.0151624595382603e-06 -1.3352117264944623e-05 1.9375389439863451e-05 -1.5331257418438327e-05 3.2198056545563634e-05
leaf_weight=29 21 21 21 21 20 22 20 39 25 22 28 21 21 31 37 38 28 40 23 22 21 34 34 20 22 20 34 22 20 22
leaf_count=29 21 21 21 21 20 22 20 39 25 22 28 21 21 31 37 38 28 40 23 22 21 34 34 20 22 20 34 22 20 22
internal_value=-2.18068e-13 -2.64382e-06 1.80336e-06 6.09051e-07 -5.58695e-06 2.21111e-06 2.66227e-06 -1.22039e-07 1.83406e-06 -6.95651e-06 -1.26908e-05 -5.71957e-07 -3.20372e-06 -9.62524e-07 -3.52235e-06 5.96207e-06 1.16111e-05 6.41073e-07 -3.50347e-06 -7.34532e-06 -2.55051e-06 5.82864e-08 1.91807e-06 -3.02258e-06 1.47108e-05 1.52438e-06 -2.0212e-06 4.19253e-06 -4.15805e-06 2.24839e-05
internal_weight=799 324 475 454 113 92 341 299 260 72 50 303 216 195 174 87 66 143 106 83 61 235 201 145 56 125 96 62 40 42
internal_count=799 324 475 454 113 92 341 299 260 72 50 303 216 195 174 87 66 143 106 83 61 235 201 145 56 125 96 62 40 42
is_linear=0
shrinkage=0.1


Tree=20
num_leaves=31
num_cat=0
split_feature=1 1 1 0 1 0 0 0 1 1 0 1 1 1 1 0 0 0 1 1 1 0 0 1 0 1 1 0 0 0
split_gain=4.07957e-07 1.83428e-06 8.07898e-07 1.08755e-06 3.41485e-07 1.2213e-06 7.49459e-07 5.38888e-07 1.52189e-06 9.86726e-07 8.00993e-07 1.19762e-06 9.80897e-07 3.27724e-06 9.89315e-07 9.87077e-07 1.60834e-06 1.27769e-06 8.63574e-07 2.26008e-06 6.89177e-07 6.23686e-07 5.47667e-07 5.45121e-07 8.15699e-07 5.19279e-07 3.81802e-07 2.0479e-07 3.86451e-07 1.23733e-07
threshold=-0.59835499268018755 -0.53030572512233143 -0.68202327943065078 93.182329849703834 0.65340627156245168 64.65730946346595 -174.92397146530854 107.00799403127168 0.29452884909150329 0.067203071773327655 -90.415835558145758 0.2509154120078701 0.30637706830920003 0.38058228880185285 0.21568978271011396 -40.769104593673539 -66.537423525303879 42.3452254900185 -0.1368581374753795 0.034446500060769901 -0.046187355960913258 200.98647239585264 141.61640747237109 0.56596635455827171 20.933855152958134 0.80540989317714062 -0.040064081113688865 -147.62049752478194 -121.01963926707684 -35.035013074309965
decision_type=2 2 2 2 2 2 2 2 2 2 2 2 2 2 2 2 2 2 2 2 2 2 2 2 2 2 2 2 2 2
left_child=2 -2 3 29 6 25 26 10 9 21 11 27 14 -14 15 16 -12 18 -17 -20 -19 22 -9 24 -15 -6 -3 -8 -29 -1
right_child=1 4 -4 -5 5 -7 7 8 -10 -11 12 -13 13 23 -16 17 -18 20 19 -21 -22 -23 -24 -25 -26 -27 -28 28 -30 -31
leaf_value=-1.3963377394247802e-05 2.7987539836734263e-05 3.632024480019162e-06 -2.2037655056313574e-05 1.8222709201966481e-05 -2.6775201473830512e-05 1.2936542182052065e-05 -8.1386145081653789e-06 -2.3651222710170605e-06 -3.009754231739366e-05 1.2860171045758763e-05 -4.9569206484275952e-06 -2.2375341518454662e-05 4.5208841813449831e-05 -1.8735914041330532e-05 -1.7292290795012378e-05 -2.0275983268603391e-05 3.1467563059306017e-05 1.9098865397089478e-05 2.2074726954694296e-05 -1.9744801491989557e-05 -2.1651550654227054e-06 4.7535850031776004e-06 -2.3897262791352761e-05 1.3532874936572627e-05 8.8176736816032128e-06 -5.2854499451562086e-06 2.0610104253976787e-05 1.2891875667264686e-05 -3.2024262583109773e-06 -3.680618994456547e-06
leaf_weight=25 24 27 24 21 23 21 21 21 22 34 22 32 23 22 28 38 27 35 24 28 27 26 27 24 21 22 26 25 37 22
leaf_count=25 24 27 24 21 23 21 21 21 22 34 22 32 23 22 28 38 27 35 24 28 27 26 27 24 21 22 26 25 37 22
internal_value=-4.24013e-14 8.15113e-07 -6.26397e-06 -6.96782e-07 -1.39701e-07 -6.9764e-06 5.91614e-07 -4.76775e-07 -6.12462e-06 -1.24125e-06 1.21498e-06 -5.94013e-06 3.7944e-06 1.26397e-05 3.18081e-07 2.77127e-06 1.51137e-05 -1.20755e-06 -8.8172e-06 -4.43481e-07 9.83873e-06 -7.72028e-06 -1.4477e-05 1.45925e-06 -5.27951e-06 -1.62691e-05 1.19609e-05 3.9634e-07 3.28721e-06 -9.15017e-06
internal_weight=799 707 92 68 683 66 617 564 130 108 434 115 319 90 229 201 49 152 90 52 62 74 48 67 43 45 53 83 62 47
internal_count=799 707 92 68 683 66 617 564 130 108 434 115 319 90 229 201 49 152 90 52 62 74 48 67 43 45 53 83 62 47
is_linear=0
shrinkage=0.1


Tree=21
num_leaves=31
num_cat=0
split_feature=0 0 0 1 1 1 1 1 0 0 0 1 1 0 1 1 1 0 1 1 0 0 0 1 0 1 1 1 0 0
split_gain=3.65241e-07 1.51027e-06 1.20203e-06 4.27512e-07 8.4948e-07 1.21593e-06 1.21407e-06 1.33976e-06 6.01358e-07 2.3716e-06 1.20255e-06 9.67527e-07 1.25349e-06 1.22492e-06 8.55704e-07 2.17295e-06 1.16839e-06 1.05765e-06 3.74362e-07 7.18037e-07 6.34468e-07 1.13012e-06 1.11124e-06 1.00206e-06 1.32382e-06 2.60698e-06 7.83015e-07 5.92399e-07 5.3047e-07 7.10695e-08
threshold=34.928474105712674 42.822069572786866 20.933855152958134 -0.73185501820178955 -0.53030572512233143 -0.42512025637214729 -0.35918833749957241 -0.23966408576701995 -82.998687107035934 -97.525382253043048 -56.827590973312901 -0.019753619372010343 0.43415273402821503 -142.68418205582563 0.56596635455827171 0.34116840737690241 0.13953866524987529 -25.116837836183546 -0.35918833749957241 -0.19241497959988907 78.134087230748278 64.65730946346595 91.421160031553896 0.46063919302261602 175.94630387761575 0.15239163311356405 0.12882460914526311 -0.48684410159078267 100.3183090236562 -67.507883971200485
decision_type=2 2 2 2 2 2 2 2 2 2 2 2 2 2 2 2 2 2 2 2 2 2 2 2 2 2 2 2 2 2
left_child=2 -2 3 -1 -5 -6 -7 -8 9 11 29 -9 13 -13 15 16 17 -12 27 -20 21 -21 -22 24 25 -24 -26 28 -3 -10
right_child=1 18 -4 4 5 6 7 8 10 -11 14 12 -14 -15 -16 -17 -18 -19 19 20 22 -23 23 -25 26 -27 -28 -29 -30 -31
leaf_value=-1.2128340502385981e-05 -2.8522579634140824e-05 -1.2070890149446384e-05 2.3108427732950075e-05 1.7550242264405825e-05 -2.331880677957088e-05 2.47697377095132e-05 -2.2294154708106366e-05 1.6016732599775817e-05 1.6523328066914869e-05 -3.3169887220455253e-05 1.0439592425917418e-05 -2.5066736623102773e-05 1.2346788301199143e-05 2.3918430432593489e-06 1.7935933101398405e-05 -3.2604646089566811e-05 2.1194439506399686e-05 -1.7336212000247606e-05 1.4048759348460826e-05 -6.7057041040085183e-06 -2.6390381644887388e-05 2.4642606050569476e-05 1.2944677223458712e-06 1.6023959755397368e-05 -6.2002951017348092e-06 -4.4729129294864838e-05 2.1782101248390974e-05 -2.0615371315877631e-05 7.0282084159385477e-06 2.4674067722116887e-05
leaf_weight=25 21 26 25 30 21 21 25 37 23 22 26 32 35 33 24 20 27 29 37 23 20 23 32 27 20 20 20 22 33 20
leaf_count=25 21 26 25 30 21 21 25 37 23 22 26 32 35 33 24 20 27 29 37 23 20 23 32 27 20 20 20 22 33 20
internal_value=8.65386e-14 -2.58875e-06 1.7658e-06 5.80101e-07 1.32766e-06 9.5561e-08 1.41027e-06 2.06149e-08 1.72144e-06 -2.69299e-06 5.87465e-06 2.20111e-06 -2.91067e-06 -1.11262e-05 9.46814e-07 -3.05063e-06 4.15767e-06 -4.20583e-06 -7.91359e-07 1.33184e-06 -1.21154e-06 8.96845e-06 -4.58046e-06 -9.14929e-07 -5.88612e-06 -1.64069e-05 7.7909e-06 -6.6105e-06 -1.38834e-06 2.03144e-05
internal_weight=799 324 475 450 425 395 374 353 328 159 169 137 100 65 126 102 82 55 303 222 185 46 139 119 92 52 40 81 59 43
internal_count=799 324 475 450 425 395 374 353 328 159 169 137 100 65 126 102 82 55 303 222 185 46 139 119 92 52 40 81 59 43
is_linear=0
shrinkage=0.1


Tree=22
num_leaves=31
num_cat=0
split_feature=1 0 0 0 0 0 1 1 0 1 1 0 0 1 1 0 1 1 1 1 1 1 1 0 0 0 1 1 1 0
split_gain=4.264e-07 3.77748e-07 1.02683e-06 6.47695e-07 4.56112e-07 1.29441e-06 7.41305e-07 1.14075e-06 7.9152e-07 9.8867e-07 1.24763e-06 1.0267e-06 1.09291e-06 8.25092e-07 2.19066e-06 1.46078e-06 1.77149e-06 2.17969e-06 8.59527e-07 1.29219e-06 1.47138e-06 8.16681e-07 7.00695e-07 9.25782e-07 6.80545e-07 5.77222e-07 4.18256e-07 2.98497e-07 2.74909e-07 2.53405e-07
threshold=0.81656535329183788 -174.92397146530854 -210.6023903817331 -158.04344490351647 -129.45820189986259 -109.0249926286924 0.68813014907688708 0.59953659223283451 110.89090844504973 0.29452884909150329 0.067203071773327655 208.8312419317663 168.02043976750431 -0.33539732950069784 -0.55309057931231853 -90.415835558145758 0.30637706830920003 0.39593855117583221 0.21568978271011396 -0.10793605160670201 -0.19574969914966875 -0.81133986241237954 -0.036449430929820226 -39.552960164721291 27.893364227391434 1.0000000180025095e-35 0.4752287633244881 -0.23966408576701995 -0.066645706535836416 52.407846671165323
decision_type=2 2 2 2 2 2 2 2 2 2 2 2 2 2 2 2 2 2 2 2 2 2 2 2 2 2 2 2 2 2
left_child=1 2 27 -3 28 -6 7 8 13 10 11 12 -10 14 21 -15 18 -18 19 20 -17 -7 -21 -24 -16 -25 -19 -1 -5 -27
right_child=-2 3 -4 4 5 6 -8 -9 9 -11 -12 -13 -14 15 24 16 17 26 -20 22 -22 -23 23 25 -26 29 -28 -29 -30 -31
leaf_value=-1.0576078675512691e-05 -1.235270718569626e-05 -1.7548425373769576e-05 2.4178197766862773e-05 1.6768601926742124e-06 -1.9991471398128627e-05 1.3338960688239846e-05 1.8664235540200025e-05 -2.2373241947868584e-05 -5.9125606161327794e-06 -2.5562914379406722e-05 1.45782669388802e-05 5.7868832835297599e-06 -3.4338603819335172e-05 -2.1504170893292345e-05 1.6495146771757715e-05 1.731189930128054e-06 3.8879812312258695e-05 -6.3026177182716017e-06 -1.8494311496334409e-05 2.2831758750336512e-05 -3.1650923048563646e-05 -9.5032906392589216e-06 2.0322858837186108e-05 -1.7057399045803497e-05 4.0155299066100271e-05 9.7538685222389182e-06 1.1840789927562043e-05 6.1281005005382568e-06 1.7707461371252938e-05 -5.1468467842953814e-06
leaf_weight=20 27 21 24 20 32 24 22 22 38 21 33 34 21 28 31 31 26 24 29 21 23 45 22 21 20 25 27 23 23 21
leaf_count=20 27 21 24 20 32 24 22 22 38 21 33 34 21 28 31 31 26 24 29 21 23 45 22 21 20 25 27 23 23 21
internal_value=6.54517e-14 4.32025e-07 7.60748e-06 -2.49898e-07 2.81197e-07 -3.87629e-07 6.42458e-07 -3.2975e-08 8.36912e-07 -5.47464e-06 -2.1266e-06 -8.05413e-06 -1.60303e-05 3.05652e-06 1.00579e-05 2.37197e-07 2.49186e-06 1.53158e-05 -2.62441e-06 1.81848e-07 -1.24871e-05 -1.55816e-06 6.40116e-06 2.52427e-06 2.57736e-05 -3.32004e-06 3.30272e-06 -1.64129e-06 1.02514e-05 2.95137e-06
internal_weight=799 772 67 705 684 641 609 587 565 147 126 93 59 418 120 298 270 77 193 164 54 69 110 89 51 67 51 43 43 46
internal_count=799 772 67 705 684 641 609 587 565 147 126 93 59 418 120 298 270 77 193 164 54 69 110 89 51 67 51 43 43 46
is_linear=0
shrinkage=0.1


Tree=23
num_leaves=31
num_cat=0
split_feature=1 0 0 1 1 1 1 0 1 0 0 1 1 0 1 0 0 0 1 0 1 1 0 1 0 1 0 0 1 0
split_gain=4.00592e-07 9.69196e-07 6.57445e-07 7.83366e-07 1.48939e-06 9.90841e-07 1.17931e-06 1.06483e-06 9.10124e-07 7.97518e-07 8.06246e-07 6.01098e-07 1.70344e-06 1.18429e-06 1.12012e-06 8.22417e-07 6.59083e-07 5.72679e-07 8.88833e-07 1.29078e-06 1.35139e-06 4.87761e-07 4.71404e-07 4.8728e-07 1.01822e-06 3.88533e-07 3.0672e-07 2.76387e-07 2.3482e-07 1.25302e-07
threshold=0.65340627156245168 64.65730946346595 127.14935641486956 0.42821381006368114 0.33474552261932894 0.23516162813411084 0.18687693303370564 98.454259647645827 0.50382582961681699 63.955456958799921 42.822069572786866 -0.35918833749957241 -0.42512025637214729 17.485819233974329 -0.23966408576701995 -106.38836648262803 -21.800357249660006 -25.116837836183546 -0.14999468688584042 -60.32885146406624 -0.040064081113688865 0.80540989317714062 146.339304134679 0.2509154120078701 186.49190036753865 0.073437084755682266 246.561533896871 -75.45370245671073 -0.32089969612612229 -20.423679955252734
decision_type=2 2 2 2 2 2 2 2 2 2 2 2 2 2 2 2 2 2 2 2 2 2 2 2 2 2 2 2 2 2
left_child=2 21 3 4 5 6 7 9 -5 10 11 12 15 14 -13 -1 -17 18 -16 20 -20 -2 -4 24 -24 -22 -26 -7 -11 -10
right_child=1 -3 22 8 -6 27 -8 -9 29 28 -12 13 -14 -15 17 16 -18 -19 19 -21 25 -23 23 -25 26 -27 -28 -29 -30 -31
leaf_value=-1.4402055765256391e-05 -2.5922541997557427e-05 1.0277010941146208e-05 -1.9262142574337884e-05 2.4315473751812533e-05 -1.9939315520925007e-05 7.5226033957386834e-06 -2.256569974373893e-05 1.746073820389536e-05 -2.3926772410050037e-06 -1.9246298688813115e-05 1.9183882541256027e-05 -2.0748496292625257e-05 3.0692727760533278e-05 -2.5171660014339504e-05 2.216397453874099e-05 1.6094088729887243e-05 -4.9731134115265584e-06 -1.0154926556944183e-05 -2.6939128639198666e-05 1.914642941604446e-05 -3.8931046112659666e-06 -5.0951618918175391e-06 1.9294758697339734e-05 -1.708659932774026e-05 -1.0433069082165066e-06 1.3162100127705015e-05 -1.6033420667684237e-05 2.3084334112354555e-05 -5.6444634143796677e-06 7.9550970853729687e-06
leaf_weight=27 23 21 22 32 33 21 21 39 25 22 25 23 23 21 26 33 27 28 21 30 34 22 21 20 39 22 21 25 30 22
leaf_count=27 23 21 22 32 33 21 21 39 25 22 25 23 23 21 26 33 27 28 21 30 34 22 21 20 39 22 21 25 30 22
internal_value=-1.05628e-13 -7.46204e-06 6.71889e-07 2.01671e-06 6.34471e-07 1.99779e-06 5.7482e-07 1.70232e-06 1.13075e-05 1.34514e-07 1.89848e-06 5.26619e-07 6.49007e-06 -2.67328e-06 -1.05534e-07 9.16708e-08 6.61385e-06 2.84346e-06 5.57996e-06 1.5502e-06 -5.30547e-06 -1.57403e-05 -5.99756e-06 -3.10825e-06 3.43199e-07 2.80715e-06 -6.28985e-06 1.59801e-05 -1.13991e-05 2.45096e-06
internal_weight=799 66 733 610 531 498 452 431 79 392 340 315 110 205 184 87 60 161 133 107 77 45 123 101 81 56 60 46 52 47
internal_count=799 66 733 610 531 498 452 431 79 392 340 315 110 205 184 87 60 161 133 107 77 45 123 101 81 56 60 46 52 47
is_linear=0
shrinkage=0.1


Tree=24
num_leaves=31
num_cat=0
split_feature=1 0 1 1 0 1 0 1 1 1 0 0 1 0 1 0 0 1 0 1 1 0 1 1 1 0 1 1 1 1
split_gain=3.38523e-07 3.78838e-07 1.58633e-06 1.51787e-06 6.7416e-07 2.58547e-06 1.23424e-06 9.66561e-07 1.15624e-06 6.35679e-07 2.64165e-06 1.52704e-06 1.31948e-06 4.91862e-07 7.25356e-07 6.23581e-07 8.10965e-07 4.70885e-07 7.9905e-07 7.06222e-07 4.65155e-07 7.84073e-07 4.23496e-07 3.86568e-07 2.39439e-06 1.08456e-06 1.58217e-06 6.88357e-07 1.42044e-06 6.25612e-07
threshold=0.81656535329183788 -150.05333637701548 0.37486940767565674 -0.25934898731625661 -90.415835558145758 0.2709091807099327 -81.019623981926983 0.68813014907688708 0.59953659223283451 0.30637706830920003 -67.507883971200485 97.67304069114472 0.39593855117583221 168.02043976750431 0.21568978271011396 208.8312419317663 246.561533896871 0.13953866524987529 -49.321619974558409 0.073437084755682266 -0.31659263124781617 -106.38836648262803 -0.040064081113688865 -0.11232706393845361 -0.22291071730338818 110.89090844504973 -0.38554739655689124 -0.53030572512233143 -0.64789285982367251 1.0000000180025095e-35
decision_type=2 2 2 2 2 2 2 2 2 2 2 2 2 2 2 2 2 2 2 2 2 2 2 2 2 2 2 2 2 2
left_child=1 2 3 -1 5 20 -6 8 9 10 -8 12 -11 14 17 -15 -17 18 -12 23 -3 -22 -5 24 25 26 27 28 -20 -25
right_child=-2 4 -4 22 6 -7 7 -9 -10 11 13 -13 -14 15 -16 16 -18 -19 19 -21 21 -23 -24 29 -26 -27 -28 -29 -30 -31
leaf_value=1.9128719651672764e-05 -1.100645782167299e-05 -1.0048501490718292e-05 3.1317399771069179e-05 -2.1483751374944405e-05 2.4641784693812952e-05 -3.7465774727499358e-05 -3.6135537985024888e-05 2.1523418690776453e-05 -2.3866535533064358e-05 3.4671010950620728e-05 1.9165715479175564e-05 -1.4621113808496611e-05 5.2277535077236187e-06 -1.8870923690883503e-05 -1.4092248882381961e-05 1.2226248225488234e-05 -1.4430078261371127e-05 1.6459554310131354e-05 -4.9945412784937722e-06 -1.5185077875055589e-05 1.6666641962122718e-05 -8.8949362543644399e-06 -3.042480746058352e-06 1.7814549567317177e-05 -2.9540770764313608e-05 -1.6077807473872477e-05 2.747956989423983e-05 -1.3432874355045068e-05 2.7731035897020429e-05 -1.6933158041220232e-06
leaf_weight=27 27 26 20 20 21 23 21 20 21 23 25 23 45 28 26 25 21 25 36 26 30 20 33 35 24 21 32 23 21 31
leaf_count=27 27 26 20 20 21 23 21 20 21 23 25 23 45 28 26 25 21 25 36 26 30 20 33 35 24 21 32 23 21 31
internal_value=3.92461e-14 3.84941e-07 6.12747e-06 -1.70018e-07 -4.69601e-07 -8.08963e-06 8.46948e-07 -5.82904e-08 -8.69633e-07 7.54454e-08 -1.5663e-06 7.65271e-06 1.51865e-05 2.53139e-07 1.9285e-06 -7.10488e-06 5.70557e-08 3.32161e-06 2.1229e-06 4.11769e-07 8.0052e-07 6.44201e-06 -1.00015e-05 2.23023e-06 -4.69262e-07 4.77673e-06 8.68695e-06 1.1699e-06 7.06225e-06 8.65176e-06
internal_weight=799 772 100 80 672 99 573 552 532 511 420 91 68 399 325 74 46 299 274 249 76 50 53 223 157 133 112 80 57 66
internal_count=799 772 100 80 672 99 573 552 532 511 420 91 68 399 325 74 46 299 274 249 76 50 53 223 157 133 112 80 57 66
is_linear=0
shrinkage=0.1


Tree=25
num_leaves=31
num_cat=0
split_feature=1 0 1 1 1 1 1 1 0 1 1 1 0 1 0 0 1 1 1 0 0 1 1 1 0 0 0 0 0 0
split_gain=3.42638e-07 7.62183e-07 4.95544e-07 4.37977e-07 2.93174e-07 1.4805e-06 7.72757e-07 1.05331e-06 8.12943e-07 9.79021e-07 8.36541e-07 6.89673e-07 8.24362e-07 6.64719e-07 6.49912e-07 5.40723e-07 5.32111e-07 1.08201e-06 8.33558e-07 1.64451e-06 1.15225e-06 8.79903e-07 1.12341e-06 8.50756e-07 4.11553e-07 2.80598e-07 2.20353e-07 1.89075e-07 1.27494e-07 1.2743e-07
threshold=0.65340627156245168 64.65730946346595 0.80540989317714062 0.56596635455827171 -0.59835499268018755 -0.44430860420142942 -0.3774907602874133 -0.31149201118713526 -204.93411222492429 -0.11232706393845361 -0.0076872170170947081 -0.68202327943065078 93.182329849703834 -0.075913744807209041 49.290754982874212 7.8704280830788784 0.059719238242620452 0.095677676412784088 0.17152998580012221 175.94630387761575 78.134087230748278 0.38058228880185285 0.30637706830920003 0.2509154120078701 -63.779662467801238 -33.105635443011117 -59.03669887074647 56.340668579156052 18.661794413892498 -35.035013074309965
decision_type=2 2 2 2 2 2 2 2 2 2 2 2 2 2 2 2 2 2 2 2 2 2 2 2 2 2 2 2 2 2
left_child=3 2 -2 4 11 15 -7 -8 -9 14 13 12 29 -11 26 -6 28 -18 27 20 21 22 23 -20 -23 -15 -10 -19 -12 -1
right_child=1 -3 -4 -5 5 6 7 8 9 10 16 -13 -14 25 -16 -17 17 18 19 -21 -22 24 -24 -25 -26 -27 -28 -29 -30 -31
leaf_value=-1.2271031009731815e-05 -2.4505483990018866e-05 8.8297253006160092e-06 -3.5125926925419751e-06 1.1879512076671801e-05 2.9501562385987549e-05 -1.4776173985511479e-05 1.7663339654614957e-05 1.6768099812907166e-05 -1.315013696148526e-05 -3.0490644652066599e-06 -6.4453479274601242e-06 -1.9744311975955499e-05 1.6445252025559533e-05 1.017222071576877e-05 -1.9455932954606864e-06 8.5796136651576183e-06 1.782343969049786e-05 -1.87373442701818e-05 8.6455461448221134e-06 2.7957285292359307e-05 -2.2176443497301081e-05 1.1188496760691384e-06 2.2927844377136356e-05 -1.6954146035242869e-05 -1.7400358449646903e-05 2.6000473380485173e-05 -2.7045153858905125e-05 -6.8702477146871393e-06 -1.697457722239842e-05 -1.8357547229573937e-06
leaf_weight=25 23 21 22 33 21 36 33 25 25 24 23 24 21 24 39 30 30 29 34 20 25 21 30 21 28 21 21 25 23 22
leaf_count=25 23 21 22 33 21 36 33 25 25 24 23 24 21 24 39 30 30 29 34 20 25 21 30 21 28 21 21 25 23 22
internal_value=-7.9097e-14 -6.9012e-06 -1.42423e-05 6.2139e-07 9.065e-08 8.86728e-07 -6.06446e-07 3.72652e-07 -7.96596e-07 -1.74501e-06 4.35552e-07 -5.17039e-06 -2.66483e-08 1.03908e-05 -1.14421e-05 1.71945e-05 -1.78747e-06 -5.19723e-08 -2.35353e-06 9.31661e-07 -2.46779e-06 1.2092e-06 7.36173e-06 -1.12888e-06 -9.46355e-06 1.75587e-05 -1.94935e-05 -1.32433e-05 -1.171e-05 -7.38643e-06
internal_weight=799 66 45 733 700 608 557 521 488 463 378 92 68 69 85 51 309 263 233 179 159 134 85 55 49 45 46 54 46 47
internal_count=799 66 45 733 700 608 557 521 488 463 378 92 68 69 85 51 309 263 233 179 159 134 85 55 49 45 46 54 46 47
is_linear=0
shrinkage=0.1


Tree=26
num_leaves=31
num_cat=0
split_feature=0 0 1 0 0 0 0 0 1 1 1 0 0 1 0 0 1 1 1 0 1 0 0 1 1 1 1 0 0 0
split_gain=2.98111e-07 1.40078e-06 1.2261e-06 1.01773e-06 6.17828e-07 1.3511e-06 8.9159e-07 7.77909e-07 5.65923e-07 4.66262e-07 8.00627e-07 6.08839e-07 1.09421e-06 6.15255e-07 3.80545e-07 7.05031e-07 5.25149e-07 1.07517e-06 8.97849e-07 7.94106e-07 6.45275e-07 5.9225e-07 1.97316e-06 1.02625e-06 1.87414e-06 1.20212e-06 6.56083e-07 8.29321e-07 7.11051e-07 6.28116e-07
threshold=34.928474105712674 56.340668579156052 0.059719238242620452 20.933855152958134 81.094127540280184 91.421160031553896 107.00799403127168 116.83932640483546 0.070458371600409422 -0.28436765499351507 -0.47821470274097971 197.27609605590263 242.29480713757223 0.087828462176532687 10.96402462221886 1.0000000180025095e-35 -0.55309057931231853 -0.37276373043498584 -0.23966408576701995 -76.284932953742086 -0.14999468688584042 -82.998687107035934 -97.525382253043048 0.29452884909150329 0.51947675897913703 0.11380918635472846 0.43415273402821503 -142.68418205582563 -174.92397146530854 -121.01963926707684
decision_type=2 2 2 2 2 2 2 2 2 2 2 2 2 2 2 2 2 2 2 2 2 2 2 2 2 2 2 2 2 2
left_child=3 2 -2 14 8 -6 -7 -8 -3 10 -9 13 -13 -11 15 16 19 -18 -19 -1 -20 22 26 25 -25 -23 27 28 -22 -29
right_child=1 4 -4 -5 5 6 7 9 -10 11 -12 12 -14 -15 -16 -17 17 18 20 -21 21 23 -24 24 -26 -27 -28 29 -30 -31
leaf_value=3.0124333178442299e-06 -3.0857562457888644e-06 9.8066268185141023e-07 -3.7296345180948268e-05 2.123368795582792e-05 -2.6429938147235329e-05 1.6126016907946906e-05 -2.0592989312717694e-05 3.9804974183728825e-06 2.0232029811058267e-05 -5.8351499353227187e-07 -2.275610210008814e-05 -2.0215475856473307e-05 1.1356565699402599e-05 2.0064524658429891e-05 -1.1747407431054551e-05 1.7844225628020164e-05 1.8129292490942005e-05 -1.6799795515301714e-05 1.5801541459430674e-05 -2.3562374157005582e-05 -2.2712908539688214e-06 6.3601129901750633e-06 -3.3651531484792944e-05 3.9571501019963762e-05 7.7732503555263545e-07 -2.1743219630203071e-05 1.1796530161518604e-05 1.7998568962086991e-05 -2.7231585980708977e-05 -6.4596748914135831e-06
leaf_weight=23 22 37 20 25 21 30 21 24 26 27 21 23 21 31 24 24 35 30 28 22 25 45 20 20 33 23 35 21 21 21
leaf_count=23 22 37 20 25 21 30 21 24 26 27 21 23 21 31 24 24 35 30 28 22 25 45 20 20 33 23 35 21 21 21
internal_value=-1.5071e-13 -2.33878e-06 -1.93765e-05 1.5953e-06 1.9875e-07 -2.31173e-06 2.46257e-07 -2.58941e-06 8.92567e-06 -1.74756e-08 -8.49658e-06 3.72331e-06 -5.147e-06 1.04525e-05 5.04275e-07 1.19451e-06 2.00498e-07 1.48372e-06 -3.25586e-07 -9.97969e-06 1.36697e-06 -1.6397e-07 -4.52085e-06 4.98506e-06 1.54166e-05 -3.14543e-06 2.15852e-07 -4.3901e-06 -1.36662e-05 5.76945e-06
internal_weight=799 324 42 475 282 219 198 168 63 147 45 102 44 58 450 426 402 357 322 45 292 264 143 121 53 68 123 88 46 42
internal_count=799 324 42 475 282 219 198 168 63 147 45 102 44 58 450 426 402 357 322 45 292 264 143 121 53 68 123 88 46 42
is_linear=0
shrinkage=0.1


Tree=27
num_leaves=31
num_cat=0
split_feature=1 0 0 1 1 1 1 0 1 0 1 1 1 0 1 0 0 1 0 1 0 0 1 1 0 1 1 1 0 1
split_gain=3.12949e-07 6.93564e-07 4.50013e-07 6.36439e-07 1.53519e-06 9.56809e-07 9.09621e-07 9.09414e-07 7.76976e-07 6.5628e-07 7.88226e-07 1.78252e-06 4.06429e-07 9.36797e-07 1.45339e-06 3.84929e-07 5.53512e-07 1.01234e-06 7.23894e-07 1.37466e-06 1.13961e-06 4.89101e-07 1.54721e-06 2.40936e-06 5.54055e-07 2.99443e-07 1.95546e-07 1.9168e-07 1.40724e-07 1.22611e-07
threshold=0.65340627156245168 -29.794468090753067 127.14935641486956 0.42821381006368114 0.33474552261932894 0.23516162813411084 0.18687693303370564 98.454259647645827 0.50382582961681699 63.955456958799921 0.13090051376225623 0.085040259753371969 -0.40797008875983115 175.94630387761575 0.17523651275344754 -66.537423525303879 -82.024735658327685 -0.019753619372010343 -106.38836648262803 -0.21921923850412073 -150.05333637701548 -42.492617299612895 -0.33539732950069784 -0.1368581374753795 27.252444738660419 0.28257541785408474 -0.32089969612612229 -0.098928960238288857 64.65730946346595 1.0000000180025095e-35
decision_type=2 2 2 2 2 2 2 2 2 2 2 2 2 2 2 2 2 2 2 2 2 2 2 2 2 2 2 2 2 2
left_child=2 -2 3 4 5 6 7 9 -5 10 11 15 -4 -14 27 16 17 18 19 20 -1 -17 24 -24 -23 -7 -11 -15 -3 -25
right_child=1 28 12 8 -6 25 -8 -9 -10 26 -12 -13 13 14 -16 21 -18 -19 -20 -21 -22 22 23 29 -26 -27 -28 -29 -30 -31
leaf_value=2.7735583869619436e-06 -1.9723277539014815e-05 -4.5939125266158955e-06 6.1789424412731583e-06 2.2099644183981582e-05 -2.0427142931801041e-05 2.4011752066144255e-05 -1.9876707150009076e-05 1.5999683294537065e-05 1.8976865636006475e-06 -1.7635821991875262e-05 1.9463133732800919e-05 -2.7861990210589112e-05 -2.2239381074072181e-05 -1.7683260466583306e-05 1.9821243085971219e-05 1.8094583841351174e-05 -1.6756716286181474e-05 -1.8438870525146328e-05 2.0412541471159787e-05 1.7882903258588103e-05 -2.7025892354902769e-05 6.0495919247079014e-06 -3.6313516902737325e-05 1.1008383212769828e-05 2.5844180709100331e-05 7.8600315911595938e-06 -5.2234808026696554e-06 -4.4278124823904368e-06 7.1267291787080472e-06 1.9000559404958041e-07
leaf_weight=33 25 20 26 32 33 22 21 39 47 22 23 21 31 24 22 27 20 22 24 30 21 31 20 22 26 24 30 20 21 20
leaf_count=33 25 20 26 32 33 22 21 39 47 22 23 21 31 24 22 27 20 22 24 30 21 31 20 22 26 24 30 20 21 20
internal_value=2.69548e-14 -6.59544e-06 5.93859e-07 1.70648e-06 4.60592e-07 1.84472e-06 4.46396e-07 1.43662e-06 1.00808e-05 -1.226e-08 1.5879e-06 2.90961e-07 -4.92403e-06 -7.90008e-06 -1.16496e-06 2.2883e-06 -1.26945e-06 1.1132e-06 5.09604e-06 7.1989e-07 -8.81512e-06 5.94352e-06 3.18656e-06 -7.74655e-06 1.50787e-05 1.55848e-05 -1.04749e-05 -1.16581e-05 1.40934e-06 5.85677e-06
internal_weight=799 66 733 610 531 498 452 431 79 392 340 317 123 97 66 296 150 130 108 84 54 146 119 62 57 46 52 44 41 42
internal_count=799 66 733 610 531 498 452 431 79 392 340 317 123 97 66 296 150 130 108 84 54 146 119 62 57 46 52 44 41 42
is_linear=0
shrinkage=0.1


Tree=28
num_leaves=29
num_cat=0
split_feature=1 1 1 1 1 1 0 0 0 0 0 0 1 1 0 0 1 1 0 0 0 0 1 0 1 1 1 0
split_gain=2.6192e-07 3.43665e-07 6.46976e-07 1.0922e-06 7.05683e-07 9.83628e-07 4.94239e-07 1.1377e-06 6.0899e-07 6.95821e-07 6.37014e-07 4.3436e-07 3.48582e-07 9.81577e-07 3.19544e-07 5.3542e-07 3.38434e-07 7.40139e-07 5.99e-07 1.29617e-06 7.78559e-07 1.24095e-06 6.70845e-07 6.48201e-07 8.65007e-07 3.2303e-07 2.64944e-07 2.50293e-07
threshold=-0.86306604957273059 -0.74141254102802845 -0.59835499268018755 -0.44430860420142942 -0.3774907602874133 -0.31149201118713526 -204.93411222492429 -161.79248487657603 -129.45820189986259 -90.415835558145758 -73.101561401468629 7.8704280830788784 0.68813014907688708 0.58083389650451922 242.29480713757223 154.37406563527477 -0.10793605160670201 -0.19574969914966875 17.485819233974329 52.097741069912452 70.348657621871112 99.409787873562905 0.034446500060769901 3.0958282884239456 0.23516162813411084 0.0094788790746232008 0.051790489535069949 10.96402462221886
decision_type=2 2 2 2 2 2 2 2 2 2 2 2 2 2 2 2 2 2 2 2 2 2 2 2 2 2 2 2
left_child=-1 -2 27 11 -5 -6 -7 -8 -9 26 -11 -4 13 14 15 16 17 -12 22 -20 -21 -22 -18 24 -24 -17 -10 -3
right_child=1 2 3 4 5 6 7 8 9 10 12 -13 -14 -15 -16 25 18 -19 19 20 21 -23 23 -25 -26 -27 -28 -29
leaf_value=-1.0288597559338087e-05 1.1195345576149001e-05 -4.5514307203120552e-06 2.5737741123607736e-05 -1.4096217728365446e-05 1.710427849654176e-05 1.144523165521605e-05 -1.9342957644270925e-05 1.2168880726135653e-05 -2.872730747185415e-06 1.4772146031256335e-05 4.7154148960544266e-06 6.9860852261172119e-06 8.2910660574653829e-06 -2.0121695302400947e-05 1.163725457791727e-05 -1.337700268777553e-06 1.2787361040301178e-05 -2.0433786845718385e-05 2.5540113911747225e-05 -1.5637917247312588e-05 2.1094853582326323e-05 -6.2000794615515685e-06 -1.3774424065383256e-05 -2.1942310476416343e-05 9.8490570728186391e-06 -1.7744773036351296e-05 -1.745895120124756e-05 -2.037207936609775e-05
leaf_weight=24 28 20 21 36 33 32 33 37 20 28 25 30 38 27 21 21 21 22 29 21 31 36 31 22 31 28 33 20
leaf_count=24 28 20 21 36 33 32 33 37 20 28 25 30 38 27 21 21 21 22 29 21 31 36 31 22 31 28 33 20
internal_value=-1.27716e-13 3.18615e-07 -8.90809e-08 6.10929e-07 -4.84982e-07 3.05348e-07 -6.39056e-07 -1.33581e-06 -1.97424e-07 -1.14083e-06 1.8587e-07 1.47074e-05 -8.2506e-07 -1.77154e-06 -3.10026e-07 -1.099e-06 6.52283e-07 -7.05655e-06 2.28433e-06 7.20517e-06 1.16297e-06 6.42892e-06 -3.19888e-06 -7.19544e-06 -1.96268e-06 -1.07132e-05 -1.19547e-05 -1.24618e-05
internal_weight=799 775 747 707 656 620 587 555 522 485 432 51 404 366 339 318 269 47 222 117 88 67 105 84 62 49 53 40
internal_count=799 775 747 707 656 620 587 555 522 485 432 51 404 366 339 318 269 47 222 117 88 67 105 84 62 49 53 40
is_linear=0
shrinkage=0.1


Tree=29
num_leaves=31
num_cat=0
split_feature=1 0 1 1 0 0 1 1 1 1 1 1 1 0 1 1 0 0 0 0 0 1 1 1 1 1 1 1 0 0
split_gain=2.84702e-07 2.66995e-07 1.42192e-06 1.48672e-06 6.75005e-07 5.53147e-07 5.53236e-07 4.41672e-07 4.97612e-07 7.9839e-07 7.62353e-07 1.1472e-06 4.94597e-07 1.00927e-06 4.06468e-07 6.608e-07 3.20876e-07 1.8908e-06 1.48101e-06 5.33747e-07 1.18189e-06 9.72473e-07 2.07255e-06 1.38079e-06 9.0606e-07 8.03893e-07 1.54098e-06 9.06195e-07 5.17993e-07 5.07008e-07
threshold=0.81656535329183788 -150.05333637701548 0.23872266538657935 -0.25934898731625661 -194.07588309551645 -126.02423717692726 -0.86306604957273059 -0.74141254102802845 -0.59835499268018755 -0.40403137480340395 -0.45443708790293297 -0.53030572512233143 -0.28436765499351507 72.478049620134712 0.68813014907688708 0.58083389650451922 -97.525382253043048 -82.024735658327685 -51.351220141550577 -3.1249539137497773 -15.914425728406057 -0.19241497959988907 -0.095990866249161907 -0.0076872170170947081 0.46063919302261602 0.28257541785408474 0.17152998580012221 0.34116840737690241 -33.105635443011117 -66.537423525303879
decision_type=2 2 2 2 2 2 2 2 2 2 2 2 2 2 2 2 2 2 2 2 2 2 2 2 2 2 2 2 2 2
left_child=1 2 3 -1 -5 -3 -7 -8 -9 10 11 -10 13 -11 15 16 -14 -18 29 20 28 -21 -23 -24 25 26 -25 -27 -20 -19
right_child=-2 5 -4 4 -6 6 7 8 9 12 -12 -13 14 -15 -16 -17 17 18 19 21 -22 22 23 24 -26 27 -28 -29 -30 -31
leaf_value=1.6025674132699214e-05 -1.0093660589686976e-05 -1.2249988232134775e-05 2.3832051700647471e-05 -8.2025891017457034e-07 -2.5617665653993283e-05 -1.56321910166991e-05 1.389231518987799e-05 -1.1242527135826614e-05 1.9629484764168001e-05 4.0480076163278328e-06 2.720693671671186e-05 -1.3462065728617747e-05 1.0476408144975061e-05 -2.627396996623637e-05 1.3635288063517732e-05 -1.4860707246303458e-05 -2.823706007885366e-05 8.9847569012947914e-06 -9.9891745611041024e-06 2.128796942365032e-05 -2.8690513590845513e-05 -2.9423982050502675e-05 2.7849170592162409e-05 -5.1490399603911406e-06 1.9550450139961737e-05 -2.9431063481979439e-05 2.249833356212808e-05 -2.1287178671422403e-06 1.1967926478800587e-05 3.1231930479407309e-05
leaf_weight=27 27 37 29 21 23 21 25 35 22 23 21 20 33 21 23 28 22 21 22 23 20 22 20 72 21 20 28 31 21 20
leaf_count=27 27 37 29 21 23 21 25 35 22 23 21 20 33 21 23 28 22 21 22 23 20 22 20 72 21 20 28 31 21 20
internal_value=1.40878e-13 3.53017e-07 5.17391e-06 -2.44702e-06 -1.37825e-05 -3.64378e-07 3.28169e-07 8.74045e-07 3.21487e-07 1.05207e-06 1.165e-05 3.8716e-06 -3.07757e-07 -1.04238e-05 6.8801e-07 -1.43191e-08 1.03543e-06 1.77154e-07 2.01033e-06 -4.25987e-07 -8.60707e-06 1.74873e-06 -3.51279e-07 2.97997e-06 8.82e-08 -2.61847e-06 2.59222e-06 -1.28355e-05 7.34061e-07 1.9837e-05
internal_weight=799 772 100 71 44 672 635 614 589 554 63 42 491 44 447 424 396 363 341 300 63 237 214 192 172 151 100 51 43 41
internal_count=799 772 100 71 44 672 635 614 589 554 63 42 491 44 447 424 396 363 341 300 63 237 214 192 172 151 100 51 43 41
is_linear=0
shrinkage=0.1


Tree=30
num_leaves=31
num_cat=0
split_feature=1 0 1 1 1 1 1 0 1 0 0 0 0 1 1 0 0 0 1 1 1 1 0 0 1 1 1 1 0 1
split_gain=2.88842e-07 5.87541e-07 4.44168e-07 3.99422e-07 4.25676e-07 5.1233e-07 8.96803e-07 1.44886e-06 6.10132e-07 5.89227e-07 5.01043e-07 1.36519e-06 7.2313e-07 9.68284e-07 5.948e-07 7.10365e-07 4.79658e-07 5.4778e-07 4.79448e-07 3.8099e-07 9.27364e-07 7.02618e-07 6.77069e-07 8.03353e-07 1.30063e-06 6.6248e-07 4.93077e-07 3.635e-07 1.95875e-07 1.9381e-07
threshold=0.65340627156245168 -29.794468090753067 0.56596635455827171 0.4938652230569533 0.44809435811680565 0.32741343114612759 0.22086088280264418 -4.8257061273689024 0.36696836344225819 246.561533896871 208.8312419317663 179.7575340120093 98.454259647645827 0.099292488001666471 0.022030447581681208 -35.035013074309965 -210.6023903817331 -152.68065057595956 -0.2645274670428393 -0.55309057931231853 -0.44430860420142942 -0.65532202119487504 -66.537423525303879 30.140728545440655 -0.19241497959988907 -0.11232706393845361 -0.18101327207147505 0.14975026850123704 -35.035013074309965 0.0038302262967902108
decision_type=2 2 2 2 2 2 2 2 2 2 2 2 2 2 2 2 2 2 2 2 2 2 2 2 2 2 2 2 2 2
left_child=2 -2 3 4 5 6 9 -8 -7 10 11 12 13 14 16 -16 -1 -18 -14 21 -21 28 25 26 -25 -22 -24 -15 -19 -20
right_child=1 -3 -4 -5 -6 8 7 -9 -10 -11 -12 -13 18 27 15 -17 17 19 29 20 22 -23 23 24 -26 -27 -28 -29 -30 -31
leaf_value=-1.270688180132614e-05 -1.8419156025629494e-05 1.031269990873137e-06 1.1907933730981314e-05 -1.3546842715835999e-05 1.4471614433984673e-05 -2.2598015892158618e-05 2.8061784893604153e-05 -2.3027264295237591e-06 -1.1499344449501022e-06 -1.7295945663136082e-05 1.4963915799109436e-05 -2.6052743714899409e-05 7.2380773114370348e-08 -2.1069396198385973e-05 2.4479253426596353e-05 -3.9801900963235924e-07 1.3864322525997915e-05 -7.7932321892149049e-06 2.374354333369411e-05 2.0291716088610449e-05 -1.9799182818162316e-05 -2.1945728936274962e-05 2.0241133892408538e-06 8.8559917057864374e-06 -2.535762005209108e-05 3.2045144810884572e-06 2.0964018377916157e-05 -4.7858953673942151e-06 5.2637057133661418e-06 1.0283598559275877e-05
leaf_weight=30 25 41 33 21 21 21 30 33 36 20 22 20 30 29 22 24 28 20 20 23 31 22 27 25 20 21 28 26 27 23
leaf_count=30 25 41 33 21 21 21 30 33 36 20 22 20 30 29 22 24 28 20 20 23 31 22 27 25 20 21 28 26 27 23
internal_value=1.01009e-13 -6.33632e-06 5.70528e-07 3.60501e-08 4.5614e-07 8.83722e-09 8.68171e-07 1.21566e-05 -9.05186e-06 -4.53704e-07 1.96576e-07 -4.58427e-07 6.16964e-07 -1.04191e-06 9.06769e-07 1.14998e-05 -7.0674e-07 6.16805e-07 9.77486e-06 -9.03402e-07 1.57783e-06 -7.19639e-06 -1.25387e-06 3.55891e-06 -6.35006e-06 -1.05092e-05 1.16662e-05 -1.33717e-05 -2.92438e-07 1.6544e-05
internal_weight=799 66 733 700 679 658 601 63 57 538 518 496 476 403 348 46 302 272 73 244 175 69 152 100 45 52 55 55 47 43
internal_count=799 66 733 700 679 658 601 63 57 538 518 496 476 403 348 46 302 272 73 244 175 69 152 100 45 52 55 55 47 43
is_linear=0
shrinkage=0.1


Tree=31
num_leaves=31
num_cat=0
split_feature=1 0 1 1 1 1 1 0 1 1 1 1 0 1 0 0 0 0 0 1 0 0 0 0 0 0 1 1 0 0
split_gain=2.33962e-07 4.75908e-07 3.59776e-07 3.23532e-07 3.44797e-07 4.14987e-07 7.2641e-07 1.17358e-06 4.94207e-07 4.84584e-07 8.02801e-07 3.71193e-07 3.45268e-07 7.75303e-07 5.45731e-07 7.52461e-07 6.67955e-07 6.84725e-07 7.77083e-07 1.26383e-06 5.75473e-07 4.67364e-07 4.59983e-07 8.45521e-07 7.34817e-07 3.04795e-07 2.97306e-07 2.70714e-07 2.42099e-07 9.89434e-08
threshold=0.65340627156245168 -29.794468090753067 0.56596635455827171 0.4938652230569533 0.44809435811680565 0.32741343114612759 0.22086088280264418 -4.8257061273689024 0.36696836344225819 0.095677676412784088 0.067203071773327655 0.041264558960170818 -166.25046873008247 -0.25934898731625661 -130.80975119486536 -106.38836648262803 -83.855957855201254 -66.537423525303879 -21.800357249660006 -0.18101327207147505 20.933855152958134 58.96359641877644 208.8312419317663 138.09743543082007 75.455629790434628 1.0000000180025095e-35 0.13953866524987529 -0.25617856520292731 109.39966059249129 64.65730946346595
decision_type=2 2 2 2 2 2 2 2 2 2 2 2 2 2 2 2 2 2 2 2 2 2 2 2 2 2 2 2 2 2
left_child=2 -2 3 4 5 6 9 -8 -7 10 11 12 13 -1 -14 -16 -17 -18 19 -19 -20 -22 23 24 -23 -11 -27 28 -26 -3
right_child=1 29 -4 -5 -6 8 7 -9 -10 25 -12 -13 14 -15 15 16 17 18 20 -21 21 22 -24 -25 27 26 -28 -29 -30 -31
leaf_value=5.2577297841101737e-06 -1.6577240545302631e-05 -4.1056617919821291e-06 1.0717140850663948e-05 -1.2192158915457272e-05 1.3024453454861594e-05 -2.0338214354913882e-05 2.5255606936601303e-05 -2.0724544342418526e-06 -1.0349410375612126e-06 -1.4625399650997551e-05 1.9467714545581577e-05 -1.3417474347079406e-05 1.5251613152671513e-05 -2.0160492385912222e-05 -1.7854919360615894e-05 1.7730800542873719e-05 -1.7482089378972888e-05 5.4673538684393421e-07 -1.3089778120488381e-05 3.2404132580268199e-05 1.1476034716098286e-05 -1.3806181383794562e-05 9.3189679077885095e-06 -1.739131869539158e-05 8.9817428109502846e-06 -1.0973864464176586e-05 5.696965799079804e-06 1.601022028071817e-05 -5.9153867186978463e-06 5.7222389538461963e-06
leaf_weight=24 25 20 33 21 21 21 30 33 36 35 22 20 27 24 21 24 20 33 33 20 36 24 33 34 24 20 23 21 20 21
leaf_count=24 25 20 33 21 21 21 30 33 36 35 22 20 27 24 21 24 20 33 33 20 36 24 33 34 24 20 23 21 20 21
internal_value=-7.74607e-14 -5.70269e-06 5.13475e-07 3.2445e-08 4.10526e-07 7.9534e-09 7.81354e-07 1.09409e-05 -8.14667e-06 -4.08334e-07 8.27506e-07 -1.08761e-07 5.2802e-07 -7.45138e-06 1.56319e-06 4.85671e-07 1.6818e-06 3.89259e-07 1.67497e-06 1.25684e-05 -8.9104e-07 1.20562e-06 -1.16448e-06 -3.97711e-06 1.14742e-06 -7.69662e-06 -2.05691e-06 6.66875e-06 2.21032e-06 9.28141e-07
internal_weight=799 66 733 700 679 658 601 63 57 538 460 438 418 48 370 343 322 298 278 53 225 192 156 123 89 78 43 65 44 41
internal_count=799 66 733 700 679 658 601 63 57 538 460 438 418 48 370 343 322 298 278 53 225 192 156 123 89 78 43 65 44 41
is_linear=0
shrinkage=0.1


Tree=32
num_leaves=31
num_cat=0
split_feature=0 1 0 1 1 0 0 0 0 0 0 0 0 0 1 1 1 1 0 1 1 1 0 1 1 1 1 0 1 0
split_gain=2.03689e-07 2.44523e-07 1.12956e-06 6.34311e-07 9.17586e-07 7.57213e-07 5.93315e-07 6.38564e-07 7.71617e-07 8.48161e-07 6.38148e-07 1.04292e-06 1.11531e-06 8.38355e-07 1.17526e-06 1.17669e-06 7.68784e-07 5.63275e-07 4.98834e-07 5.2369e-07 1.10522e-06 1.16964e-06 4.86552e-07 3.52401e-07 5.30146e-07 7.50413e-07 3.24269e-07 3.1325e-07 1.70488e-07 9.21879e-08
threshold=258.70744254654716 -0.3980262652053313 130.16696480508111 -0.55309057931231853 -0.64180341312262768 -27.498433836255568 -204.93411222492429 -160.37495583084817 -129.45820189986259 -90.415835558145758 34.928474105712674 56.340668579156052 78.134087230748278 91.421160031553896 0.44184202611001017 0.22677871627570445 0.087828462176532687 -0.73185501820178955 20.056984745519006 0.63978715122078367 0.45318233043458384 0.29452884909150329 -24.713541719233032 0.1958395643698839 0.059719238242620452 -0.049699772575027661 -0.19574969914966875 192.1926427191793 0.23638308038136088 135.6462658576784
decision_type=2 2 2 2 2 2 2 2 2 2 2 2 2 2 2 2 2 2 2 2 2 2 2 2 2 2 2 2 2 2
left_child=1 2 3 4 17 -5 -3 -8 -9 28 18 -12 -13 -14 15 16 27 22 19 20 21 23 -1 24 25 26 -11 29 -10 -15
right_child=-2 6 -4 5 -6 -7 7 8 9 10 11 12 13 14 -16 -17 -18 -19 -20 -21 -22 -23 -24 -25 -26 -27 -28 -29 -30 -31
leaf_value=-1.6498815135232042e-05 -9.718310121527231e-06 1.1621757255705086e-05 2.4777261147722709e-05 2.1798188063257841e-05 -2.2315419085895306e-05 -2.8142146256868727e-06 -1.3796961949981034e-05 1.3191945132156865e-05 -9.0740092092447507e-06 -3.3950719543182375e-06 -1.9405337241412074e-05 1.4748039472111928e-05 -2.1341129233405808e-05 -6.6829976449731652e-06 1.8156361184082927e-05 -2.6541979059402367e-05 1.6009012926501566e-05 1.3920766168271456e-05 1.8454191324833251e-05 1.7123903948924548e-05 -1.9037520687561482e-05 2.3897539779227373e-05 3.9664433547141718e-06 -1.2039074768143197e-05 1.2147138971028784e-05 -1.718347995544415e-05 1.4198369026416914e-05 3.074286875441127e-06 -2.0589278501574882e-05 -1.6169460068340413e-05
leaf_weight=21 21 37 22 25 22 25 39 38 36 22 36 37 25 21 25 22 21 23 21 21 25 24 26 21 35 24 20 24 20 20
leaf_count=21 21 37 22 25 22 25 39 38 36 22 36 37 25 21 25 22 21 23 21 21 25 24 26 21 35 24 20 24 20 20
internal_value=-1.20374e-14 2.62319e-07 3.69262e-06 4.25987e-07 -4.50119e-06 9.49199e-06 -6.53918e-07 -1.44109e-06 -5.45407e-07 -1.58945e-06 -1.26741e-07 -3.76717e-06 -8.8013e-07 -4.53989e-06 -1.38176e-06 -5.90448e-06 -6.25116e-07 1.09757e-06 3.82134e-06 2.22087e-06 3.9067e-07 3.71741e-06 -5.17761e-06 -2.52446e-07 2.19824e-06 -3.07769e-06 4.98276e-06 -5.99922e-06 -1.31866e-05 -1.13105e-05
internal_weight=799 778 164 142 92 50 614 577 538 500 444 231 195 158 133 108 86 70 213 192 171 146 47 122 101 66 42 65 56 41
internal_count=799 778 164 142 92 50 614 577 538 500 444 231 195 158 133 108 86 70 213 192 171 146 47 122 101 66 42 65 56 41
is_linear=0
shrinkage=0.1


Tree=33
num_leaves=31
num_cat=0
split_feature=1 0 1 1 1 0 0 0 1 0 0 1 0 1 0 0 1 1 1 0 0 1 0 1 1 0 0 1 1 0
split_gain=2.51759e-07 3.61485e-07 3.32563e-07 2.30139e-07 2.89226e-07 3.65846e-07 4.56604e-07 7.02527e-07 5.17148e-07 4.91549e-07 1.13055e-06 8.99019e-07 1.28451e-06 1.13836e-06 8.07505e-07 1.15259e-06 7.50468e-07 1.66688e-06 6.96368e-07 8.31111e-07 6.8125e-07 9.49454e-07 8.13524e-07 1.35518e-06 8.92987e-07 7.84653e-07 6.14709e-07 4.92322e-07 6.41212e-07 8.14395e-08
threshold=0.65340627156245168 -29.794468090753067 0.56596635455827171 0.4938652230569533 0.44809435811680565 -231.37123974383573 -174.92397146530854 -147.62049752478194 -0.86306604957273059 63.955456958799921 75.455629790434628 -0.53030572512233143 -39.552960164721291 0.30637706830920003 95.278606845946356 116.83932640483546 -0.42512025637214729 -0.19772202930472213 -0.012107436587353694 175.94630387761575 -81.019623981926983 -0.38554739655689124 -60.32885146406624 -0.24702419443994031 -0.080112766926354675 -98.614405173582767 -129.45820189986259 0.067203071773327655 0.13953866524987529 64.65730946346595
decision_type=2 2 2 2 2 2 2 2 2 2 2 2 2 2 2 2 2 2 2 2 2 2 2 2 2 2 2 2 2 2
left_child=2 -2 3 4 5 -1 -7 -8 -9 11 -11 12 -10 20 -12 -16 -17 -18 -19 -20 25 -22 -23 -24 -25 26 -13 -26 -29 -3
