tree
version=v4
num_class=1
num_tree_per_iteration=1
label_index=0
max_feature_idx=70
objective=regression
feature_names=bid_price_1 bid_size_1 ask_price_1 ask_size_1 bid_price_2 bid_size_2 ask_price_2 ask_size_2 bid_price_3 bid_size_3 ask_price_3 ask_size_3 bid_price_4 bid_size_4 ask_price_4 ask_size_4 bid_price_5 bid_size_5 ask_price_5 ask_size_5 bid_price_6 bid_size_6 ask_price_6 ask_size_6 bid_price_7 bid_size_7 ask_price_7 ask_size_7 bid_price_8 bid_size_8 ask_price_8 ask_size_8 bid_price_9 bid_size_9 ask_price_9 ask_size_9 bid_price_10 bid_size_10 ask_price_10 ask_size_10 bid_ask_spread bid_ask_spread_pct mid weighted_mid_price microprice order_book_imbalance_2 order_book_imbalance_3 order_book_imbalance_5 total_bid_volume_2 total_ask_volume_2 total_bid_volume_3 total_ask_volume_3 price_impact_1 price_impact_5 price_impact_10 price_impact_buy price_impact_sell bid_slope ask_slope order_flow_imbalance effective_spread trade_intensity l2_volatility_1min l2_volatility_5min realized_volatility hht_freq_imf0 hht_amp_imf0 hht_freq_imf1 hht_amp_imf1 hht_freq_imf2 hht_amp_imf2
feature_infos=[108992:109418.3] [0:43.468000000000004] [109000.10000000001:109427.3] [0:45.039999999999999] [0:109418.2] [0:37.505000000000003] [0:109427.60000000001] [0:47.055999999999997] [0:109417.8] [0:38.956000000000003] [0:109427.89999999999] [0:36.68] [0:109417.7] [0:49.783999999999999] [0:109427.60000000001] [0:42.997] [0:109416.8] [0:39.155999999999999] [0:109427.60000000001] [0:33.137] [0:109416.7] [0:38.884999999999998] [0:109427.8] [0:41.429000000000002] [0:109416.10000000001] [0:36.780999999999999] [0:109427.5] [0:37.661999999999999] [0:109416] [0:43.152000000000001] [0:109427.89999999999] [0:38.866999999999997] [0:109415.7] [0:26.385000000000002] [0:109426] [0:33.944000000000003] [0:109415.60000000001] [0:35.542999999999999] [0:109426.60000000001] [0:25.689] [-14.899999999994179:25.600000000005821] [-0.013650313773985781:0.023456498274669932] [108996.35000000001:109422.8] [108992.60106237311:109427.28498407402] [108992.60106237311:109427.28498407402] [-1:1] [-1:1] [-1:1] [0:50.391999999999996] [0:81.238] [0:67.495000000000005] [0:86.278999999999996] [-0.000136512454929077:0.0002345374756072397] [-9.5283861158534282e-05:0.00025663363577912822] [-6.1384795169448049e-05:0.00025021802422168132] [-0.0001282667361750218:0.00024197129615494026] [-0.00013193150006568337:0.00024418159611538253] [0:0.00015755835842508594] [0:0.00016638752568947599] [-1:1] [-0.013650313773985781:0.023456498274669932] [0.97708109888968164:1.0138392235173863] none none none [-0.49996283222722498:0.49999941852800822] [0.021304973897975768:8.2433116520072343] [-0.49989971322838272:0.49999496160214268] [0.0035067313047079905:4.6769780474610192] [-0.48638455077817172:0.48419599573015953] [0.0048530725466190833:3.781509257322178]
tree_sizes=10279 10324 10299 10266 10342 10318 10345 10356 10323 10365 10314 10347 10300 10332 10297 10325 10324 10265 10328 10356 10337 10303 10275 10279 10370 10289 10282 10337 10226 10218 10287 10273 10288 10216 10267 10287 10268 10268 10276 10235 10219 10227 10278 10182 10180 10275 10176 10239 10215 10120 10155 10210 10229 10183 10131 10082 10149 10122 10101 10164 10112 10043 10075 10165 10118 10025 9991 10134 10119 10048 10128 10034 10154 10056 9995 10016 9943 9949 10086 9957 10085 9958 9980 9932 9989 10132 10103 10044 9933 9986 10013 10026 9946 10092 9978 9918 10045 10025 10011 9997 10026 9980 9926 10047 10005 10042 10006 9940 9999 10003 10085 9966 9955 9967 9983 9924 10049 9991 9957 10018 9939 9998 9953 9997 9996 10101 9945 10013 10077 10087 9967 9965 9932 10014 10027 10013 10049 9962 10029 10002 10059 10022 9917 10029 9928 9972 9931 9975 9990 10000 9891 9935 9998 9982 10018 10016 10010 10047 9998 9936 10026 9884 9913 9958 10052 9983 9927 10005 9932 9931 9967 9946 10017 9959 9905 9960 10043 9939 10081 10004 9940 9926 9963 9994 10001 10019 9978 9991 9957 9980 9973 9954 10009 9923 10067 9957 10028 10043 10007 9937

Tree=0
num_leaves=105
num_cat=0
split_feature=1 61 3 3 61 1 41 41 3 1 3 3 1 40 3 1 61 66 40 40 40 3 1 41 61 42 1 40 3 65 57 61 1 43 55 49 65 65 41 3 40 1 41 40 58 65 66 3 1 65 40 2 1 66 41 66 67 40 58 3 65 65 65 65 58 57 67 1 55 55 66 66 66 65 65 66 66 58 66 20 55 40 67 14 55 66 67 3 0 66 58 58 65 58 65 61 67 57 2 66 13 69 55 66
split_gain=0.180961 0.128101 0.109035 0.0635121 0.0451223 0.0298895 0.0236385 0.0137073 0.00933141 0.00923324 0.0120467 0.00780891 0.010716 0.00707067 0.00680219 0.00657714 0.0061726 0.00424292 0.00403366 0.00360571 0.00346163 0.00338317 0.00335369 0.00323028 0.00310194 0.00302538 0.0021948 0.0021873 0.00214449 0.00214163 0.00200242 0.0019689 0.00186004 0.00237996 0.0018574 0.00183697 0.00180007 0.0016649 0.00149554 0.00140603 0.00140557 0.00139463 0.00135875 0.00134145 0.00133911 0.00133585 0.00128499 0.00127055 0.00198224 0.00111232 0.0010776 0.00105291 0.00101091 0.00100227 0.000977485 0.000974825 0.000964495 0.00095778 0.000928604 0.000913302 0.000902544 0.000894199 0.000874628 0.000870146 0.000868588 0.000852455 0.000820147 0.000816908 0.000770304 0.000720176 0.000701334 0.000700732 0.000670666 0.000669974 0.000655773 0.000642075 0.000640916 0.000920975 0.000630501 0.000626778 0.000624452 0.000621492 0.000605919 0.000602568 0.000601667 0.000601397 0.000593698 0.000582121 0.000576485 0.000576158 0.000563839 0.000555168 0.000553813 0.000543487 0.000540145 0.000531509 0.00053038 0.000528534 0.000504676 0.00050402 0.000497846 0.00049664 0.000491733 0.00049104
threshold=0.20050000000000004 0.99680163171610603 2.8795000000000006 0.011500000000000002 0.99507449372174339 1.0000000180025095e-35 0.0074190431266278074 9.1669993528870129e-05 0.11550000000000002 2.3425000000000007 0.45850000000000007 1.0000000180025095e-35 0.0045000000000000014 0.79999999999563454 1.0000000180025095e-35 0.021500000000000002 0.99244902981397154 1.779652764314577 13.650000000001457 2.1500000000014556 9.0499999999956362 4.2765000000000013 2.3425000000000007 0.0056776140838029629 1.001652413074291 109091.62500000001 0.57450000000000012 8.2000000000043674 1.0265000000000002 0.2932479395548882 2.8408283855773664e-05 0.98679702046645146 1.8755000000000002 109148.53443228644 0.00015764706259761773 9.0085000000000033 0.25887927565064028 -0.20293910972938931 -0.0024750920966702165 3.0655000000000006 4.0999999999985457 2.2625000000000006 0.0021085335561620458 14.049999999995636 3.5760787953255767e-05 0.26283203867982602 1.0179556023306913 0.58150000000000002 1.8435000000000004 0.39581140236713824 13.700000000004367 109144.25000000001 4.2070000000000016 1.1176169392357986 0.0099820323423218983 1.6826222169490785 0.14930989371659356 9.3499999999985466 8.0666710361178412e-05 0.0015000000000000002 0.32898804006990295 0.26932685618899127 0.2650192564522334 0.24103654102332653 6.5061689480697395e-05 3.7582027359890253e-05 0.13998225980982201 0.078500000000000014 0.00015124439765572281 1.8319036089204981e-05 1.5821635600344155 1.329138357397931 2.2908431135774827 -0.42951951088760976 0.4191020815957876 1.8442801879755317 2.2443826858231177 7.23590989744263e-05 3.0522038954943951 109010.65000000001 0.00014753928979342992 1.0499999999956346 0.20937333331684349 109009.05000000002 0.00015949891673918443 2.7047556182736696 0.20937333331684349 1.1425000000000003 109101.25000000001 3.0522038954943951 4.7669489097717039e-05 7.4064828670223045e-05 -0.20293910972938931 2.2901364740452833e-05 0.42427777087489182 0.99616725199724521 0.20337608976871382 8.892213537826467e-05 109318.25000000001 2.2009807645120145 0.0035000000000000005 0.10194257061469665 0.00011641195440810178 2.2216092109642944
decision_type=2 2 2 2 2 2 2 2 2 2 2 2 2 2 2 2 2 2 2 2 2 2 2 2 2 2 2 2 2 2 2 2 2 2 2 2 2 2 2 2 2 2 2 2 2 2 2 2 2 2 2 2 2 2 2 2 2 2 2 2 2 2 2 2 2 2 2 2 2 2 2 2 2 2 2 2 2 2 2 2 2 2 2 2 2 2 2 2 2 2 2 2 2 2 2 2 2 2 2 2 2 2 2 2
left_child=3 2 6 5 8 14 23 38 15 10 44 18 59 24 -1 31 21 53 40 81 95 30 27 47 25 66 -12 62 46 37 43 -5 76 51 83 -24 82 -19 -6 42 -7 -30 52 64 68 56 -25 63 -49 97 -22 88 103 -11 -47 -38 -23 -31 69 -13 -29 92 -4 73 79 80 -3 -45 -8 101 -65 -62 -51 -2 -59 -68 -27 -78 -53 -10 -57 -9 -18 -14 91 -76 -55 -28 -34 -39 -42 -63 -48 -17 -72 -16 -56 -21 -71 -60 -52 -35 -74 -15
right_child=1 13 22 4 7 11 9 19 16 17 26 12 34 39 20 93 36 29 -20 49 50 45 35 28 -26 32 87 60 41 57 -32 -33 33 58 -36 -37 55 89 -40 -41 90 -43 -44 67 -46 54 61 48 -50 72 100 78 -54 86 96 65 -58 74 99 -61 71 84 -64 70 -66 -67 75 -69 -70 98 94 -73 102 -75 85 -77 77 -79 -80 -81 -82 -83 -84 -85 -86 -87 -88 -89 -90 -91 -92 -93 -94 -95 -96 -97 -98 -99 -100 -101 -102 -103 -104 -105
leaf_value=6.0700216591689528e-05 -0.00025500256787388653 3.3815764567224209e-05 0.00018635039107679766 0.00052941416117308375 -0.00045373328282014876 -1.6227897567084363e-05 -0.00039581290678555566 5.5947243738189284e-05 0.00045586366972109166 -0.00024703268796269799 0.00035437260298274716 3.004075903320546e-05 -0.00023312002607565221 -5.8606818177123526e-05 0.00028980528688946403 -0.00013565193866982097 0.00020094472810421141 -0.00069604466833907738 -0.00050954735729924787 0.0002093039513669417 0.00044779610805030398 0.00023695912933871998 -0.00010960257460075937 -0.00016212295847169462 0.0003538551296738663 -1.8654735112312552e-05 -0.00014378786452894302 0.00041497101714955438 0.00013525249384589407 -0.00050841991154614919 0.00032905509446853551 0.00027911314401914285 6.021881139682283e-05 2.9022542047359418e-05 -0.00050210058599298548 0.00046493498862568286 0.00033348920690351951 -0.00033816616514375109 -0.00015998289758170352 0.0001079550830743157 -0.00027011108766192716 -0.00022368964875295807 -0.00011733539253977107 0.00065234891489151549 -0.0002208763662635833 0.00061081139481866187 -0.00040599455003462848 8.8846475072712461e-05 -0.00018222558058246345 0.0002685994642030432 0.00073881897885955138 -4.7792506632883174e-05 -4.0014528251806882e-06 -0.00034964687302745356 0.00066590359591260878 0.00051151461181270198 0.00056826802469824771 -0.00058137334369481267 7.281204128371155e-05 0.00017136201150245217 0.00019516950632576712 -0.00036865212398927953 0.00039032333686544069 -0.00019695243128587907 0.00067091078471055959 0.00033614656842029966 7.6419405510491222e-05 0.00038380689057269213 -0.00054044945501638766 2.042460134828253e-05 -0.00024688886497434325 0.0006516216010476071 0.00046036396002879023 -0.00011748629535012205 -0.00062719970056810531 0.00014625805664252053 -0.00013075866628312028 8.974142730714722e-05 -0.00019096672783534344 0.0002038643524479201 9.8015871363984496e-05 0.00014056091846334593 0.00038903138640908704 -9.8764840345917369e-05 -0.00064736298851174919 -0.00078804645187124966 -0.0004780582544139521 8.3261231462364399e-05 -6.3777423290817138e-06 -0.00047793350030836168 -0.00012683986659767828 2.732791918964003e-05 -0.00022139277223154081 0.00012145922711436543 -0.00034161372258554055 0.00011176171672057997 0.00082316842914930842 -1.2045618271127977e-06 -9.0747500634594195e-05 0.00017273578680958296 0.00035492814380434675 8.2608656262703379e-05 7.0519824765535619e-05 -0.00015180912517674013
leaf_weight=606 296 1346 162 250 141 195 1090 941 705 271 119 430 562 1105 324 216 361 130 322 1638 348 68 112 251 173 1744 146 189 94 643 401 699 925 1719 125 46 511 404 363 270 792 195 2242 481 220 632 121 204 702 717 142 1040 1936 407 226 784 212 1026 708 711 21 1714 514 1282 104 241 1880 77 269 2043 1432 320 195 695 402 1308 759 130 218 63 22 1107 139 300 45 206 438 121 4312 302 202 21 447 62 468 141 283 73 271 508 23 2469 21 473
leaf_count=606 296 1346 162 250 141 195 1090 941 705 271 119 430 562 1105 324 216 361 130 322 1638 348 68 112 251 173 1744 146 189 94 643 401 699 925 1719 125 46 511 404 363 270 792 195 2242 481 220 632 121 204 702 717 142 1040 1936 407 226 784 212 1026 708 711 21 1714 514 1282 104 241 1880 77 269 2043 1432 320 195 695 402 1308 759 130 218 63 22 1107 139 300 45 206 438 121 4312 302 202 21 447 62 468 141 283 73 271 508 23 2469 21 473
internal_value=-5.13859e-06 -8.8474e-05 -0.000264354 0.000206709 0.000305553 -1.5334e-05 -0.000327313 0.00013718 0.000439386 -0.000439476 -0.00030237 -0.000136147 -4.16586e-05 1.05339e-05 0.000262215 0.000249131 0.000483348 -0.000503182 -0.000269218 0.000177928 0.00038708 0.000549002 0.000389277 -0.00024011 3.1028e-05 2.84158e-05 8.09635e-05 0.000432721 -0.000304749 -0.00054909 0.000480222 0.000345051 1.34773e-05 2.4425e-05 -0.000226348 5.76679e-05 0.000379604 -0.000444307 -0.000242163 -6.27665e-05 -0.000204133 -0.00010694 -7.07747e-05 0.000522612 -0.00039608 0.000637628 -0.000326744 -0.000203356 -0.000121189 0.000236985 0.000524188 -9.7203e-06 -4.1068e-05 -0.000375127 0.000674394 0.000420159 0.000487807 -0.00058756 5.31596e-05 0.000118103 0.000549145 -0.000344342 0.000341442 -0.000221195 0.000463305 0.00046246 8.39193e-05 0.000615292 -0.000424442 4.16772e-05 -0.000240702 0.000623512 0.00030422 -0.000158561 -0.000618703 0.000105073 -4.56184e-05 -9.85146e-05 -7.26033e-05 0.000435192 0.000500228 0.000101683 0.000253233 -0.000186361 -0.000371027 -0.000681697 -0.000416208 -4.0893e-05 5.38506e-06 -0.000397953 -0.000240996 -0.000363859 -0.000260718 -7.83106e-05 -0.000270221 0.000235818 0.000753342 0.000200323 7.40488e-06 0.000114557 0.000685307 6.06138e-05 0.000422462 -8.65439e-05
internal_weight=60060 43104 15525 16956 11733 5223 14161 5196 6537 6194 1965 3639 2128 27579 1584 1227 5310 4229 1511 4692 978 3252 1364 7967 21553 21380 386 1206 2888 3113 1831 949 16846 14213 987 158 2058 836 504 6026 1189 289 5756 1430 1579 1421 2599 5079 906 2644 513 6495 3514 1116 1141 1558 280 2277 7718 1141 530 2348 676 4173 872 1047 4534 558 1359 6502 3182 341 933 991 1634 3188 2633 889 1258 768 806 2048 500 862 1780 608 845 267 5237 706 994 1735 568 278 1900 465 509 1711 2314 1216 165 4188 216 1578
internal_count=60060 43104 15525 16956 11733 5223 14161 5196 6537 6194 1965 3639 2128 27579 1584 1227 5310 4229 1511 4692 978 3252 1364 7967 21553 21380 386 1206 2888 3113 1831 949 16846 14213 987 158 2058 836 504 6026 1189 289 5756 1430 1579 1421 2599 5079 906 2644 513 6495 3514 1116 1141 1558 280 2277 7718 1141 530 2348 676 4173 872 1047 4534 558 1359 6502 3182 341 933 991 1634 3188 2633 889 1258 768 806 2048 500 862 1780 608 845 267 5237 706 994 1735 568 278 1900 465 509 1711 2314 1216 165 4188 216 1578
is_linear=0
shrinkage=1


Tree=1
num_leaves=105
num_cat=0
split_feature=1 61 3 3 61 1 52 52 1 3 3 52 3 1 3 1 40 16 66 52 52 50 40 61 42 56 49 40 3 1 61 56 52 1 55 66 66 61 40 1 56 58 44 3 1 3 10 40 40 52 1 52 40 66 56 3 57 57 3 66 58 66 4 57 12 55 58 40 58 40 55 49 0 56 10 66 55 68 5 49 6 44 61 1 19 8 40 55 56 55 57 51 49 2 70 2 58 66 58 56 3 55 56 56
split_gain=0.154318 0.109272 0.0921792 0.0541609 0.0385949 0.0254888 0.0216266 0.00992505 0.00789866 0.0101199 0.00676312 0.00926533 0.00665917 0.00913826 0.00580068 0.00560572 0.00510024 0.00364106 0.00360536 0.00350396 0.00310089 0.00295324 0.00295196 0.00264523 0.00257994 0.00214597 0.00212476 0.00212263 0.00188033 0.0019685 0.00179849 0.00178087 0.00174009 0.00172239 0.00160005 0.00143742 0.00132373 0.0012862 0.00124752 0.00116955 0.00113192 0.00108708 0.00103726 0.00101266 0.00161971 0.000992526 0.000925968 0.000919419 0.000918241 0.000880857 0.000863515 0.00085784 0.000812307 0.000783783 0.000783468 0.000778833 0.000775406 0.000744867 0.000731078 0.000712796 0.000692108 0.000689098 0.000660484 0.000655361 0.000642217 0.000805817 0.00064153 0.000639651 0.000631035 0.000625502 0.00062382 0.000608004 0.000606694 0.000568954 0.000561899 0.000546467 0.000535244 0.000525667 0.000521239 0.000521024 0.000517975 0.00065512 0.000710025 0.000510235 0.00050268 0.000493976 0.000579563 0.000493958 0.000489547 0.000487953 0.000485293 0.000476608 0.000505574 0.000475443 0.000474304 0.000473659 0.000458527 0.000440132 0.000438181 0.000435748 0.000432828 0.000431386 0.000429493 0.000428222
threshold=0.20050000000000004 0.99698466427629684 2.8795000000000006 0.011500000000000002 0.99634698692628565 1.0000000180025095e-35 7.4187679258318673e-05 9.1669951511950807e-07 2.0885000000000002 0.45850000000000007 0.11550000000000002 6.8718856042015501e-05 1.0000000180025095e-35 0.0045000000000000014 1.0000000180025095e-35 0.021500000000000002 0.79999999999563454 109013.15000000001 1.4252141977277788 0.00010794512729111486 5.677452911869889e-05 5.1145000000000005 9.0499999999956362 1.001652413074291 109091.62500000001 3.4762681822254597e-05 3.8130000000000006 8.2000000000043674 0.58150000000000002 1.2635000000000003 0.98679702046645146 0.00014389633231624759 1.4667978839604032e-05 0.57450000000000012 0.00017033606573274468 1.779652764314577 1.5184974481588778 1.0030337267692109 9.400000000001457 1.6095000000000004 9.2575894474926528e-05 3.6670182420598849e-05 109148.53443228644 0.58150000000000002 1.1235000000000002 2.9835000000000007 109184.45000000001 15.450000000004367 4.0999999999985457 2.1085113268276149e-05 4.2070000000000016 9.9815341623376986e-05 4.9000000000014561 1.329138357397931 0.00016318014262803955 0.0015000000000000002 6.5469739241984446e-05 8.0700297907747431e-05 5.0925000000000002 1.98467851065616 9.9940585783301445e-05 2.2443826858231177 109301.05000000002 0.00012098137897876682 109087.15000000001 0.00013097750896746938 5.5882657412843129e-05 19.200000000004369 5.401011362434157e-05 17.450000000004369 0.00015124439765572281 1.8165000000000002 109104.45000000001 0.00017930811767418828 109321.55000000002 1.4544361350119654 0.00010170178699666061 0.94111600039848919 0.0025000000000000005 7.4595000000000011 109209.75000000001 109095.95612555261 0.98965899633266496 2.1465000000000001 0.0015000000000000002 109084.35000000002 12.700000000004367 0.00011727838108193048 5.2253896181132026e-05 0.00013660344307724523 9.1673565124706042e-06 15.562500000000002 12.506500000000003 109301.55000000002 1.1800169896770365 109318.25000000001 6.6825675156772041e-05 2.1795322339823544 0.00012646483580976543 0.00013742855149917219 1.0655000000000003 0.0001237356337774118 5.0402117255496168e-05 0.00011275871765879869
decision_type=2 2 2 2 2 2 2 2 2 2 2 2 2 2 2 2 2 2 2 2 2 2 2 2 2 2 2 2 2 2 2 2 2 2 2 2 2 2 2 2 2 2 2 2 2 2 2 2 2 2 2 2 2 2 2 2 2 2 2 2 2 2 2 2 2 2 2 2 2 2 2 2 2 2 2 2 2 2 2 2 2 2 2 2 2 2 2 2 2 2 2 2 2 2 2 2 2 2 2 2 2 2 2 2
left_child=3 2 6 5 10 14 20 37 9 41 15 40 19 55 -1 30 23 26 -10 48 43 27 88 24 75 39 31 79 36 -30 90 56 -9 100 68 -28 -22 -6 -20 61 57 70 72 52 -45 49 76 -24 -7 50 103 94 87 -29 59 93 69 64 -55 -40 -34 -26 -60 71 65 -12 -31 73 84 101 -8 -44 -41 89 -64 -3 -27 -77 -36 83 81 -61 -83 -4 -15 86 -32 -2 -16 -21 -5 92 -74 -14 -37 -73 -54 -94 -48 -19 -11 -13 -17 -18
right_child=1 16 21 4 7 12 8 32 18 33 11 17 13 34 22 102 45 99 38 67 28 -23 47 -25 25 46 35 53 29 66 85 -33 60 -35 78 51 -38 -39 54 42 -42 -43 63 44 -46 -47 98 -49 -50 -51 -52 -53 96 58 -56 -57 -58 -59 62 80 -62 -63 74 -65 -66 -67 -68 -69 -70 -71 -72 95 91 -75 -76 77 -78 -79 -80 -81 -82 82 -84 -85 -86 -87 -88 -89 -90 -91 -92 -93 97 -95 -96 -97 -98 -99 -100 -101 -102 -103 -104 -105
leaf_value=6.0799068896984145e-05 -0.00015512215076371761 5.0478833807550206e-05 0.00025696254497524685 0.00055882396914779333 -0.0001490281411967374 -1.0240451052840115e-05 -0.00035660719119188616 8.2399028927616414e-05 -0.00028613287641988548 0.00017715034503700631 0.00033065100281114097 0.00045116001591565962 5.9661796616114399e-05 -0.00022715869568345877 0.00011407260079845505 -0.00018285882153932918 -8.0805905631512148e-05 0.0002479694037920733 -0.00041957093209234138 -0.00034490780589452265 -0.00022188809585904461 -0.0001471993851579496 0.00043744569557051585 0.00033151393978851087 -2.3237246455502634e-05 4.1393903621938981e-05 0.00044182335657594844 0.00014723771805263451 0.00020511537302533858 -0.00023501333588910519 0.00026903346775616161 0.00059012435291489157 0.00017647066977512365 -2.2974210838883648e-05 -0.00033177368529635178 0.00062159765135102703 -0.00034356559830726061 -0.00043294632116991843 -0.0004399785297452179 3.3091931001693177e-05 0.00040129359520184326 -0.00019356765818320026 9.054414394638562e-05 0.00012561260050127478 -0.00014972924711956803 0.00010042295368732569 0.00010118751177402049 0.00069326394176290156 -0.00019564891824967818 -9.8720285882062289e-05 1.050100196607859e-06 0.00069283544150382768 -0.00023915509080580624 0.00025168666570536723 -0.00013907951894736009 0.00016299006218136339 0.00016937331373109994 3.3377909777184919e-05 0.00058072042767932149 -0.00045380411886064093 0.00034213897346744833 -0.00012263193036241439 1.9444845692281841e-05 -0.00017600134304452921 0.00021442745992045198 7.2284456067960538e-05 0.00013864064133821467 -0.00068691464984969321 -3.4158081783785304e-05 0.00060633298305952377 -0.00048978759202872226 3.2378173838245808e-05 -2.3621177530124048e-05 -0.00019647805810353152 0.00056162889682427673 0.00015728528019816652 -0.00013839768074602 8.2606560650396675e-05 -0.00071545204613172582 0.00034020018259564572 -0.00046125807754289158 -0.00065908586263336763 -0.00054200855071505154 -4.7949564413673077e-05 -3.5212431830411355e-05 0.00018890026029954893 0.00049964975599573846 -0.00029420848149516293 0.00027939832300732221 -0.00051695632377346426 0.00031915677315022724 1.855462360057733e-05 -4.4959094132757396e-05 -0.00020591505280686845 0.0005050670659861613 -5.6947177259913347e-05 -9.8440542933864546e-05 -0.00015147713433030162 0.00043065613883848315 0.00053128026563270395 0.00046962862781240686 0.00035212085468267206 8.2908496282177225e-06 0.00021118629146627509
leaf_weight=606 2305 1867 164 182 380 195 1024 1564 617 56 1243 657 386 658 160 114 1547 349 1149 231 772 64 410 173 1203 3257 339 35 81 376 333 467 1931 245 41 452 1630 124 517 1139 572 205 1001 148 812 250 1634 103 793 1828 1936 541 1921 53 32 711 71 70 429 284 160 619 24 86 505 75 29 43 155 107 258 3693 1911 83 21 781 100 1886 42 556 389 459 896 40 91 343 79 160 305 166 68 876 507 44 374 384 146 412 24 35 63 424 174 30
leaf_count=606 2305 1867 164 182 380 195 1024 1564 617 56 1243 657 386 658 160 114 1547 349 1149 231 772 64 410 173 1203 3257 339 35 81 376 333 467 1931 245 41 452 1630 124 517 1139 572 205 1001 148 812 250 1634 103 793 1828 1936 541 1921 53 32 711 71 70 429 284 160 619 24 86 505 75 29 43 155 107 258 3693 1911 83 21 781 100 1886 42 556 389 459 896 40 91 343 79 160 305 166 68 876 507 44 374 384 146 412 24 35 63 424 174 30
internal_value=-7.11954e-14 -7.69564e-05 -0.0002359 0.000195632 0.000286909 -9.41499e-06 -0.000292631 9.95583e-05 -0.00040109 -0.000268684 0.000389786 0.000422605 -0.00012098 -3.37245e-05 0.000246888 0.000230362 1.64986e-05 0.000497327 -0.000457523 -0.000243865 -0.000212464 0.000360633 0.000362195 3.33982e-05 3.09859e-05 1.7191e-05 0.000522337 0.000385218 -0.000276676 -0.000139362 0.000315683 0.000462458 0.000143469 9.30724e-05 -0.000204277 0.000582919 -0.000304459 -0.000218881 -0.000485903 -5.96524e-07 0.00030693 -0.000357238 9.67191e-06 -0.000178698 -0.000107281 -4.86484e-05 5.91538e-05 0.000488809 -0.000159055 -5.56261e-05 -3.32019e-05 0.000617909 -0.000193826 0.000498012 -0.000515479 0.000113808 0.000415103 0.000278417 0.000521308 -0.000520212 0.000189147 -5.70053e-05 0.000551456 3.35406e-05 0.000287826 0.000315949 -0.000208258 -0.000404079 -0.000174745 0.000429789 -0.000383409 3.70893e-05 -1.57683e-05 -0.000378742 0.000272464 8.22408e-05 3.60382e-05 0.000104475 -0.000525924 0.000301809 -0.000540666 -0.000559512 -0.000581668 0.000197176 -0.000203838 0.000256759 0.000313254 -0.00016415 0.000222512 -0.000416847 0.000493634 -3.0785e-05 -4.60576e-05 3.24865e-05 0.000568834 2.39649e-05 -0.000229216 -9.27126e-05 0.000105957 0.000273792 0.000331992 0.000412314 -6.73726e-05 -7.52512e-05
internal_weight=60060 43104 15960 16956 11733 5223 14574 4159 6194 1851 7574 6281 3639 2128 1584 1293 27144 3816 4343 1511 8380 1386 978 21553 21380 16846 3432 1322 2888 486 1005 1726 3655 364 987 1706 2402 504 3726 11831 2465 1487 10009 5492 960 5591 5015 513 988 5341 3513 1367 4532 562 2577 1141 1259 1893 527 2545 2091 1822 474 5164 1823 1318 405 523 904 1188 1282 5078 4845 480 45 4534 3357 2667 83 760 2028 1639 1355 204 749 755 412 2465 465 397 250 3706 2830 430 826 4077 2067 919 1658 384 119 1081 288 1577
internal_count=60060 43104 15960 16956 11733 5223 14574 4159 6194 1851 7574 6281 3639 2128 1584 1293 27144 3816 4343 1511 8380 1386 978 21553 21380 16846 3432 1322 2888 486 1005 1726 3655 364 987 1706 2402 504 3726 11831 2465 1487 10009 5492 960 5591 5015 513 988 5341 3513 1367 4532 562 2577 1141 1259 1893 527 2545 2091 1822 474 5164 1823 1318 405 523 904 1188 1282 5078 4845 480 45 4534 3357 2667 83 760 2028 1639 1355 204 749 755 412 2465 465 397 250 3706 2830 430 826 4077 2067 919 1658 384 119 1081 288 1577
is_linear=0
shrinkage=0.0765467


Tree=2
num_leaves=105
num_cat=0
split_feature=1 41 49 49 40 41 1 7 49 40 1 41 49 1 40 7 66 1 16 41 7 55 42 40 40 1 49 56 49 65 1 67 49 40 40 56 65 65 7 1 55 41 58 49 7 7 58 66 1 66 58 51 49 41 65 49 7 2 66 57 66 56 40 10 65 56 65 66 7 49 41 65 67 57 40 1 55 55 57 58 1 7 56 49 1 57 66 1 49 40 56 65 65 67 49 41 65 65 65 58 56 19 0 65
split_gain=0.131597 0.0931229 0.0745948 0.0223255 0.025382 0.0172075 0.0172039 0.0115833 0.01074 0.00903056 0.00739909 0.00647154 0.00609375 0.00556264 0.00520214 0.00323982 0.00319303 0.00276086 0.00255169 0.00228563 0.00223883 0.00220776 0.00221488 0.00208685 0.00203676 0.00202467 0.00201902 0.0018638 0.00186029 0.00181662 0.00155075 0.00150729 0.00150713 0.00149936 0.00149268 0.00143425 0.00141432 0.00126297 0.0012629 0.00119235 0.00111872 0.00107318 0.00106062 0.00114812 0.00139391 0.00102271 0.00101773 0.00101206 0.000979799 0.000931789 0.000924222 0.000914863 0.000909026 0.00100639 0.000908885 0.000847783 0.00362918 0.000831764 0.000821549 0.000849346 0.000817625 0.000794352 0.00101347 0.000792022 0.000774977 0.000821072 0.000768553 0.000926746 0.000756752 0.000796423 0.000756247 0.000750654 0.00074826 0.000729513 0.000699797 0.000687357 0.00067723 0.000665665 0.000661949 0.000657946 0.00064022 0.000632417 0.000628453 0.000626087 0.00081279 0.000614346 0.000584642 0.000580798 0.000978989 0.000580464 0.000557386 0.000551505 0.000537762 0.000531245 0.000530112 0.000528 0.000520492 0.000517279 0.000513041 0.000511214 0.000509493 0.000501672 0.000492778 0.000487597
threshold=0.20050000000000004 0.0032086380202526808 4.448500000000001 0.06950000000000002 2.6500000000014556 0.0074190431266278074 1.0000000180025095e-35 0.076500000000000012 2.4585000000000004 6.8499999999985457 2.3795000000000006 9.1669993528870129e-05 0.38350000000000006 0.021500000000000002 0.79999999999563454 0.23450000000000001 1.779652764314577 1.0000000180025095e-35 109054.85000000002 0.0056776140838029629 1.0000000180025095e-35 -1.0000000180025095e-35 109091.62500000001 10.049999999995636 7.9500000000043665 4.9755000000000011 0.0035000000000000005 3.4762681822254597e-05 4.2865000000000011 0.2932479395548882 0.61150000000000004 0.15171134213483042 1.1995000000000002 17.150000000001459 6.8499999999985457 0.00014389633231624759 -0.20293910972938931 0.27905862343505811 1.8545000000000003 2.5665000000000004 -3.5732217537326351e-05 0.0087042488648167004 4.7639660933858115e-05 0.0045000000000000014 0.0045000000000000014 1.0000000180025095e-35 7.7779247141934998e-05 1.1811957359734402 1.6095000000000004 1.8151836360566185 3.6670182420598849e-05 1.1445000000000003 4.7355000000000009 0.0021085335561620458 0.25887927565064028 1.0145000000000002 1.0185000000000002 109148.65000000001 1.7977788856387347 8.0700297907747431e-05 1.1176169392357986 0.00015832287646163051 11.400000000001457 109184.45000000001 0.27905862343505811 0.00012182379379021152 0.4307450111449867 2.1591524991250512 0.49450000000000005 0.46250000000000008 0.010900914806667827 0.38827884171473087 0.26369074419972155 6.5469739241984446e-05 13.900000000001457 4.2070000000000016 0.00013097750896746938 7.4227025190767298e-05 1.191701176379526e-05 5.3156316689411671e-05 0.0065000000000000014 0.47250000000000003 0.00014389633231624759 0.28250000000000008 0.015500000000000002 1.6501309791910884e-05 2.2443826858231177 1.5755000000000001 1.0285000000000002 1.0499999999956346 0.00016659870969245878 0.20504265984414269 0.4191020815957876 0.17415894218808028 3.5825000000000005 0.0052291203304427108 0.44377659114842871 0.26731473354719532 0.23595911736126246 2.7492391481789067e-05 8.4290747190691177e-05 0.012500000000000002 109104.45000000001 0.28652534494054754
decision_type=2 2 2 2 2 2 2 2 2 2 2 2 2 2 2 2 2 2 2 2 2 2 2 2 2 2 2 2 2 2 2 2 2 2 2 2 2 2 2 2 2 2 2 2 2 2 2 2 2 2 2 2 2 2 2 2 2 2 2 2 2 2 2 2 2 2 2 2 2 2 2 2 2 2 2 2 2 2 2 2 2 2 2 2 2 2 2 2 2 2 2 2 2 2 2 2 2 2 2 2 2 2 2 2
left_child=3 14 5 6 11 19 23 9 17 37 12 40 50 20 21 30 60 82 28 46 26 -2 72 95 97 34 -8 48 35 36 -14 54 47 79 103 73 -18 -6 78 81 -5 -33 43 70 -45 85 66 -21 86 -36 -7 -32 53 75 -30 68 90 102 -39 76 -12 62 92 -29 -49 -66 87 -68 69 80 -22 -51 91 74 -11 -16 96 -59 -26 -15 -19 -34 -9 84 -37 -25 -24 88 -3 -13 -57 -23 -31 -62 -40 -1 -60 -10 -38 -47 -99 -17 -50 -4
right_child=1 2 25 4 7 10 13 8 24 18 16 89 15 33 52 101 29 55 -20 32 42 22 27 45 38 -27 -28 63 31 61 51 41 39 -35 49 83 98 58 94 -41 -42 -43 -44 44 -46 99 -48 64 57 71 -52 -53 -54 -55 -56 56 -58 77 59 -61 93 -63 -64 -65 65 -67 67 -69 -70 -71 -72 -73 -74 -75 -76 -77 -78 -79 -80 -81 -82 -83 -84 -85 -86 -87 -88 -89 -90 -91 -92 -93 -94 -95 -96 -97 -98 100 -100 -101 -102 -103 -104 -105
leaf_value=0.00010788363225459712 0.00026468445891983101 -0.00014748478806343843 0.00014659001449794401 -0.00046073620751901667 0.00016502985794277438 -0.00036163150065291941 5.6169088633771923e-06 0.00013257755699447104 0.0001103991770527987 0.00034724212293681296 -0.00019740775935941354 5.030547868339588e-05 0.00031010134934948176 -0.00017869678889011108 -6.6704821538394134e-05 -0.00030358121866041647 -0.00059811183336397518 9.7151576039658998e-06 0.00024556490045730966 -0.00015826213869536593 -0.00012272991986114312 2.0902660526707587e-05 -2.165401535881817e-05 0.00049548378755335132 0.00062647166069660634 -0.00014457123962777674 0.00020812791511823993 3.3175621081401681e-05 0.00017055500602584402 -0.00044243306560173211 -0.00015769439229544797 0.000478626809084309 0.0001400057896467758 -0.00042270561705623017 0.0002790407510394852 0.00052336825333305253 -0.00025751287916627071 0.00022757726917513937 7.1119579049665104e-05 -0.00021350492157117383 -0.00015180896293565092 0.00061964819732421544 8.0672173601409821e-05 0.00018578425487226688 -9.6979403213475434e-05 0.00017212719788254743 2.3554233483248243e-06 -0.0002170648085508697 3.0083315542610849e-05 0.00040884993376687841 -0.00016880720075363717 0.00011526993083804482 0.00010364071357557992 -9.4750256827364333e-05 0.00045123901044396707 0.00029150240877868561 -0.00010821016354356645 3.8680234339557927e-05 0.00032686776881293644 2.2529719517425486e-05 -0.00025604643006634891 -3.0147552870132438e-05 -0.0005953805331512308 9.7846024488158786e-05 -0.00033386708780083681 -4.7309984037335839e-05 -0.00019272033972691995 -0.00036493228020566916 -0.00022995810415468138 0.0002584148396210831 -0.00035401236097874897 0.00059019148259460295 0.00015223138875649213 0.00016118562944992458 0.00047496577420895881 1.0184837791152596e-06 -2.4448252579536266e-05 -5.9556198377890907e-05 0.00038590227274131443 -1.1208875100206453e-05 -0.00022767022398049154 -0.00020665378590281895 0.00034644322483165784 0.00058872896434235429 0.00010927805417491632 0.00030302067769530746 -0.0001132448597325075 -0.00016826081652014961 8.2200157267596263e-05 0.00012569485448820435 0.00071924775522898548 8.2860579536535124e-05 -0.00053133438741048288 -0.0003887937036090326 0.00038611786448161276 0.00022906070951540219 0.00046646235832156915 0.00021320791579143819 -0.0003888588428415895 0.00041539033926585767 0.00037811806792649764 9.6182506430424487e-05 -2.7456748387887787e-05 0.00031428812758448938
leaf_weight=360 234 382 146 82 761 1188 651 280 119 989 272 950 120 876 1605 229 130 160 383 376 278 1235 1200 283 222 47 518 3355 97 1101 140 607 116 136 166 82 349 861 48 290 423 660 263 142 364 190 203 555 1134 314 166 148 219 2291 223 119 336 4611 707 50 250 21 533 1658 1482 61 883 231 200 45 118 233 644 96 337 1939 28 443 96 163 114 42 113 289 42 148 619 3242 152 1617 21 2644 625 602 90 508 201 235 348 69 206 20 3776 334
leaf_count=360 234 382 146 82 761 1188 651 280 119 989 272 950 120 876 1605 229 130 160 383 376 278 1235 1200 283 222 47 518 3355 97 1101 140 607 116 136 166 82 349 861 48 290 423 660 263 142 364 190 203 555 1134 314 166 148 219 2291 223 119 336 4611 707 50 250 21 533 1658 1482 61 883 231 200 45 118 233 644 96 337 1939 28 443 96 163 114 42 113 289 42 148 619 3242 152 1617 21 2644 625 602 90 508 201 235 348 69 206 20 3776 334
internal_value=-4.93956e-13 -7.10656e-05 -0.000221235 0.000180657 0.000237998 -0.000270763 4.6113e-05 0.000304017 0.000160717 0.000357735 -0.000366057 4.85167e-05 -0.000245172 -4.78715e-05 1.3231e-05 -5.38836e-05 -0.000423513 2.2292e-05 0.000432937 -0.00019655 2.05108e-05 3.08416e-05 2.8275e-05 0.000257789 0.000349824 0.000348221 9.53523e-05 1.54715e-05 0.000453908 -0.000463509 7.89091e-05 0.000514596 -0.000250517 -0.000183705 0.000367635 0.000401421 -0.000366323 0.000248017 0.000469929 -0.000121329 -0.000201971 0.000552087 -5.45878e-05 -9.40261e-05 -1.76268e-05 0.000357152 -0.000165588 -0.00027391 -1.16052e-06 0.000437888 -0.000337991 -1.74211e-05 -4.94651e-05 -5.52115e-05 0.000366157 -4.55563e-05 2.82235e-05 8.27067e-06 0.000282209 0.000329915 -0.000312954 -0.00049876 -0.000503117 5.45647e-05 -0.000294637 -0.000322539 -0.00017256 -0.00022843 -0.000113223 -4.00355e-05 -0.000191647 0.000486094 7.58203e-05 0.000364951 0.000379703 -2.96519e-05 0.000346335 3.00695e-05 0.000553847 -0.000152421 -8.9051e-05 4.78558e-05 0.000194071 0.000526994 0.000383112 0.000429394 -5.28221e-05 -0.000156077 -8.21063e-05 9.77946e-05 0.000355664 6.31344e-05 -0.000474625 -0.000349842 0.000276553 0.000178803 0.000357769 0.000252024 -0.000323092 0.000236935 0.000290241 -0.000271472 -1.41675e-05 0.00026328
internal_weight=60060 43104 15497 16956 11889 14257 5067 8817 2404 6413 6242 3072 2011 3509 27607 657 4231 1388 3805 8015 2334 21553 21319 1558 1016 1240 1169 16796 3422 3107 408 1587 2922 1175 1193 1835 827 2608 456 448 505 1267 1165 902 506 690 5093 2474 11783 713 1354 288 6054 5835 320 995 476 9964 1847 986 1124 2280 2259 5013 2098 1543 4890 1114 519 319 396 547 4523 1422 1326 3544 936 5054 318 1039 274 158 393 413 124 431 1819 3776 534 2567 140 3879 1726 852 138 868 908 560 697 259 441 249 4910 480
internal_count=60060 43104 15497 16956 11889 14257 5067 8817 2404 6413 6242 3072 2011 3509 27607 657 4231 1388 3805 8015 2334 21553 21319 1558 1016 1240 1169 16796 3422 3107 408 1587 2922 1175 1193 1835 827 2608 456 448 505 1267 1165 902 506 690 5093 2474 11783 713 1354 288 6054 5835 320 995 476 9964 1847 986 1124 2280 2259 5013 2098 1543 4890 1114 519 319 396 547 4523 1422 1326 3544 936 5054 318 1039 274 158 393 413 124 431 1819 3776 534 2567 140 3879 1726 852 138 868 908 560 697 259 441 249 4910 480
is_linear=0
shrinkage=0.0765467


Tree=3
num_leaves=105
num_cat=0
split_feature=1 61 3 3 61 1 41 41 3 1 1 3 3 40 57 40 66 3 1 41 61 41 48 50 3 1 61 3 65 42 65 65 1 66 66 51 50 41 40 66 66 61 57 55 16 40 41 3 4 65 61 41 3 55 49 66 40 66 66 2 65 57 2 3 65 65 40 48 12 66 67 40 40 14 48 55 65 57 48 65 3 65 1 45 66 14 12 49 49 67 42 40 57 67 68 66 65 66 67 44 1 66 20 41
split_gain=0.112307 0.082225 0.0619393 0.0426735 0.0312912 0.0202296 0.0150557 0.00863021 0.00590175 0.00873519 0.00508976 0.00651102 0.004875 0.00444308 0.00437932 0.00289204 0.00272427 0.0026182 0.00307266 0.00293757 0.00261664 0.00228941 0.00220072 0.00205966 0.00200654 0.00250239 0.00212052 0.00178803 0.00168859 0.00141293 0.00136527 0.00130313 0.00122467 0.00120192 0.00118402 0.00118319 0.00116423 0.00116387 0.00109484 0.00108329 0.00106365 0.00106087 0.00103752 0.00103488 0.0010205 0.000944307 0.0009415 0.000893081 0.00086566 0.000849299 0.000832588 0.000823951 0.000819631 0.000812204 0.000798526 0.000767149 0.000734634 0.00071153 0.000705792 0.000698433 0.000671265 0.000661694 0.00064308 0.000634981 0.000629446 0.000601019 0.00059207 0.000589149 0.000584476 0.000577526 0.000566983 0.000627897 0.000566647 0.00054645 0.000545926 0.000545125 0.000544462 0.000518291 0.000517763 0.000516434 0.000513844 0.000504184 0.000490604 0.000486271 0.000485869 0.000482998 0.00048032 0.000473685 0.000546335 0.000458938 0.000456668 0.000452942 0.000442118 0.000436553 0.000433126 0.000417461 0.000416668 0.000414721 0.000421724 0.000412274 0.000410736 0.000403059 0.000399093 0.000396598
threshold=0.27650000000000008 0.99680163171610603 2.8795000000000006 0.025500000000000005 0.99507449372174339 1.0000000180025095e-35 0.0074190431266278074 9.1669993528870129e-05 1.0000000180025095e-35 0.0045000000000000014 2.3425000000000007 0.37450000000000006 1.0000000180025095e-35 0.84999999999854492 1.8335007166699783e-05 13.650000000001457 1.396012604367648 0.21850000000000003 0.029500000000000002 0.00687212172637336 0.98886051691723786 0.0022893447941029388 4.0760000000000014 5.1145000000000005 0.58150000000000002 2.2625000000000006 0.99516992081854638 1.5915000000000001 0.2932479395548882 109101.27500000001 0.32380248540059181 -0.20293910972938931 0.61150000000000004 2.1795322339823544 1.5821635600344155 0.18950000000000003 11.429000000000002 9.174055221259027e-05 7.7000000000043665 2.2672356954505104 1.7706814858436251 1.001652413074291 6.0342305641963147e-05 0.00016318680077164201 109052.25000000001 14.549999999995636 0.0052291203304427108 1.9345000000000001 109088.65000000001 0.44377659114842871 1.0030337267692109 0.0021062849714085824 0.0035000000000000005 0.00015764706259761773 3.4720000000000004 1.8832348062792728 11.400000000001457 1.7015275700944856 3.5797150066201353 109187.75000000001 0.39847473561851016 8.339542168360997e-05 109102.95000000001 4.7185000000000015 0.35950800215163364 0.24103654102332653 17.650000000001459 4.2455000000000007 109073.55000000002 3.0522038954943951 0.23815899648781766 17.150000000001459 1.0499999999956346 109009.05000000002 0.0015000000000000002 9.340922375616598e-05 0.39847473561851016 0.00011890291078735162 0.08950000000000001 0.41395652185134918 1.1425000000000003 0.27905862343505811 0.010500000000000001 0.99133260087706954 1.8642192949819267 109009.05000000002 109088.75000000001 16.144000000000002 12.506500000000003 0.15255994491895122 109082.77500000001 7.4500000000043665 8.4393450325063701e-05 0.13481679625259024 2.6602778329959929 2.5012193709068087 0.23595911736126246 2.0246177359263036 0.23615295070397122 109095.95612555261 1.0015000000000003 1.4252141977277788 109076.25000000001 0.0060404269300725942
decision_type=2 2 2 2 2 2 2 2 2 2 2 2 2 2 2 2 2 2 2 2 2 2 2 2 2 2 2 2 2 2 2 2 2 2 2 2 2 2 2 2 2 2 2 2 2 2 2 2 2 2 2 2 2 2 2 2 2 2 2 2 2 2 2 2 2 2 2 2 2 2 2 2 2 2 2 2 2 2 2 2 2 2 2 2 2 2 2 2 2 2 2 2 2 2 2 2 2 2 2 2 2 2 2 2
left_child=3 2 6 5 14 12 24 41 15 52 11 53 -1 22 17 38 -12 18 45 81 68 72 61 30 26 100 34 37 31 58 -4 -18 -13 70 -2 82 59 39 -7 50 -32 -6 44 73 57 -5 -22 51 55 77 -24 67 74 85 -35 -23 -30 -37 64 87 -50 95 -53 -42 -29 -28 -54 94 -14 96 71 -21 -9 90 -10 -61 89 83 -45 93 -34 -19 -16 103 -66 -8 -40 88 -31 -56 -11 -65 -67 -59 -15 -3 -33 -64 -99 -58 -26 -83 -44 -36
right_child=1 13 23 4 7 8 10 21 9 43 16 32 20 47 35 -17 28 19 -20 33 46 48 27 -25 25 -27 65 29 56 36 40 69 80 54 49 42 -38 -39 86 -41 63 -43 102 78 -46 -47 -48 -49 60 -51 -52 62 66 -55 76 -57 99 79 -60 75 -62 -63 97 91 84 92 -68 -69 -70 -71 -72 -73 -74 -75 -76 -77 -78 -79 -80 -81 -82 101 -84 -85 -86 -87 -88 -89 -90 -91 -92 -93 -94 -95 -96 -97 -98 98 -100 -101 -102 -103 -104 -105
leaf_value=4.1023928908626664e-05 -0.00018403684013052729 1.3355968716379668e-05 0.00021510323127358198 0.0002978858880340139 -0.00010414760680408576 -8.1719967703427557e-05 -0.00031841021458627955 4.4972083651824897e-05 0.00015407195269666316 -3.7552330348224655e-05 -0.000235026237522402 0.00025904110167144687 0.0005707095731472473 -5.6049407411058393e-05 0.0001882868362257772 -0.00041877091833619214 -0.00051319534181304622 0.00021502774944953342 2.4331232953296343e-05 0.00035400689065150667 0.00011476738573387863 0.0001948076425636572 7.4903395107740197e-05 -0.00012136133676198925 0.00015788360964544043 -0.00016384800449657403 -8.5562172278105388e-05 3.9014105265598182e-05 -0.00042600605803249378 2.7355679919196047e-05 0.00025039929326083971 -0.00017414932586574055 -0.00012900892773968071 0.00045102556877527652 -0.00022604652733027448 0.00026523276431764114 -2.4713090755584605e-05 3.4721754902002253e-05 -0.00019565166382892992 0.00021154550371023145 0.00020965848795947254 -0.0003317729296144498 0.00019712983602949782 -0.00020582075061672321 0.000233228728775049 0.00050673356983033937 0.00029625244472745354 7.324062094725047e-05 0.00013351024227184399 -0.00037560333841181362 0.00032703918840180696 -2.6211177174337024e-05 0.00016487686100894724 -0.00045169052787169664 0.00039587892727637451 0.0003658576987109375 -0.00035106363257339615 0.00022767087205270427 0.00021623712413915532 8.0064221130176098e-05 0.00023377061792800933 -6.6961944300135195e-05 -8.485673666400443e-05 0.00037345901874209325 7.2344950615927918e-05 -0.00015934138894997473 0.00044705934969257506 3.6785429581733191e-07 0.00031248239196215668 -0.00037249830547703367 0.00049037479153049362 0.00063259984318968362 0.00012091361633438831 -7.4321813611485986e-05 2.1849796364909672e-05 -0.00016242971071184258 0.0006419942444766541 -0.00060585793246324573 -0.00050718390541708693 0.00051692115278905511 7.6687973161068093e-05 0.00023873276077451602 -4.1240507298841449e-05 -0.00013824460018030377 0.00017361369232106333 -0.00020533626401067522 -0.0003543390078070275 7.5009092407963551e-05 -4.0268812777894211e-05 0.0005560973342204048 -0.00021671122417453814 0.00052902396952680204 -0.0002809658797703257 0.00040537920908553343 -0.00024405217292146447 -3.6173064564337493e-05 -0.00031407037188881624 -0.0001299704137000194 -0.00028047562802842308 -0.00054347076643513064 -5.5495772374187821e-06 0.0003809861795848073 -0.00012746555928910141 -0.00029675742155615308
leaf_weight=606 1433 4067 432 363 368 529 935 957 277 97 558 104 220 1300 294 334 187 229 205 672 242 328 1196 64 169 1009 633 2282 2054 1904 239 271 177 623 951 274 2979 1134 539 665 60 178 295 59 476 195 544 341 1101 387 82 678 393 219 136 289 74 101 185 1809 607 987 1026 170 815 1800 49 1767 67 302 368 51 1445 352 539 56 330 24 77 194 119 153 67 212 421 290 141 640 1107 456 593 309 194 409 76 1321 231 482 141 552 193 492 24 909
leaf_count=606 1433 4067 432 363 368 529 935 957 277 97 558 104 220 1300 294 334 187 229 205 672 242 328 1196 64 169 1009 633 2282 2054 1904 239 271 177 623 951 274 2979 1134 539 665 60 178 295 59 476 195 544 341 1101 387 82 678 393 219 136 289 74 101 185 1809 607 987 1026 170 815 1800 49 1767 67 302 368 51 1445 352 539 56 330 24 77 194 119 153 67 212 421 290 141 640 1107 456 593 309 194 409 76 1321 231 482 141 552 193 492 24 909
internal_value=-2.24947e-13 -6.66823e-05 -0.000209135 0.00016431 0.000247892 -8.23297e-06 -0.000255676 0.000109786 -0.000102254 -2.80594e-05 -0.000346335 -0.000240211 0.000214585 1.24832e-05 0.000361555 -0.000219389 -0.000392609 0.000406278 0.000277763 0.000434214 0.000312607 0.000143068 2.84349e-05 0.000301836 -0.000186107 -0.000101905 -0.00020375 4.42012e-05 -0.000416562 3.10477e-05 0.00032422 -0.000331187 3.30789e-05 0.000474537 -0.000239442 0.000272004 1.38474e-05 9.63451e-05 -0.000164308 0.000132311 0.000384809 -0.000178355 0.000297723 -0.000177852 0.00032515 0.00037087 0.000240375 -4.69479e-05 0.000197214 -0.000271418 9.10811e-05 -5.44404e-05 0.000112208 -0.000315915 0.000517972 0.000274927 -0.000448131 0.000369889 7.05068e-05 3.46725e-05 0.000169141 -9.34233e-06 -8.89673e-05 0.000444408 6.28433e-05 -0.000150545 0.00019616 -2.88776e-05 0.000510427 -0.000288855 0.000413028 0.000373659 9.06571e-05 -0.000151932 6.6734e-05 7.27829e-05 0.000563208 -0.000252181 -0.000376445 0.000410622 -4.63132e-05 0.0003126 0.000145688 -0.000248084 0.000106839 -0.000291642 -0.000228556 1.5205e-05 2.4934e-06 0.00051929 -0.000191525 0.000473813 -0.000171174 0.000370186 -6.64333e-05 1.21271e-06 -0.000238535 -0.00011477 -0.000164033 -0.000520726 7.07493e-05 0.000347242 0.000172709 -0.000260604
internal_weight=60060 42722 15261 17338 11680 5658 13987 5273 3979 2436 6073 1844 1679 27461 6407 1543 4229 4273 763 3510 1073 4727 21650 1274 7914 1371 6543 15275 3671 12198 1210 991 400 2636 3916 2134 8495 3077 1209 1943 778 546 1773 1178 1454 558 786 5811 2325 2483 1278 5470 1258 1444 1545 617 2680 978 3703 5516 1708 6375 2327 539 3518 2627 442 3143 287 804 1091 723 2402 1042 816 1865 922 2096 136 704 296 874 361 2072 1236 1225 680 3651 3011 592 690 479 1994 510 1376 5388 502 1649 623 626 362 645 319 1860
internal_count=60060 42722 15261 17338 11680 5658 13987 5273 3979 2436 6073 1844 1679 27461 6407 1543 4229 4273 763 3510 1073 4727 21650 1274 7914 1371 6543 15275 3671 12198 1210 991 400 2636 3916 2134 8495 3077 1209 1943 778 546 1773 1178 1454 558 786 5811 2325 2483 1278 5470 1258 1444 1545 617 2680 978 3703 5516 1708 6375 2327 539 3518 2627 442 3143 287 804 1091 723 2402 1042 816 1865 922 2096 136 704 296 874 361 2072 1236 1225 680 3651 3011 592 690 479 1994 510 1376 5388 502 1649 623 626 362 645 319 1860
is_linear=0
shrinkage=0.0765467


Tree=4
num_leaves=105
num_cat=0
split_feature=1 61 3 3 61 1 41 41 3 1 3 3 1 3 1 61 50 40 41 66 41 61 3 56 50 40 3 65 40 65 61 55 41 50 58 65 61 1 41 66 56 67 61 65 3 66 66 20 56 66 58 41 41 58 67 66 50 65 56 42 1 44 58 65 61 65 65 3 40 1 65 58 48 67 55 67 67 65 65 12 65 55 56 68 40 50 2 55 50 8 2 40 49 40 40 45 66 68 40 55 55 1 41 68
split_gain=0.0957773 0.0679144 0.0581128 0.0344854 0.0245599 0.0161072 0.0134152 0.00730508 0.0048946 0.00465459 0.00587095 0.00454967 0.00608641 0.00409569 0.00350254 0.0033929 0.00319047 0.00314384 0.00246523 0.00235689 0.00204408 0.0020231 0.00189585 0.00185437 0.00184913 0.00184506 0.00151203 0.00148237 0.00139657 0.00122547 0.00118903 0.0011469 0.00101459 0.00112333 0.00100662 0.000975126 0.00095539 0.000947188 0.000934425 0.000961904 0.000894061 0.000879171 0.00086784 0.000851962 0.00080931 0.000851725 0.000791669 0.000782015 0.000768239 0.000866526 0.000764417 0.000764284 0.000753754 0.000716473 0.000688483 0.000688423 0.000675316 0.000674856 0.000665844 0.00066304 0.000657484 0.000652092 0.000700353 0.000641833 0.000637934 0.000620883 0.000616899 0.000611608 0.000606891 0.000590874 0.000577795 0.00056783 0.000566287 0.000561819 0.000534191 0.00053158 0.000525624 0.000521637 0.000517377 0.000513664 0.000503917 0.000496504 0.000485014 0.000478192 0.000474058 0.000471 0.000469377 0.000468992 0.000467494 0.000461025 0.00045458 0.000453712 0.00044622 0.00044385 0.000442422 0.00044208 0.000441971 0.00044009 0.00043876 0.000435743 0.000428223 0.00042434 0.000423788 0.000422036
threshold=0.20050000000000004 0.99698466427629684 2.5605000000000007 0.011500000000000002 0.99507449372174339 1.0000000180025095e-35 0.0074190431266278074 0.00018306476969253584 0.097500000000000017 2.0885000000000002 0.45850000000000007 1.0000000180025095e-35 0.0045000000000000014 1.0000000180025095e-35 0.029500000000000002 0.99244902981397154 5.1145000000000005 0.79999999999563454 0.0086153050895748009 1.779652764314577 0.0056838991181232439 0.98886051691723786 4.2765000000000013 0.00014205723627606519 5.2035000000000009 2.6500000000014556 1.5915000000000001 0.4191020815957876 8.2000000000043674 0.25887927565064028 0.98679702046645146 0.00014017288447187214 9.1658146270630708e-05 11.429000000000002 8.1542079837218108e-05 0.26283203867982602 1.0046028225032135 0.57450000000000012 -0.0024750920966702165 1.9033139856807522 0.00012275480097261797 0.16492924278096863 0.98706749006439176 0.26932685618899127 1.0415000000000003 1.0179556023306913 1.6545051176407757 109052.65000000001 2.1989369056962866e-05 2.5272170574255299 3.5760787953255767e-05 0.00036628158309794302 0.0060404269300725942 1.9214044917852955e-05 0.172698938366974 3.5797150066201353 2.8165000000000009 0.27905862343505811 8.0659131759891681e-05 109349.07500000003 0.0015000000000000002 109104.83354350134 7.956013305878463e-05 0.26932685618899127 0.98939693961184461 0.2650192564522334 -0.42951951088760976 1.9345000000000001 1.9500000000043658 0.044500000000000005 0.32898804006990295 0.0001088738102340356 2.0595000000000003 0.20937333331684349 0.00011915384273444251 0.25552421134480824 0.27146592922886087 0.35950800215163364 -0.20293910972938931 109020.75000000001 -0.027551280002012634 8.6078181894494541e-05 0.00013466033305299151 2.0006022757565289 17.450000000004369 3.5625000000000004 109187.75000000001 0.00011266769625644929 3.4925000000000002 109093.85000000002 109315.35000000002 3.450000000004366 16.144000000000002 9.400000000001457 1.0499999999956346 0.93569065343258895 2.4096641829228123 0.88111203450037234 18.900000000001459 0.00015124439765572281 0.00013097750896746938 1.2055000000000002 0.010083135451802212 1.1397361461355866
decision_type=2 2 2 2 2 2 2 2 2 2 2 2 2 2 2 2 2 2 2 2 2 2 2 2 2 2 2 2 2 2 2 2 2 2 2 2 2 2 2 2 2 2 2 2 2 2 2 2 2 2 2 2 2 2 2 2 2 2 2 2 2 2 2 2 2 2 2 2 2 2 2 2 2 2 2 2 2 2 2 2 2 2 2 2 2 2 2 2 2 2 2 2 2 2 2 2 2 2 2 2 2 2 2 2
left_child=3 2 6 5 8 13 20 36 14 10 50 18 60 -1 30 22 28 24 91 73 43 -15 23 47 48 94 38 41 65 80 -5 -14 33 86 44 54 -6 -12 -26 -40 57 -21 -20 66 45 -22 -45 84 49 -3 99 76 -23 93 -24 77 -46 -27 89 67 -13 -48 75 78 95 -4 -2 68 83 -44 -30 -42 -67 -11 79 -63 -41 -34 -47 -59 -17 -50 96 -19 87 -70 92 -10 -55 100 101 -7 -28 -43 -9 -37 -65 -75 -33 -8 -31 -72 -29 -77
right_child=1 17 16 4 7 11 9 25 15 19 37 12 31 21 -16 29 -18 59 42 27 34 52 35 -25 26 40 32 102 70 58 -32 98 55 -35 -36 64 -38 -39 39 51 71 53 69 46 56 63 61 -49 81 -51 -52 -53 -54 88 -56 -57 -58 74 -60 -61 -62 62 -64 82 -66 72 -68 -69 85 -71 90 -73 -74 97 -76 103 -78 -79 -80 -81 -82 -83 -84 -85 -86 -87 -88 -89 -90 -91 -92 -93 -94 -95 -96 -97 -98 -99 -100 -101 -102 -103 -104 -105
leaf_value=3.7883683433458816e-05 -0.00018285069133577695 -3.1484472931464674e-06 0.00011739525848923389 0.00039241166304475751 -0.00012664167536545652 2.4975095332139502e-05 -0.00028196888131600217 4.5973497671117162e-05 0.00036715544280444738 -0.00021416732051463626 0.00025186505415764439 0.00014046345805139533 -0.00012287155408752769 0.00048261353289989338 -7.6360602951336368e-05 0.00029119479844660337 -0.00016378694915216669 -1.7693514287609347e-06 -0.00040405359319945394 -0.00029736001662887421 -0.00010467575644137313 0.00013071139715530698 0.0001936477233655865 0.00047800084627953909 0.00029569922804771847 0.00010246063779338248 8.0517650843550225e-06 -0.00044299822455452624 0.00029060604917889533 0.00033443342689666833 0.0001996957059515469 -0.0002816077211452432 3.368023871377227e-05 -2.2745908963714511e-05 0.00026029935772815224 0.00061685040401353493 -0.00044168808650945008 -1.9273898099340644e-05 4.1932274073162133e-05 0.00014081156232211174 0.00029226978655982314 -0.00034283399102289142 -0.00028556003264156011 -0.00012297142636370659 8.5795055078337928e-05 -0.00032407052271361862 -0.00011904941382271068 0.00013022235285886001 4.016784191798039e-05 -7.6362531187945163e-05 -0.00014687325311871593 -1.3816248719448216e-06 0.00028970473849406132 -2.3804326878791878e-05 0.0004398210600343306 0.00020846971708232388 -0.00018408018728549634 0.00024846718632226181 0.00038067270866477837 -0.00021999969169248805 2.1135096583520695e-05 -0.00020187406970197553 3.5222030182873767e-05 -0.00025465681874582106 0.00046673915977094336 0.00030925231051568406 -6.9581019222785198e-05 6.437691808928085e-05 -0.00011537413024535881 -0.00010215176754983725 0.00054965844853339474 0.00067379633147084637 0.00011487655707788427 -0.0002079898787603419 2.3894689140503481e-05 -0.00022688906721571675 0.00031922756103392944 9.6491908194808808e-05 -0.00014256766379511088 0.0001517307221013123 0.00012481529884191293 -8.8627362497760748e-05 7.8496216559008751e-05 -9.5042994238007396e-05 0.00047794962958973855 -4.4695572773014359e-05 7.127887302923898e-05 0.00026657110436229214 -0.0003204675656834608 0.00020678896718811363 0.00024567190801812899 -0.00012765978294038328 9.0602442313611028e-05 -0.00044503825956958168 0.00011305499245645154 0.00026899161087343956 -0.00033718154151836382 -0.00036290233752305303 -0.00060758306306378529 -0.00039333168028765159 0.00011469018223902773 0.00036490999801534524 -0.00055679011794488133 -0.00039436598110587551
leaf_weight=606 365 3676 196 256 475 142 1019 906 489 580 111 700 781 243 239 154 92 2245 272 780 243 286 109 515 126 572 2637 570 212 588 702 178 2213 2969 25 309 64 236 1531 929 96 334 374 1750 81 118 547 132 2279 1276 210 208 449 37 171 182 165 865 557 115 441 1275 63 1097 809 490 1235 345 821 142 205 30 107 146 94 182 108 1192 418 512 347 190 22 376 110 1689 1588 611 196 359 55 581 449 978 1582 23 582 407 28 258 57 113 289 171
leaf_count=606 365 3676 196 256 475 142 1019 906 489 580 111 700 781 243 239 154 92 2245 272 780 243 286 109 515 126 572 2637 570 212 588 702 178 2213 2969 25 309 64 236 1531 929 96 334 374 1750 81 118 547 132 2279 1276 210 208 449 37 171 182 165 865 557 115 441 1275 63 1097 809 490 1235 345 821 142 205 30 107 146 94 182 108 1192 418 512 347 190 22 376 110 1689 1588 611 196 359 55 581 449 978 1582 23 582 407 28 258 57 113 289 171
internal_value=-4.63808e-13 -6.06273e-05 -0.000185933 0.000154121 0.000226956 -9.49534e-06 -0.000232456 0.000102736 0.000325693 -0.000318214 -0.000216053 -9.81829e-05 -2.60602e-05 0.000194251 0.000185792 0.000357053 0.000272654 1.30491e-05 -0.000199756 -0.000361615 -0.000169199 0.000291141 0.000405446 0.000354522 2.63173e-05 0.000133614 4.25647e-05 -0.000395354 0.000301793 0.000280122 0.000251194 -0.000165249 2.98366e-05 1.40745e-05 -0.000223212 0.000471993 -0.00016405 6.74593e-05 9.18193e-05 8.25654e-05 0.000185217 -0.000363607 -0.000293411 -0.000142608 -0.000227647 -0.000240783 -0.00016154 0.000307137 -4.62323e-06 -2.20138e-05 -0.000282212 0.000132533 0.000227838 -0.000397053 0.000343989 6.34219e-05 -9.52188e-05 0.000173012 0.000313553 -3.8099e-05 9.43427e-05 -0.000191698 -0.000215199 -0.000255568 0.000503405 0.000235605 -9.54207e-05 -3.42789e-05 -4.09124e-05 -0.000235087 0.000391513 0.000383109 0.000274414 -0.0002668 0.000200446 -0.000224889 0.000159393 5.56689e-05 -0.000182525 0.000212498 0.000175958 3.02565e-05 -0.000278584 -1.51501e-05 0.000326437 -6.78139e-05 3.74634e-05 0.000311285 -0.000273358 0.000276316 0.000448865 -9.76817e-05 2.00625e-05 -0.00041902 8.86274e-05 0.000592752 -0.000283263 -0.000322003 -0.000325915 -0.000304468 0.000315014 0.000484009 -0.000481282 -0.000308018
internal_weight=60060 43104 15960 16956 11733 5223 14490 5196 6537 6151 1834 3639 2128 1584 1197 5340 1470 27144 1511 4317 8339 978 3278 1857 21553 4657 14132 3184 1378 2062 958 987 11230 7643 2751 1421 539 347 2902 2776 2169 2325 788 5588 2726 2480 3988 1342 7421 4952 1487 1245 735 1545 280 3587 246 2043 1561 5591 1141 2238 1691 2237 1141 793 1600 5476 5131 516 585 126 597 1133 1471 1628 1037 3405 536 1377 501 2469 1701 2621 1210 2510 4674 1100 233 1004 373 723 3086 1312 2488 332 1679 553 206 1277 645 318 859 353
internal_count=60060 43104 15960 16956 11733 5223 14490 5196 6537 6151 1834 3639 2128 1584 1197 5340 1470 27144 1511 4317 8339 978 3278 1857 21553 4657 14132 3184 1378 2062 958 987 11230 7643 2751 1421 539 347 2902 2776 2169 2325 788 5588 2726 2480 3988 1342 7421 4952 1487 1245 735 1545 280 3587 246 2043 1561 5591 1141 2238 1691 2237 1141 793 1600 5476 5131 516 585 126 597 1133 1471 1628 1037 3405 536 1377 501 2469 1701 2621 1210 2510 4674 1100 233 1004 373 723 3086 1312 2488 332 1679 553 206 1277 645 318 859 353
is_linear=0
shrinkage=0.0765467


Tree=5
num_leaves=105
num_cat=0
split_feature=1 61 49 49 40 61 1 7 49 52 1 1 61 49 40 61 1 49 50 40 7 7 1 61 65 49 56 55 40 65 65 56 49 7 67 57 58 56 40 65 58 58 48 49 49 7 2 65 65 56 49 43 57 14 12 58 49 49 56 57 2 42 42 67 14 55 67 57 40 65 55 48 50 7 4 2 49 7 1 56 52 52 48 56 56 14 68 65 1 49 2 49 56 58 49 55 14 2 42 58 48 55 52 57
split_gain=0.081737 0.0598926 0.0420404 0.0147421 0.0163794 0.0119006 0.0112992 0.0086832 0.00814552 0.00505514 0.00407947 0.00404792 0.00380675 0.00323344 0.00272034 0.00202719 0.0018488 0.00184663 0.00155563 0.00140023 0.00138861 0.00136115 0.00130722 0.00130649 0.00130476 0.00125951 0.00125062 0.00117095 0.00110051 0.00110009 0.00109759 0.00107125 0.00104319 0.00100384 0.000951193 0.000922636 0.000856692 0.000836578 0.000830309 0.000820315 0.000806317 0.000790118 0.000788847 0.000854948 0.000732525 0.000913169 0.0007192 0.000716664 0.000693796 0.000690755 0.000641127 0.000634185 0.000633615 0.000626476 0.000625971 0.000614278 0.000611431 0.000600726 0.000594801 0.000593957 0.000581971 0.000637341 0.000578386 0.000560984 0.000560879 0.000551264 0.00055771 0.000543505 0.000538766 0.000538263 0.000535918 0.000535777 0.000535629 0.000528294 0.000524802 0.000522721 0.000514346 0.00227477 0.000603428 0.000512919 0.000493609 0.000478691 0.000463294 0.000455631 0.000454879 0.000454525 0.000445977 0.00043889 0.000429186 0.000476866 0.000428679 0.000426691 0.000424391 0.000453331 0.000421745 0.000414438 0.000408061 0.000400688 0.00039849 0.000391825 0.000390659 0.000389116 0.000387945 0.000386691
threshold=0.27650000000000008 0.99698466427629684 4.7355000000000009 0.06950000000000002 3.8499999999985453 0.99226931522957107 1.0000000180025095e-35 0.070500000000000021 2.3905000000000007 9.1669951511950807e-07 0.021500000000000002 2.0175000000000005 0.99308197225683803 0.38350000000000006 0.79999999999563454 0.99417338548113421 1.0000000180025095e-35 3.8130000000000006 3.8865000000000003 14.150000000001457 0.16450000000000004 1.0000000180025095e-35 1.4425000000000001 1.001652413074291 0.26932685618899127 0.0035000000000000005 0.00012723671154602498 0.00016318680077164201 8.0999999999985466 -0.42951951088760976 0.32380248540059181 2.6562608411467153e-05 1.0005000000000004 1.8545000000000003 0.23514620126777788 2.6508650782451942e-05 8.5247936300760968e-05 -1.4662998476621338e-05 2.1500000000014556 0.29482948400208636 3.7579151087094232e-05 4.7639660933858115e-05 2.0595000000000003 8.8515000000000033 0.0045000000000000014 0.0055000000000000005 109093.25000000001 0.26932685618899127 0.26283203867982602 0.00014052907585319243 1.1625000000000003 109091.30020969163 8.339542168360997e-05 109009.05000000002 109083.85000000002 3.6670182420598849e-05 1.8305000000000002 0.47550000000000009 0.00012372233776625715 0.00010705413559384576 109110.65000000001 109150.07500000003 109349.07500000003 0.25894896595369216 109041.90000000001 0.00010626092094325787 0.15773807167481499 1.191701176379526e-05 14.849999999998547 -0.42951951088760976 0.00010069523193222138 0.08950000000000001 0.55750000000000022 0.47250000000000003 109092.35000000002 109091.75000000001 1.0625000000000002 1.0455000000000003 0.0035000000000000005 0.00012275480097261797 0.00010900320689331826 6.8718856042015501e-05 12.248500000000002 8.8008155422340933e-05 0.00016659870969245878 109146.25000000001 1.0214073044050949 -0.46320571733687049 1.0435000000000001 2.3235000000000006 109105.05000000002 3.5825000000000005 0.00014389633231624759 1.0997969499941882e-05 0.0075000000000000006 0.00013469046961846049 109090.55000000002 109408.35000000002 109151.57500000003 0.00010172212822435546 26.185500000000001 0.00012918422908155257 5.228983615520014e-05 1.9234970275092001e-05
decision_type=2 2 2 2 2 2 2 2 2 2 2 2 2 2 2 2 2 2 2 2 2 2 2 2 2 2 2 2 2 2 2 2 2 2 2 2 2 2 2 2 2 2 2 2 2 2 2 2 2 2 2 2 2 2 2 2 2 2 2 2 2 2 2 2 2 2 2 2 2 2 2 2 2 2 2 2 2 2 2 2 2 2 2 2 2 2 2 2 2 2 2 2 2 2 2 2 2 2 2 2 2 2 2 2
left_child=3 2 5 6 9 11 19 12 16 37 21 13 17 55 18 22 92 26 52 49 50 25 32 31 29 -8 35 53 -10 -13 -4 46 95 67 48 68 47 -5 -11 87 54 44 81 -44 64 94 -20 69 -19 102 -15 75 99 -12 57 -2 -48 -14 85 72 -16 -62 -63 84 80 66 -33 -30 -6 -17 -59 -29 -49 -34 -50 -18 78 -78 -53 -40 -23 -32 -58 97 -26 -41 -65 -24 -52 -90 96 -35 93 -9 -46 -7 -74 100 -92 -3 -68 -89 -1 -27
right_child=1 14 30 4 7 15 10 8 28 38 27 24 40 20 60 36 51 34 23 -21 -22 41 39 -25 63 103 -28 71 33 -31 42 65 73 91 -36 -37 -38 -39 79 58 -42 -43 43 -45 45 -47 56 59 74 -51 88 76 -54 -55 -56 -57 82 70 -60 -61 61 62 -64 86 -66 -67 83 -69 -70 -71 -72 -73 90 -75 -76 -77 77 -79 -80 -81 -82 -83 -84 -85 -86 -87 -88 101 89 -91 98 -93 -94 -95 -96 -97 -98 -99 -100 -101 -102 -103 -104 -105
leaf_value=8.3242633869883354e-05 -0.00029328843671690813 -2.3404517166022091e-06 0.00016889053281525493 -0.00029421339242839104 0.00027148202308203056 -0.00013047887592282796 4.9581468738341311e-06 -9.5457943676924737e-06 0.00021470937829110311 6.5016041693067729e-05 -0.0001675044084243768 -0.00039630903395160972 3.6768834143707168e-05 -4.2924905460864663e-05 -1.4354393753679056e-06 -0.00017114849759610585 1.130595591517349e-05 0.00025584317396013255 5.5644805247301772e-05 0.0003720536479309268 -0.00019956729764713797 -0.0001448438790693588 -0.00029017292736197307 0.00025069268031448861 -0.00035043716289997546 0.0002167174909808545 0.00039713529993868751 -0.0001677344443893966 0.00051482413710714442 -0.00020774360847368724 0.00028704746579132182 3.1827902234160252e-05 0.00015907886182295566 3.5886945195927421e-05 0.00050956594873933397 0.00016028571937679869 6.7478642264480105e-05 -8.9924453182002248e-05 0.0001294475439992679 -0.00027400127945532233 0.00030011937257589467 7.5665289619691973e-05 -9.463557890461575e-05 0.00031084414219763426 2.4393090633861441e-05 -8.6914237446144739e-05 5.4535310402193409e-05 3.9118614857236428e-05 0.00049133530953561651 0.00030937976787015091 0.00029083051110448681 -3.5158734699507739e-05 -6.897818121980128e-05 -4.6758761543631658e-05 0.0001206724827582624 -0.00011715067184220848 1.078916192958068e-05 0.00027001444890749506 -1.1025873139895474e-05 -0.00029503532559436448 -0.00010925940959044357 -2.7752769939037254e-05 -0.00020315943897292378 -0.00035868390811953958 -2.783727084306493e-05 -0.00015085328889205481 6.6426660289322219e-05 0.00029825312549360981 0.00040593276170298071 -6.6642031692164209e-05 0.00014748839046991959 -0.00048087874541464587 -0.0001329220164578725 -0.0002116909148654565 0.00035959606624406639 0.00034932700090145065 0.00031391034466781597 -0.0001172838786446531 -0.00020157638654985801 0.00034020701335841938 -0.00036922983711806437 0.00042283080981766477 -3.585540745811647e-05 0.00013910876037459874 -2.8404868533714751e-05 -0.00015957835816780632 -0.0004770379753649542 -0.00012052259677491914 -0.00010283111232942721 0.00034343963982485902 -0.00021043167849152047 0.00031021415680224036 0.0002760389638863537 0.00019639617650009223 0.00026812771987729797 -0.00040091830902692384 -1.674729873354755e-05 -0.00025650917238540969 -0.00014675402684373372 0.00012410859784379251 0.00022930433825534566 -0.00032919836706951248 0.00018030007597881679 8.0482780853084943e-05
leaf_weight=350 958 4815 407 170 757 263 651 120 467 2112 758 252 91 169 1909 377 91 218 2413 245 196 173 131 166 2235 321 594 51 238 646 278 2043 115 52 462 367 126 380 1438 1651 623 263 50 78 95 337 1326 90 291 186 83 249 882 377 448 132 4257 884 58 162 906 2611 115 343 137 71 2827 95 227 1234 274 86 877 28 453 38 98 267 262 71 86 336 1765 665 26 232 409 643 47 20 827 92 114 131 74 38 222 22 1896 148 89 57 777 197
leaf_count=350 958 4815 407 170 757 263 651 120 467 2112 758 252 91 169 1909 377 91 218 2413 245 196 173 131 166 2235 321 594 51 238 646 278 2043 115 52 462 367 126 380 1438 1651 623 263 50 78 95 337 1326 90 291 186 83 249 882 377 448 132 4257 884 58 162 906 2611 115 343 137 71 2827 95 227 1234 274 86 877 28 453 38 98 267 262 71 86 336 1765 665 26 232 409 643 47 20 827 92 114 131 74 38 222 22 1896 148 89 57 777 197
internal_value=-3.26416e-13 -5.68875e-05 -0.000175839 0.000140175 0.000186146 -0.000211056 3.17993e-05 0.000250245 0.000125226 6.31567e-05 -4.26273e-05 -0.000299638 0.000301096 -0.000197277 1.21688e-05 -0.000156928 6.01094e-06 0.000353058 2.44999e-05 0.00020406 -3.92133e-05 1.74775e-05 -0.000205689 3.70889e-05 -0.000341645 7.58333e-05 0.000304567 -0.000152914 0.000298239 -0.00026066 0.000269907 3.4798e-05 -8.3748e-05 0.000380017 0.00041929 0.000263866 -0.000129942 -0.000153068 9.59995e-05 -0.00022522 0.000225641 -4.10788e-05 0.000325316 0.000152454 -7.51184e-05 -1.40935e-05 1.93863e-05 -0.000134318 0.000375935 0.000172713 5.93115e-05 -4.7578e-05 -9.19418e-06 -0.000127398 0.000198298 -0.000271958 7.47938e-06 0.000226141 -0.000252467 -0.000151408 -3.56533e-05 -5.36384e-05 -3.51525e-05 -0.000365783 -0.000153095 6.11115e-05 6.3777e-05 0.00045304 0.000302499 -9.10982e-05 0.000241023 -0.000364307 -0.000145461 8.64806e-05 0.000411123 0.000110878 -7.09122e-05 -1.51118e-06 -0.000120484 0.000139364 -0.00021935 0.000361352 -2.88199e-06 8.1893e-05 -0.000346734 -0.000259904 -0.000423055 -0.00016158 0.000174498 3.0384e-05 -0.000149807 0.000211152 0.000153564 9.79379e-05 0.000131117 -0.000164621 -0.000109455 6.89425e-05 -0.000166094 1.43034e-06 7.13979e-05 -0.000137515 0.000150158 0.000164906
internal_weight=60060 42722 15692 17338 12174 14543 5164 8003 2314 4171 3606 5516 5689 1605 27030 9027 1370 3369 21489 1558 515 2334 3216 15644 3911 1169 1945 1272 944 898 1149 15478 444 477 1424 1351 5811 550 3621 2772 2320 1165 742 128 902 506 9761 5685 962 1313 319 1005 5845 1135 1697 1090 7348 1249 1941 4074 5541 3632 2726 3013 396 5717 5646 333 984 1611 1158 137 3912 143 744 129 876 365 511 1509 259 614 6022 3603 2261 1883 752 831 150 67 3822 144 365 251 169 301 1099 2938 2723 4963 2916 700 1127 518
internal_count=60060 42722 15692 17338 12174 14543 5164 8003 2314 4171 3606 5516 5689 1605 27030 9027 1370 3369 21489 1558 515 2334 3216 15644 3911 1169 1945 1272 944 898 1149 15478 444 477 1424 1351 5811 550 3621 2772 2320 1165 742 128 902 506 9761 5685 962 1313 319 1005 5845 1135 1697 1090 7348 1249 1941 4074 5541 3632 2726 3013 396 5717 5646 333 984 1611 1158 137 3912 143 744 129 876 365 511 1509 259 614 6022 3603 2261 1883 752 831 150 67 3822 144 365 251 169 301 1099 2938 2723 4963 2916 700 1127 518
is_linear=0
shrinkage=0.0765467


Tree=6
num_leaves=105
num_cat=0
split_feature=1 41 3 3 41 3 1 41 41 1 3 41 1 41 57 1 50 41 66 3 1 41 51 41 50 1 66 41 65 41 66 65 3 41 1 57 3 16 66 56 67 55 56 57 56 56 66 43 41 55 67 65 3 18 48 41 57 57 66 3 65 55 67 57 55 65 66 67 66 41 56 41 57 67 3 16 1 65 41 57 3 66 3 65 65 45 65 4 55 66 65 55 51 14 5 56 1 55 41 43 0 41 66 66
split_gain=0.0697229 0.0493705 0.0432889 0.0262197 0.0121808 0.0134147 0.0119655 0.00908262 0.00601186 0.0034268 0.00438249 0.00341996 0.00291705 0.00275531 0.00261833 0.00247865 0.00237818 0.0019996 0.00182873 0.00161857 0.00191379 0.00160227 0.00157289 0.00155278 0.00153933 0.0012269 0.00117296 0.0011321 0.00106349 0.00103241 0.00100001 0.000993517 0.000992403 0.000960621 0.000900873 0.000890133 0.000826076 0.000788424 0.00078593 0.000759527 0.000755631 0.000748052 0.000739071 0.000738287 0.000736136 0.000735101 0.000795427 0.000695919 0.000916059 0.000686908 0.000669522 0.000662538 0.000661855 0.000655106 0.000587655 0.000570473 0.000557892 0.000541113 0.00055474 0.000535834 0.000527351 0.000526626 0.000523631 0.000517754 0.000508032 0.00049503 0.000489679 0.00048087 0.000479985 0.00047263 0.000521052 0.000464358 0.000462495 0.000456581 0.00044998 0.000440338 0.000426528 0.000415775 0.000414928 0.000414867 0.000406153 0.000405356 0.000459875 0.000429667 0.000404276 0.00040331 0.000402639 0.000398743 0.000395851 0.000391393 0.000381577 0.000380148 0.00037916 0.000378705 0.000374408 0.000372562 0.000372284 0.000370077 0.000411368 0.000368768 0.000366175 0.000362953 0.000362365 0.000361482
threshold=0.20050000000000004 0.0032086380202526808 2.5605000000000007 1.0000000180025095e-35 0.0023829807515028372 0.032500000000000008 0.0045000000000000014 0.0076050609390676772 0.0064173231057323274 2.0175000000000005 0.37450000000000006 9.1669993528870129e-05 1.0000000180025095e-35 0.0010993823303728234 1.8335007166699783e-05 1.0000000180025095e-35 5.1145000000000005 0.010795095368083341 1.779652764314577 0.58150000000000002 1.2055000000000002 0.004767993559539341 1.3595000000000004 0.0084335852866928782 5.2035000000000009 0.026500000000000003 2.0054773607750662 0.013999374150303947 0.27905862343505811 -0.0024750920966702165 1.8345033754846392 0.4191020815957876 0.24050000000000002 0.0075159473278800758 0.61150000000000004 0.00011360794083625783 1.9345000000000001 109052.25000000001 1.5003645102787491 0.00017569610538047481 0.24477916131338734 0.00016770573966111497 8.7073303579193723e-05 4.125340684398721e-05 0.00011275871765879869 6.9669881641629616e-05 2.5554632073041401 109104.83354350134 9.1618425753581834e-05 -3.5732217537326351e-05 0.28327819755368716 0.27905862343505811 0.0015000000000000002 109035.45000000001 4.1710000000000003 0.0037535922688846867 2.6508650782451942e-05 8.2506208612235423e-05 1.0641732937663508 1.7905000000000002 0.21355897934066362 0.00013820384478324525 0.23815899648781766 0.00011624364948701712 0.00013376532202790349 0.31333608891184594 1.4052826028550685 0.16492924278096863 1.0413714755396057 0.011163057964178153 0.00012723671154602498 0.018098649170471232 1.8335007166699783e-05 0.25225059381978576 0.025500000000000005 109162.95000000001 2.9300000000000002 0.27315344055520174 0.0021085335561620458 9.4233892229283651e-05 5.2875000000000005 2.2216092109642944 0.30350000000000005 0.43203236508313964 0.27705731252887311 0.98977417794760314 0.34167352797599715 109263.45000000001 0.00016770573966111497 2.1257071268858891 -0.46320571733687049 0.00011629597325245982 30.852000000000004 109107.45000000001 0.0015000000000000002 0.00014389633231624759 0.037500000000000006 0.00015295722649184121 0.014668368809323975 109110.61004999887 109124.95000000001 0.010083135451802212 2.5272170574255299 1.5375720141824047
decision_type=2 2 2 2 2 2 2 2 2 2 2 2 2 2 2 2 2 2 2 2 2 2 2 2 2 2 2 2 2 2 2 2 2 2 2 2 2 2 2 2 2 2 2 2 2 2 2 2 2 2 2 2 2 2 2 2 2 2 2 2 2 2 2 2 2 2 2 2 2 2 2 2 2 2 2 2 2 2 2 2 2 2 2 2 2 2 2 2 2 2 2 2 2 2 2 2 2 2 2 2 2 2 2 2
left_child=3 13 7 12 11 6 15 19 28 10 69 49 91 24 22 23 33 55 68 21 -21 77 25 -6 45 27 86 -10 -7 -26 -24 53 -27 65 -12 38 54 43 -31 72 60 74 47 -16 57 46 87 62 59 -5 84 90 88 67 81 -14 66 58 -30 -49 -28 -42 -40 78 75 -4 -35 -20 -11 70 -9 96 -25 -48 99 -60 -22 -3 -56 -45 -68 -15 83 -83 -44 -62 -23 -2 -17 -67 -32 102 -13 -50 -43 101 -19 -53 -99 -8 -75 -33 -1 -46
right_child=1 2 16 4 5 8 41 9 14 18 34 92 17 36 37 52 -18 71 31 20 76 26 30 39 29 32 40 -29 44 35 51 95 -34 56 -36 -37 -38 -39 42 -41 61 94 50 79 103 -47 73 48 93 -51 -52 97 -54 -55 63 -57 -58 -59 64 -61 85 -63 -64 -65 -66 89 80 -69 -70 -71 -72 -73 -74 100 -76 -77 -78 -79 -80 -81 -82 82 -84 -85 -86 -87 -88 -89 -90 -91 -92 -93 -94 -95 -96 -97 -98 98 -100 -101 -102 -103 -104 -105
leaf_value=3.4130278008479295e-05 6.7850484691687347e-06 -7.0967967250217163e-05 0.00012265869881252287 -0.00035069627776700509 0.00015580548023157395 0.00010984646618185053 -5.0107752995156035e-05 -0.00023465106705195036 0.00026865848196250237 -0.00012086518995192225 0.00022869817615610684 7.2745518563051978e-05 6.2434455979073776e-06 -6.0891027697107327e-05 0.00032257263092911063 3.9471278964780247e-05 -0.00013902575210634127 -0.00032822936342594594 -0.00027401521106979691 0.00013281038562466203 -2.3528168051854715e-05 -0.00012115105054654592 0.0002991695067708821 0.00036774846298569887 0.0002538747217490104 1.7623291912053995e-05 -0.00011297824107456065 0.00045753033284799872 9.9768832022137803e-05 1.4642322148637408e-05 0.00048921073875355216 -0.00038640188662637364 0.00029046032014863507 9.0238660509668145e-05 -3.0669154106350179e-05 -7.7649245438058889e-05 7.9262401188877219e-05 0.00014129611202879402 6.0482770924254821e-05 0.00058327092930193216 -0.00030510444192896006 -0.00018290083226556078 2.1132272001068174e-05 0.00021232480545045555 0.00015680967795028412 6.3506591363399464e-05 -4.3390721304679163e-05 0.00011549158419908809 -3.4249908825200525e-05 -0.00010867080265255444 0.00034217092183063254 0.00045641605367750083 0.00013959621855420335 -0.00011808774028492724 5.5646200670577559e-06 -0.00014163962895508177 0.00014405291760368155 1.1292533547668608e-05 0.00023403845067553769 3.8280822651625368e-05 -0.00024947913399666922 -0.00062382721777761471 0.00014869878851699265 -0.00024105551070180127 -3.3821698763519262e-05 0.00019708986465234022 0.00020096390003013594 -0.00035131453093283066 -0.00025174885357852155 -0.00029237981015629145 -6.4036797171560108e-05 -0.0006075922737662433 0.00022011716111011243 -1.7388415721987335e-05 0.00010116598494337554 0.00010207905693630791 -0.00013697670330132779 -0.00013820705594726367 -5.3339869395780911e-05 -9.5951335177943658e-05 0.00041416298090473383 -0.000146889389419258 2.2314760354730564e-05 -0.000396213901734295 0.00014331525596456219 -0.00011027325961155418 -0.0001855224111554806 -6.9669013410386869e-05 -0.00028760915407964903 0.00033458209494142586 0.0002874076349305639 -3.5945573372290472e-05 -0.00016184194522751347 3.4956272916018793e-05 -0.00046285642826375377 -8.9128504834148014e-05 -0.00018726360819840588 0.00011653345092505389 0.00045542087337422266 -0.00015576449100764209 -0.00022650975717911556 -0.00049488631886794707 0.00023001954114662909 0.00036930097292642197
leaf_weight=211 5059 770 266 82 465 962 276 561 629 204 115 2630 189 1203 572 378 92 332 706 218 244 990 551 326 126 163 253 264 288 5559 68 527 150 35 247 408 307 440 2035 68 382 57 246 486 60 804 1543 667 1374 424 74 1156 869 93 1389 799 76 95 1535 2503 1110 33 489 66 47 306 60 1420 841 689 129 27 201 72 55 164 951 1795 1414 27 411 405 85 45 447 137 1340 434 23 201 285 320 41 699 55 20 164 41 43 648 154 275 75 215
leaf_count=211 5059 770 266 82 465 962 276 561 629 204 115 2630 189 1203 572 378 92 332 706 218 244 990 551 326 126 163 253 264 288 5559 68 527 150 35 247 408 307 440 2035 68 382 57 246 486 60 804 1543 667 1374 424 74 1156 869 93 1389 799 76 95 1535 2503 1110 33 489 66 47 306 60 1420 841 689 129 27 201 72 55 164 951 1795 1414 27 411 405 85 45 447 137 1340 434 23 201 285 320 41 699 55 20 164 41 43 648 154 275 75 215
internal_value=-3.25792e-13 -5.17279e-05 -0.00016107 0.000131498 0.000167451 0.000203649 7.62269e-05 -0.000202127 0.000256544 -0.000275239 -0.00018531 3.45772e-05 -0.000120514 9.65059e-06 0.000310871 0.000174187 0.000237583 -0.000177418 -0.000313556 -0.000150318 -7.5763e-05 -0.000165788 0.00034872 0.000260605 2.09037e-05 0.000278786 -0.00019465 0.000324495 0.000177863 3.57084e-05 0.000388059 -0.000343576 0.000148376 0.000263153 5.17265e-05 3.38127e-05 -4.23167e-05 0.000227725 3.70396e-05 0.000342508 -0.000239033 -0.000132982 5.1629e-05 0.000262775 0.000205081 -5.9432e-06 -1.36322e-05 4.45501e-05 2.86525e-05 -0.000147892 0.000123313 0.000418804 0.000102058 -0.000316946 -5.04185e-05 -0.00011335 0.000337432 0.000189857 0.000198198 5.45267e-05 -0.000213742 -0.000330449 7.75738e-05 -2.91401e-05 0.000214433 0.000207229 0.000366477 -0.000325645 -0.000226198 -0.000247534 -0.000202754 -0.000298448 0.000311441 -5.82738e-05 -0.000111543 0.000221301 -0.000113812 -0.000118022 -2.41503e-05 0.0001961 0.000387004 -8.55437e-05 -0.000140978 -0.000171822 9.99429e-05 -0.000234185 -0.000158171 7.4444e-07 2.07111e-05 0.000251599 0.000326282 2.13702e-05 6.91446e-05 -1.09141e-05 -0.000320379 -0.000415462 -0.00028162 0.000445143 0.000290012 -0.000124205 -0.000159887 -0.0004236 8.54998e-05 0.000322939
internal_weight=60060 43104 15497 16956 14839 11662 3421 14050 8241 5827 1741 3177 2117 27607 4875 2330 1447 1511 4086 8223 1413 6810 3350 1060 22693 1206 4245 893 3366 14627 2144 3041 313 1355 362 14501 4914 1525 14093 595 1915 1091 8534 1085 2404 8066 7262 7767 5243 506 767 1593 1270 2219 4607 988 582 2129 2034 3170 1500 415 2524 2869 1746 773 506 2126 1045 1379 690 523 527 1769 979 1699 1195 2565 2803 513 471 1738 535 450 693 1247 2330 5493 401 507 353 606 2671 2073 112 822 496 1240 84 924 226 802 286 275
internal_count=60060 43104 15497 16956 14839 11662 3421 14050 8241 5827 1741 3177 2117 27607 4875 2330 1447 1511 4086 8223 1413 6810 3350 1060 22693 1206 4245 893 3366 14627 2144 3041 313 1355 362 14501 4914 1525 14093 595 1915 1091 8534 1085 2404 8066 7262 7767 5243 506 767 1593 1270 2219 4607 988 582 2129 2034 3170 1500 415 2524 2869 1746 773 506 2126 1045 1379 690 523 527 1769 979 1699 1195 2565 2803 513 471 1738 535 450 693 1247 2330 5493 401 507 353 606 2671 2073 112 822 496 1240 84 924 226 802 286 275
is_linear=0
shrinkage=0.0765467


Tree=7
num_leaves=105
num_cat=0
split_feature=1 52 3 3 61 1 61 52 3 1 61 3 50 3 57 66 52 66 65 61 58 48 66 3 52 1 61 65 65 61 67 57 20 58 3 66 56 65 65 3 56 58 56 58 66 56 48 43 42 43 3 16 65 57 57 1 49 1 61 67 66 67 3 50 66 3 3 56 49 52 67 56 57 1 65 58 67 6 67 52 12 61 56 48 58 68 66 57 68 57 61 56 56 1 67 66 56 52 43 65 56 56 3 15
split_gain=0.0594881 0.0436444 0.0339835 0.0233927 0.0171465 0.0107816 0.00723403 0.00462641 0.00355238 0.00495104 0.00301271 0.00295291 0.00275049 0.00371481 0.0027173 0.00197722 0.00173682 0.00171418 0.00161869 0.0015767 0.00151102 0.00149563 0.00131097 0.00122521 0.00120655 0.00104495 0.00101244 0.00101044 0.000961673 0.000926336 0.000919822 0.000857568 0.000806312 0.000792869 0.000792658 0.000787358 0.000749269 0.000734888 0.000722603 0.000716893 0.000702052 0.000697659 0.000682177 0.000668595 0.000654791 0.000625105 0.000622135 0.000604732 0.000599978 0.000640191 0.00059489 0.000591141 0.000588233 0.000580507 0.000579693 0.000579473 0.000575075 0.00117846 0.00075703 0.000598432 0.000542823 0.000605207 0.000541642 0.000578828 0.000636951 0.000541015 0.000535495 0.000562206 0.0005243 0.000513354 0.000499291 0.000497721 0.000494605 0.000491209 0.000476531 0.000474389 0.00047077 0.000469747 0.000452583 0.000431229 0.000430395 0.000428484 0.000426731 0.000426053 0.000425029 0.000417367 0.000411894 0.000405472 0.000399123 0.000423975 0.00039991 0.0003946 0.000390159 0.00038982 0.000387048 0.000386158 0.000384511 0.000378853 0.000376051 0.000374903 0.000374269 0.00037276 0.000370321 0.000370101
threshold=0.27650000000000008 3.4837296076052156e-05 2.8795000000000006 0.027500000000000004 0.99507449372174339 1.0000000180025095e-35 0.99226931522957107 1.8306460212913972e-06 1.0000000180025095e-35 0.0045000000000000014 0.99826010989376635 1.0000000180025095e-35 3.7495000000000007 0.24050000000000002 3.8500179668287227e-05 2.0246177359263036 0.00010794512729111486 1.779652764314577 0.4113884176262303 0.99156489727357766 4.7639660933858115e-05 4.0760000000000014 0.99414620815334087 6.9200000000000008 1.4667978839604032e-05 2.1465000000000001 1.0005497388236011 0.26932685618899127 -0.42951951088760976 0.9939869544243034 0.25658769283547017 0.00011360794083625783 109108.55000000002 8.5247936300760968e-05 1.1425000000000003 1.779652764314577 0.00013742855149917219 0.40361464560836907 0.26932685618899127 1.1425000000000003 -1.4662998476621338e-05 1.738336448611362e-05 5.1329373485963947e-05 1.738336448611362e-05 1.6185620846875624 0.00017930811767418828 0.10250000000000002 109299.7959920428 109101.27500000001 109148.53443228644 3.4325000000000006 109015.75000000001 0.28451959615144878 8.9783055281139127e-05 6.1368517950382995e-05 1.0435000000000001 0.28250000000000008 0.015500000000000002 0.9904834972512212 0.13644254367970071 1.4544361350119654 0.23815899648781766 0.025500000000000005 3.5625000000000004 1.5652772635721661 0.064500000000000016 0.0035000000000000005 0.00016949839698044322 0.18450000000000003 3.6649452113666045e-05 0.23815899648781766 0.00010264896186161587 0.00011360794083625783 1.1235000000000002 -0.20293910972938931 0.00010993445631245465 0.28678649149246915 109089.75000000001 0.20043878050343419 6.4171172021598469e-05 109092.85000000002 0.99990841702490074 9.7983194509833601e-05 0.0015000000000000002 6.8713221249249679e-05 1.9026179853587932 1.159710476878195 9.9903167251226183e-05 2.3250480529511703 8.339542168360997e-05 0.99990844804792278 0.00016949839698044322 0.00010796878242007062 3.1785000000000001 0.20644780834518958 4.8516614090836718 5.7762619930632016e-05 0.00011543324116019693 109319.50858425516 0.43716699778872337 4.4871712689486044e-05 0.00012182379379021152 0.58150000000000002 0.092500000000000013
decision_type=2 2 2 2 2 2 2 2 2 2 2 2 2 2 2 2 2 2 2 2 2 2 2 2 2 2 2 2 2 2 2 2 2 2 2 2 2 2 2 2 2 2 2 2 2 2 2 2 2 2 2 2 2 2 2 2 2 2 2 2 2 2 2 2 2 2 2 2 2 2 2 2 2 2 2 2 2 2 2 2 2 2 2 2 2 2 2 2 2 2 2 2 2 2 2 2 2 2 2 2 2 2 2 2
left_child=3 10 6 5 14 11 12 40 16 66 62 -1 13 43 15 56 69 78 36 45 22 47 -8 25 -9 -4 31 28 -24 39 52 42 65 102 91 -25 50 96 70 101 -6 46 48 -3 -39 80 -11 75 60 -50 -17 87 74 -46 73 -36 57 -5 94 -60 -23 -62 63 64 -2 -20 83 -68 -38 -7 -37 99 -65 77 -19 88 81 -31 -14 -52 -13 85 -64 -10 -18 -44 -61 -16 89 -12 -91 -15 -75 -41 -58 -30 -26 -32 -51 -66 -21 -29 103 -22
right_child=1 2 23 4 7 8 20 24 9 41 21 19 17 34 51 18 84 30 32 100 33 26 27 35 37 -27 -28 29 95 54 97 -33 -34 -35 55 38 68 44 -40 93 -42 -43 76 -45 53 -47 -48 -49 49 98 79 -53 -54 -55 -56 -57 58 -59 59 86 61 -63 82 72 71 -67 67 -69 -70 -71 -72 -73 -74 92 -76 -77 -78 -79 -80 -81 -82 -83 -84 -85 -86 -87 -88 -89 -90 90 -92 -93 -94 -95 -96 -97 -98 -99 -100 -101 -102 -103 -104 -105
leaf_value=1.9734425694213981e-05 -5.7913855299864976e-05 -0.00027667290749850115 0.0001915220340821145 0.00023381246162046651 -0.00025543935105470662 6.5732573231081514e-06 -6.1982654115607169e-05 4.9797316822192949e-05 0.00012564779385731666 -0.00011560329504983921 9.7792947547433476e-06 0.00033217028055669378 -0.00014854451430364011 -0.00011167410727232551 0.00019374371550651359 0.00022245131660244907 -0.00029446202270555217 -0.00044551662115000569 0.00017184905252540719 3.4244077323606332e-05 -0.00011894461753799552 1.4578260164660328e-05 -0.00023118146527313548 0.00016333084233792971 8.4931595084531094e-05 -0.00011178630170536801 0.00019589303043755061 -0.00025318637058985072 -7.7885619862830393e-05 0.00014533397999526228 -0.00039186966373257854 -7.2029500989897257e-05 5.7835670518462108e-05 0.00012834927549963877 0.00026250150856749649 9.8648777399253554e-05 0.00020305421704409793 0.00012322390046120546 0.00035517740269194216 5.8444332495101769e-05 -7.0036565304865193e-05 -5.9941456484192339e-05 5.1489551453384395e-05 -0.00016101003750494927 0.0002644612029615947 0.00056674625971402863 -0.00025986681016713589 -6.5394171996762242e-05 -1.3431628269872815e-05 3.5122323119810605e-05 0.000209592970365806 4.6790798039901351e-05 -0.00033309312886263792 -0.00011363431486286465 -0.00023495202517923768 -1.0707597660584765e-06 0.00026189457633179802 -5.1831484734038633e-05 8.8884729570818457e-05 0.00014448438498659394 5.2826073941106546e-05 0.00015463041534509209 -2.6808769611362576e-05 -4.5613068423200271e-05 -0.00019052566048010505 0.00044774860503060074 0.00012964007466713195 0.00047762940918439435 0.00040886316209960357 -0.0001334150953379081 0.00050348941042806033 8.9277074667683406e-05 -0.0003055010414696411 -0.00016571947205015628 -0.00021532352691240874 0.00018906650501487334 0.00014660435323873101 -0.00010539853605097002 -0.00025913563177716961 0.00033826423446189869 0.00016743645604747984 0.00010061283799281772 0.0001466461158654069 8.8406478339330033e-06 -2.4726206022297634e-06 -2.6056450392876961e-05 0.00026612121294731101 -0.00014683929833642331 -6.5431592178942307e-05 -3.2777143958511949e-05 -0.00022143568703047409 0.00021192378899940271 -4.9182040062946461e-05 -0.00017490072151614869 0.0003864516557506317 -0.00040161152419933819 0.00015550598478038659 -0.00057287143554587278 -4.271720693851969e-05 -0.00041161611409847531 0.00017654089790516928 -6.618601601544527e-05 2.1018067263878039e-05 5.1314672921125164e-05
leaf_weight=606 370 1149 199 293 168 189 734 1546 277 401 5042 390 404 276 830 816 506 59 44 154 853 1640 333 294 1462 100 213 1598 1160 62 516 488 35 112 85 119 87 497 523 69 416 490 2039 393 493 54 311 1032 3598 4584 192 229 1415 25 489 115 299 119 183 208 1722 427 1085 1729 331 778 439 29 436 817 21 33 44 1772 493 75 334 149 468 744 122 788 90 539 31 508 756 21 575 769 72 24 186 107 286 22 655 78 395 52 365 65 163 82
leaf_count=606 370 1149 199 293 168 189 734 1546 277 401 5042 390 404 276 830 816 506 59 44 154 853 1640 333 294 1462 100 213 1598 1160 62 516 488 35 112 85 119 87 497 523 69 416 490 2039 393 493 54 311 1032 3598 4584 192 229 1415 25 489 115 299 119 183 208 1722 427 1085 1729 331 778 439 29 436 817 21 33 44 1772 493 75 334 149 468 744 122 788 90 539 31 508 756 21 575 769 72 24 186 107 286 22 655 78 395 52 365 65 163 82
internal_value=-1.61355e-14 -4.85314e-05 -0.000155424 0.000119585 0.000181972 -7.13255e-06 -0.000191031 7.97691e-05 -7.52162e-05 -1.85897e-05 7.46775e-06 0.000155085 -0.000258751 -0.000188404 0.000266584 0.000289229 -0.00016645 -0.000300595 0.000328 0.000230681 -0.000144429 1.7304e-05 -0.000158557 0.000225337 0.000105129 9.00811e-05 3.00715e-05 -0.000170348 -0.000116281 -0.000188562 -0.000332158 2.79339e-05 0.000417659 -6.56619e-05 -7.09278e-06 0.000267596 0.000294225 0.000132442 0.000313831 -0.000230329 -0.000123372 -0.000130239 3.09761e-05 -0.000247195 0.000185991 0.000319042 -0.000178617 -1.09414e-05 2.23761e-05 1.11695e-05 0.000270223 0.000155962 -0.000306948 0.000246213 -0.000159664 0.000110947 0.000232592 0.000151309 0.000251927 0.000215786 4.7744e-05 7.30543e-05 -5.6547e-05 -7.63021e-05 -0.00013098 0.00043298 8.5929e-05 0.000151204 0.000374627 -0.000107115 0.000159375 -0.000195966 -5.20626e-05 -0.000142691 -0.000239927 -2.33966e-06 5.99616e-05 -3.17236e-05 -0.000207898 0.00031187 0.000292917 5.12844e-05 -1.35229e-05 4.84921e-05 -0.000277606 3.6023e-05 0.000239876 0.000185339 -4.56255e-06 1.38674e-06 -4.89286e-05 -8.57863e-05 -0.000154649 -8.34189e-05 0.000322789 -8.3911e-05 0.000106767 -0.000415638 2.89471e-05 -0.000220543 0.000134318 -0.000245877 -8.54517e-05 -0.000104013
internal_weight=60060 42722 14687 17338 11618 5720 13431 5262 4029 2486 28035 1691 5475 2042 6356 5276 1543 3433 3132 1085 7956 24301 6746 1256 4678 299 16736 6012 1515 4497 2561 16523 857 1210 500 957 2275 3132 663 1839 584 1202 16035 1542 1015 566 712 7565 12366 8577 1752 1080 1967 518 2658 200 2144 412 1732 1147 3789 2149 3734 2559 786 822 1284 468 523 1006 140 416 1773 2169 552 6533 3669 211 872 936 512 3335 1175 816 537 2547 964 851 6458 5883 841 300 1958 176 585 1182 2117 594 4979 383 519 1663 1098 935
internal_count=60060 42722 14687 17338 11618 5720 13431 5262 4029 2486 28035 1691 5475 2042 6356 5276 1543 3433 3132 1085 7956 24301 6746 1256 4678 299 16736 6012 1515 4497 2561 16523 857 1210 500 957 2275 3132 663 1839 584 1202 16035 1542 1015 566 712 7565 12366 8577 1752 1080 1967 518 2658 200 2144 412 1732 1147 3789 2149 3734 2559 786 822 1284 468 523 1006 140 416 1773 2169 552 6533 3669 211 872 936 512 3335 1175 816 537 2547 964 851 6458 5883 841 300 1958 176 585 1182 2117 594 4979 383 519 1663 1098 935
is_linear=0
shrinkage=0.0765467


Tree=8
num_leaves=105
num_cat=0
split_feature=1 61 3 3 61 1 41 41 3 1 3 57 50 3 41 66 3 41 66 61 61 51 3 50 0 65 3 1 41 66 61 1 67 1 41 61 58 66 65 61 55 58 61 55 65 66 1 41 66 57 66 55 24 14 16 41 55 20 65 65 41 67 65 55 67 3 2 0 0 65 65 61 65 65 65 55 50 1 2 58 55 67 66 68 18 67 57 67 12 1 57 67 65 66 65 55 61 66 68 41 57 68 66 68
split_gain=0.0507589 0.0377948 0.0276525 0.0201111 0.0148392 0.00922456 0.00748782 0.00409025 0.00294805 0.00423548 0.00251815 0.00235679 0.00203891 0.00291261 0.00186377 0.00173891 0.00162722 0.00157446 0.00146945 0.00145226 0.00140116 0.00137301 0.00131598 0.00166858 0.00130953 0.00124203 0.0011857 0.00107984 0.0010256 0.000986394 0.000909491 0.000846468 0.000782716 0.000754422 0.000846527 0.000693978 0.000686872 0.000673007 0.000650919 0.000625069 0.000597837 0.000591298 0.000576942 0.00054584 0.000561691 0.000700185 0.000544636 0.000541623 0.000813468 0.0005398 0.000663724 0.000597653 0.000620448 0.000536008 0.000531772 0.000522662 0.000521571 0.000517646 0.000516247 0.000566027 0.0005161 0.000515576 0.00051066 0.000505403 0.000489379 0.000481981 0.000471699 0.000640316 0.000493466 0.000467857 0.000576757 0.000419026 0.000418869 0.000417952 0.00045601 0.000412313 0.000410138 0.000409898 0.000404305 0.000401541 0.000401309 0.000400938 0.000428515 0.000400916 0.000400535 0.000398943 0.000398061 0.00038785 0.000383583 0.000382161 0.00043439 0.000380279 0.000377631 0.000375699 0.000346109 0.000345265 0.000341493 0.000340446 0.000337441 0.000337028 0.00033576 0.0003338 0.000332636 0.000331695
threshold=0.32000000000000006 0.99698466427629684 2.8795000000000006 0.027500000000000004 0.99507449372174339 1.0000000180025095e-35 0.0078656798101262339 0.00018306476969253584 1.0000000180025095e-35 0.0045000000000000014 1.0000000180025095e-35 3.8500179668287227e-05 3.7495000000000007 0.24050000000000002 0.00054895287243179446 1.7209194060836452 1.5915000000000001 0.0086153050895748009 1.779652764314577 0.99516992081854638 0.98886051691723786 0.33250000000000007 0.26950000000000007 2.8165000000000009 109091.45000000001 0.41271309873712581 7.2620000000000013 0.021500000000000002 0.001466808641519461 1.5821635600344155 0.99020584058352801 2.1465000000000001 0.25658769283547017 1.5755000000000001 9.1617670309729367e-05 1.0046028225032135 5.401011362434157e-05 1.779652764314577 0.26932685618899127 1.0046028225032135 0.00013376532202790349 4.7639660933858115e-05 0.98617193526375813 7.3273845660121561e-05 0.46574564550150482 2.233374347555912 0.68750000000000011 0.00018306476969253584 2.2672356954505104 8.9783055281139127e-05 1.6363776530334422 0.0001154454568319579 109105.45000000001 109009.05000000002 109015.75000000001 0.0052291203304427108 0.00013284583493313658 109120.35000000002 0.23595911736126246 -0.20293910972938931 9.1622035288235751e-05 0.18518597509957105 0.26932685618899127 0.00011727838108193048 0.2543837691586272 0.0015000000000000002 109110.65000000001 109148.55000000002 109308.35000000002 0.26731473354719532 -0.027551280002012634 0.98706749006439176 0.38705610631352733 0.23595911736126246 -0.20293910972938931 0.00013820384478324525 5.2035000000000009 1.2635000000000003 109301.55000000002 7.505583422119247e-05 0.00012551767451889331 0.1831496740245073 2.3270385670297391 2.0951974946021461 109103.55000000002 0.23815899648781766 6.7764264606636553e-05 0.20043878050343419 109092.85000000002 0.049500000000000009 3.7549776352473156e-05 0.11929795222160909 0.43586594996015571 2.2009807645120145 0.33927329837658521 0.00014271034853661083 0.99489394681916266 1.0863039798890537 1.3493167125899717 0.010900914806667827 4.9466540008017818e-05 1.3353274656879346 2.5272170574255299 1.6116515215657723
decision_type=2 2 2 2 2 2 2 2 2 2 2 2 2 2 2 2 2 2 2 2 2 2 2 2 2 2 2 2 2 2 2 2 2 2 2 2 2 2 2 2 2 2 2 2 2 2 2 2 2 2 2 2 2 2 2 2 2 2 2 2 2 2 2 2 2 2 2 2 2 2 2 2 2 2 2 2 2 2 2 2 2 2 2 2 2 2 2 2 2 2 2 2 2 2 2 2 2 2 2 2 2 2 2 2
left_child=3 2 6 5 11 10 19 39 17 65 95 15 13 53 16 -5 35 -7 87 22 88 27 29 77 61 30 31 71 80 -2 91 -4 58 93 43 47 56 -28 -30 -6 69 64 -19 44 -35 -46 -15 48 -3 50 -40 52 92 79 86 -22 83 81 59 -20 76 -18 85 72 73 78 -16 -68 -69 70 -32 -17 -21 74 -31 -66 -36 -24 -10 -8 -9 -27 -83 -11 -48 -39 94 101 -12 90 -44 -23 -52 -26 -13 102 -64 -25 -47 -60 -58 -14 -1 -71
right_child=1 14 26 4 7 8 12 28 9 36 20 54 18 46 66 21 24 42 32 63 55 25 23 97 33 57 37 -29 38 41 40 -33 -34 34 60 -37 -38 62 49 -41 -42 -43 89 -45 45 98 84 -49 -50 -51 51 -53 -54 -55 -56 -57 100 -59 99 -61 -62 -63 96 -65 75 -67 67 68 -70 103 -72 -73 -74 -75 -76 -77 -78 -79 -80 -81 -82 82 -84 -85 -86 -87 -88 -89 -90 -91 -92 -93 -94 -95 -96 -97 -98 -99 -100 -101 -102 -103 -104 -105
leaf_value=1.1584300373555694e-05 -0.00012233252613592612 5.5347602786193007e-05 0.00016373102923129387 0.00019732772442931663 -8.7871987332304143e-05 -7.218769500391521e-05 -0.00026226895887819442 5.04681524318266e-05 3.8318553841970639e-05 -8.6601249090495226e-05 0.00039963877802055809 0.00014096339309617055 -3.6352586613542965e-05 0.00013109074554642296 1.2255334680018269e-06 0.00035063869812766919 2.5046172624023681e-05 -0.0003350448481351436 -0.00041355281828475037 -5.9643318559809795e-05 6.7765728988633956e-05 0.0002041276125049772 0.00015438654373717818 -1.0281727347307138e-05 -1.9763783750226635e-05 0.00030096441359981843 0.00014899880945822325 2.3100085814761834e-05 6.6435132983250154e-05 -0.00034227067184022531 0.00035412616428690452 -9.9345904526369297e-05 -0.0003839758375903655 2.7234326140694137e-05 -0.00011536408480217254 0.00033999030873425369 1.6871614455966602e-05 0.00010260674677062066 0.0001016953226765569 -0.00034087299848848583 5.6797681897226874e-05 -9.2374163910528712e-05 -0.00018729045804071452 -4.4157103155193328e-05 7.8928590249381246e-05 0.00052888279051264411 -8.17755686654085e-05 2.624375537050033e-05 0.00015925898444590672 -3.3160648329262917e-05 0.00019322334702934579 -6.5206055805324644e-07 1.9553779631263909e-05 -0.00014241546790983358 4.0604568774863795e-05 0.00020203202096015697 -0.00019503615773934168 9.6825670937042912e-05 -0.00028484139638656938 -0.00015024496332409493 -1.2783252769408303e-06 8.2660345613281427e-05 0.00035601517531742513 -0.0001938114637191153 -0.00026251754098545379 0.00011262993930487166 -9.5696184670653037e-05 -1.5248813439893874e-05 -0.00012278193407520857 0.00024789255157037454 0.00012907685776811941 0.00019367555147018807 -0.00011737788144747287 -0.00021366392254262582 -9.5185140403886628e-05 -0.00053918831468693928 -2.4577284639812153e-05 -1.6391193289892385e-05 -0.00020658518716684015 5.4044501910961075e-05 -0.0002946366693090133 0.00035750075791703384 0.00047443428929385209 -0.00024392178254028019 0.00024816558047891814 0.00046494895216192441 8.593353872255534e-05 -0.00023910369435633751 0.00017507475471380355 -8.9664417760624001e-05 -0.00037857814539917232 0.00035896709498880623 0.00029901894251671953 -9.3431707059684829e-05 0.00025556496504896859 -7.5454792088321961e-05 0.0002045062862376003 -0.00015069975127825878 0.0001650119850493057 -0.00037528524995757633 -0.0004244125456718606 -0.00018506429949298052 0.00015887856023916693 0.00034507419923282702
leaf_weight=313 1446 1294 213 1513 540 754 1164 1541 386 655 235 285 132 113 2252 159 1929 210 58 2050 246 105 154 114 1139 202 293 168 893 50 88 108 592 5142 448 55 186 117 915 64 95 266 347 569 406 32 344 1244 670 97 815 92 100 307 233 549 249 35 1329 273 4527 1723 406 248 440 854 998 2756 275 510 276 267 1149 1551 351 34 835 177 44 24 20 330 414 111 23 21 234 459 55 168 87 809 261 630 337 167 111 899 28 295 44 268 126 345
leaf_count=313 1446 1294 213 1513 540 754 1164 1541 386 655 235 285 132 113 2252 159 1929 210 58 2050 246 105 154 114 1139 202 293 168 893 50 88 108 592 5142 448 55 186 117 915 64 95 266 347 569 406 32 344 1244 670 97 815 92 100 307 233 549 249 35 1329 273 4527 1723 406 248 440 854 998 2756 275 510 276 267 1149 1551 351 34 835 177 44 24 20 330 414 111 23 21 234 459 55 168 87 809 261 630 337 167 111 899 28 295 44 268 126 345
internal_value=-2.18892e-13 -4.51768e-05 -0.000140088 0.000109613 0.000167166 -7.19268e-06 -0.000170457 7.29092e-05 -6.93017e-05 -1.81937e-05 0.000143213 0.000245721 -0.000241784 -0.000179906 9.68426e-06 0.000266737 2.07801e-05 -0.000151838 -0.000277664 -0.000127472 0.000213023 0.000294351 -0.000151951 -8.61435e-05 1.14818e-05 0.000314139 0.000202375 0.000187447 9.68433e-05 -0.000173325 0.000282539 7.52192e-05 -0.000306863 6.64296e-07 7.55076e-06 7.03862e-05 -0.000118795 0.00024543 0.000121833 -0.00011468 0.00024175 -0.000200716 -0.000225799 2.72791e-05 3.45272e-05 0.000114999 -1.58536e-05 6.57639e-05 9.0796e-05 0.000143531 0.000151382 0.000187237 0.000201936 -0.000232579 0.000143131 0.000160485 -0.000142623 0.000385907 -0.000283512 -0.000196383 -1.34238e-05 5.22283e-05 0.000288567 -8.85411e-05 -0.000212595 7.93514e-05 -2.68326e-05 -4.25157e-05 -2.50052e-05 0.000256164 0.000183484 0.00025226 -8.03801e-05 -0.000195654 -0.000125994 -0.000282363 -5.62784e-05 6.30643e-05 1.32586e-05 -0.000255879 4.60466e-05 0.000396602 0.000422569 -0.000109398 -6.10981e-05 0.000157746 0.000171038 -0.000191088 0.000357049 -0.000187691 -0.000225636 0.000341179 0.000218886 -4.59994e-05 0.000203055 1.82238e-05 0.000323486 -0.000134898 0.000359076 -0.000301271 -0.000229482 -0.000135989 5.38601e-05 0.000287106
internal_weight=60060 42531 15579 17529 11743 5786 14310 5338 4095 2529 1691 6405 5381 1975 26952 5316 20671 1566 3406 8929 1085 3803 5482 1344 17408 3209 1269 594 4734 4138 2228 321 2547 13756 11987 3263 1245 948 3173 604 1314 2692 812 6177 5608 466 480 3208 1964 2280 2183 1268 1176 1495 1089 795 1059 981 1955 331 5810 3652 655 3447 2426 1284 6281 4029 3031 1219 364 426 3199 1952 401 474 1283 331 430 1188 1561 946 744 766 367 138 856 859 290 602 434 914 1076 1769 622 606 517 1013 60 1624 293 400 439 855
internal_count=60060 42531 15579 17529 11743 5786 14310 5338 4095 2529 1691 6405 5381 1975 26952 5316 20671 1566 3406 8929 1085 3803 5482 1344 17408 3209 1269 594 4734 4138 2228 321 2547 13756 11987 3263 1245 948 3173 604 1314 2692 812 6177 5608 466 480 3208 1964 2280 2183 1268 1176 1495 1089 795 1059 981 1955 331 5810 3652 655 3447 2426 1284 6281 4029 3031 1219 364 426 3199 1952 401 474 1283 331 430 1188 1561 946 744 766 367 138 856 859 290 602 434 914 1076 1769 622 606 517 1013 60 1624 293 400 439 855
is_linear=0
shrinkage=0.0765467


Tree=9
num_leaves=105
num_cat=0
split_feature=3 50 41 50 41 3 56 41 5 41 50 41 50 41 58 3 41 41 50 5 41 50 14 41 41 9 3 56 55 5 0 65 56 41 3 65 65 55 8 58 57 57 4 56 2 55 57 3 6 65 43 65 56 41 3 9 58 68 3 55 57 56 55 50 41 41 5 58 57 16 9 11 3 3 41 41 68 56 58 7 7 41 41 5 5 55 45 41 2 65 41 41 43 7 68 18 43 65 5 5 56 56 10 65
split_gain=0.039565 0.0249004 0.0141734 0.0128263 0.0159908 0.00695031 0.00357856 0.00297268 0.00291603 0.00289809 0.00272477 0.00248317 0.00245912 0.00240664 0.00222972 0.00252226 0.00487006 0.0033739 0.00295379 0.00155659 0.00141992 0.0013907 0.00121392 0.00115451 0.0010424 0.0010119 0.000983819 0.0010747 0.000963154 0.00095746 0.000945713 0.000927857 0.000806508 0.00079553 0.000850336 0.000733235 0.000723366 0.000757472 0.000686219 0.000633954 0.000608505 0.000597047 0.000574235 0.000570407 0.000570076 0.000566386 0.000555881 0.000591762 0.000555257 0.000553044 0.000550732 0.000531666 0.000519545 0.000652156 0.000596979 0.000555091 0.000513548 0.000501897 0.000495641 0.00049368 0.000489362 0.000477129 0.000461922 0.000455865 0.000505608 0.000455593 0.000476959 0.000450722 0.000433734 0.000431679 0.000419046 0.00041885 0.000412917 0.000405316 0.00047553 0.000404858 0.000397797 0.000387459 0.000386948 0.000385465 0.000383555 0.000375922 0.000372191 0.000375363 0.00036914 0.000453073 0.000364786 0.000360466 0.000358549 0.000376058 0.000354588 0.000353401 0.000533593 0.000440447 0.000352614 0.00034636 0.000342518 0.000341139 0.000337897 0.000336716 0.000334886 0.000331348 0.000330154 0.000328674
