tree
version=v4
num_class=1
num_tree_per_iteration=1
label_index=0
max_feature_idx=83
objective=regression
feature_names=bid_price_1 bid_size_1 bid_price_2 bid_size_2 bid_price_3 bid_size_3 bid_price_4 bid_size_4 bid_price_5 bid_size_5 bid_price_6 bid_size_6 bid_price_7 bid_size_7 bid_price_8 bid_size_8 bid_price_9 bid_size_9 bid_price_10 bid_size_10 ask_price_1 ask_size_1 ask_price_2 ask_size_2 ask_price_3 ask_size_3 ask_price_4 ask_size_4 ask_price_5 ask_size_5 ask_price_6 ask_size_6 ask_price_7 ask_size_7 ask_price_8 ask_size_8 ask_price_9 ask_size_9 ask_price_10 ask_size_10 mid_price spread spread_bps total_bid_volume_10 total_ask_volume_10 weighted_bid_price weighted_ask_price order_book_imbalance microprice price_impact_bid price_impact_ask bid_ask_spread bid_ask_spread_pct weighted_mid_price order_book_imbalance_2 order_book_imbalance_3 order_book_imbalance_5 total_bid_volume_1 total_ask_volume_1 total_bid_volume_2 total_ask_volume_2 total_bid_volume_3 total_ask_volume_3 total_bid_volume_4 total_ask_volume_4 total_bid_volume_5 total_ask_volume_5 total_bid_volume_6 total_ask_volume_6 total_bid_volume_7 total_ask_volume_7 total_bid_volume_8 total_ask_volume_8 total_bid_volume_9 total_ask_volume_9 price_impact_buy price_impact_sell price_impact_1 price_impact_5 price_impact_10 mid_price_return l2_volatility_10 l2_volatility_50 l2_volatility_200
feature_infos=[107992.8:109437] [0:58.006] [107992.60000000001:109436.89999999999] [0:58.006] [107992.7:109435.60000000001] [0:57.978000000000002] [107992.8:109435.10000000001] [0:58.003999999999998] [107992.7:109435] [0:23.905000000000001] [107992.8:109434.60000000001] [0:23.420999999999999] [107992.89999999999:109434.5] [0:36.780999999999999] [107992.8:109434.39999999999] [0:23.457000000000001] [107993.10000000001:109434.3] [0:16.873999999999999] [107993:109434] [0:56.579000000000001] [108001.89999999999:109449.2] [0:39.801000000000002] [108002:109449.3] [0:26.849] [108002.10000000001:109449.39999999999] [0:25.164999999999999] [108002.3:109449.39999999999] [0:42.997] [108002.39999999999:109449.39999999999] [0:25.033000000000001] [108002.7:109449.3] [0:37.310000000000002] [108002.89999999999:109449.3] [0:35.320999999999998] [108003:109449.5] [0:18.952000000000002] [108003.39999999999:109449.5] [0:18.748999999999999] [108003.8:109449.60000000001] [0:26.41] [107997.54999999999:109443.05] [-12.30000000000291:25.19999999999709] [-1.1256051843730228:2.3034566474831166] [0:93.658000000000015] [0:111.955] [0:4353962.7333000004] [0:6265390.4768000003] [-1:1] [107993.2074413903:109448.90000000001] [-0.00011241926720006022:0.00021113716557957674] [-0.00011256051843730229:0.00020383015765740637] [-12.30000000000291:25.19999999999709] [-0.00011256051843730228:0.00023034566474831167] [107993.09999999999:109448.60000000001] [-1:1] [-1:1] [-1:1] [0:58.006] [0:39.801000000000002] [0:72.093999999999994] [0:47.146000000000001] [0:78.085999999999999] [0:59.521000000000001] [0:78.091999999999999] [0:69.102000000000004] [0:78.100999999999999] [0:74.614000000000004] [0:78.100999999999999] [0:101.37299999999999] [0:89.920000000000002] [0:101.37499999999999] [0:90.783000000000001] [0:103.913] [0:91.288999999999987] [0:111.955] [-0.00011256051843730229:0.00020383015765740637] [-0.00011241926720006022:0.00021113716557957674] [-5.6280259218651145e-05:0.00011517283237415582] [-4.8044123723160836e-05:0.00010525439832612368] [-4.1592484251673446e-05:8.3189199665035894e-05] [-0.00072446235502066081:0.013259108374612305] [0:0.0041928982206787969] [0:0.0018752192605222236] [2.240261417222104e-06:0.00093782809491568071]
tree_sizes=3824 3770 3808 3797 3813 3820 3809 3817 3838 3846 3816 3805 3828 3841 3840 3815 3838 3842 3800 3804 3791 3831 3803 3841 3792 3811 3787 3789 3824 3834 3807 3814 3815 3807 3847 3877 3836 3780 3837 3784 3828 3841 3806 3838 3836 3828 3813 3807 3773 3814 3844 3851 3817 3798 3805 3817 3850 3840 3824 3802 3788 3809 3788 3764 3816 3839 3835 3834 3779 3772 3858 3804 3853 3843 3792 3819 3870 3861 3843 3838 3694 2928 3779 3770 3811 3821 3783 3835 3538 3454 3235 3334 3786 3791 3759 3858 3800 3827 3830 3800 3846 3858 3374 3295 3860 3831 3856 3848 3810 3855 3849 3776 3851 3852 3828 3809 3247 3168 3793 3813 3817 3821 3810 3800 3760 3514 3847 3790 3797 3831 3844 3817 3833 3774 3795 3760 3844 2521 3786 3814 3783 3776 3809 3821 3816 3811 3795 3815 3549 3794 2951 2907 3806 3851 3780 3546 3804 3777 2775 2680 3815 3804 3863 3862 3862 3844 3797 3807 3843 3799 3835 3799 3863 3825 3797 3808 3574 3686 3800 3827 3385 3796 3560 3256 3844 3778 3632 3476 3809 3844 3763 3785 3838 3833 3833 3829 3823 3806 3837 3820 3843 3835 2817 3282 3812 3789 3820 3822 3388 3349 2177 2360 3319 3756 3787 3801 3770 3798 3791 3782 3731 3569 3828 3826 3860 3869 3865 3276 3503 3790 3794 3786 3790 3819 3836 3805 3840 3820 3807 3771 3774 3813 3839 3820 3157 2217 3759 3756 3817 3799 3776 3794 3767 3769 3620 3835 3804 3815 3487 3488 3816 3808 3857 3565 3765 2942 3814 3844 3423 3798 3797 3800 3757 3779 3785 3806 3839 3792 3799 3791 3794 3852 3851 3852 3825 3854 3831 3820 3805 3812 3802 3813 3003 3011 3809 3777 3811 3415 3608 3818 3797 3821 3782 3771 3766 3413 3837 2914 3249 2981 3797 3792 3827 3832 3776 3807 3838 3647 3843 3846 3839 3860 3841 3819 3857 3827 3733 2768 3844 3808 3782 3863 3839 3829 3785 3328 3870 3870 3835 3847 3862 3859 3800 3826 3842 3711 3831 3882 3093 3450 3881 3880 3819 3791 3835 3837 3245 3861 3837 3868 3819 3784 3801 3792 3815 3816 3791 3791 3810 3811 3840 3806 3862 3771 3051 3038 3780 3801 3852 3770 3811 3812 3825 3822 3823 3823 3827 3845 3805 3795 3827 3806 3828 3849 3792 3790 3437 3860 3800 3826 3807 3677 3799 3294 3822 3795 3831 3740 3834 3787 3757 3781 3803 3773 2820 2831 3862 3846 3204 3800 3575 3452 3742 3835 3814 3779 3812 3823 3784 3613 3839 3734 2805 2723 3746 3763 3864 3678 3822 3831 3863 3912 3919 3873 3802 3834 3804 3806

Tree=0
num_leaves=41
num_cat=0
split_feature=50 49 45 53 47 46 26 50 46 81 78 49 9 14 58 81 45 47 45 50 80 13 30 53 6 25 17 25 45 13 6 31 27 79 80 5 44 60 49 57
split_gain=1059.08 691.467 409.922 380.528 162.944 238.059 127.392 107.778 82.6397 99.751 87.8328 80.193 70.0015 68.3153 64.9041 57.7853 56.7457 114.977 83.2385 64.9838 49.9081 49.5928 47.5169 41.8701 49.9901 41.5662 41.5421 41.0182 37.2302 42.6091 33.1204 32.964 31.1637 30.3993 32.9828 30.4615 29.6972 29.4441 28.0063 27.0643
threshold=7.776542291807793e-05 0.00011069400196673044 824135.34450000024 107999.47500000002 0.88244258272233911 99453.763500000015 108013.45000000001 0.00010588406035170203 265679.46840000001 7.6412496934145637e-06 3.5279843588152043e-05 6.3988275171034314e-06 0.012500000000000002 109406.25000000001 0.0025000000000000005 1.2229110240678227e-05 254885.74715000004 -0.11499714273475568 28908.395250000005 3.6579057659596773e-05 -5.9442212567706312e-06 1.2950000000000002 109424.45000000001 108001.78481122946 107997.00000000001 7.6915000000000013 1.4795000000000003 1.0000000180025095e-35 437.55200000000008 0.8590000000000001 109394.75000000001 0.012500000000000002 0.040500000000000008 5.9520016602635085e-05 -1.8281857464774728e-05 0.43650000000000005 0.0065000000000000014 0.0055000000000000005 9.5987845212010977e-05 1.0000000180025095e-35
decision_type=2 2 2 2 2 2 2 2 2 2 2 2 2 2 2 2 2 2 2 2 2 2 2 2 2 2 2 2 2 2 2 2 2 2 2 2 2 2 2 2
left_child=1 3 6 12 16 26 39 11 9 30 14 13 27 -8 31 28 17 19 -19 -5 -17 -22 -13 -7 -25 -18 38 -1 -9 -30 -3 -11 -16 35 -35 -12 -29 -32 -6 -2
right_child=2 8 -4 4 5 23 7 15 -10 10 33 22 -14 -15 32 20 25 18 -20 -21 21 -23 -24 24 -26 -27 -28 36 29 -31 37 -33 -34 34 -36 -37 -38 -39 -40 -41
leaf_value=0.024114776135986317 -0.062622950116828516 0.0098576732799246242 -0.0036760562707334509 -0.0070041061275416426 0.011000406611304019 0.014903627761530534 -0.023133228902133325 -0.012634441868606129 0.0034926844915362338 0.023841692213841845 0.020746436420056434 -0.009627218098307206 0.1108157087328792 -0.093278423354300977 0.13067275929164032 -0.017419675267576994 -0.0034396362259453083 0.0041716444134647628 -0.0073828718492630436 -0.017940763734878601 -0.041431371050719229 -0.090491466455123432 0.034167885316622161 -0.0073679289443625926 -0.00098796605098726504 -0.060802601237083732 -0.004524146975054503 0.10819078117262684 -0.027999699368826091 -0.067288755267396083 0.014795953196653997 0.075099625288248567 0.063895535344670629 0.0077152085165144001 0.049085269592198041 0.044247758724278441 0.047393243202963856 0.081213531473666445 0.024510491499537858 -0.11935387316804165
leaf_weight=53 26 548 1504 1329 1925 195 1051 212 319 48 580 444 29 19 21 115 14049 1298 2365 1621 616 29 36 2055 8393 17 213 18 763 39 19 26 17 32 136 85 27 17 231 20
leaf_count=53 26 548 1504 1329 1925 195 1051 212 319 48 580 444 29 19 21 115 14049 1298 2365 1621 616 29 36 2055 8393 17 213 18 763 39 19 26 17 32 136 85 27 17 231 20
internal_value=-0.00356179 -0.0013712 -0.0195917 -0.00256453 -0.0028033 0.000410944 -0.0266947 -0.0258561 0.0204664 0.0240077 0.0313693 -0.0187934 0.0607784 -0.0243788 0.0618519 -0.032027 -0.00482583 -0.00762682 -0.00328848 -0.0130137 -0.0396701 -0.0436372 -0.00634254 -0.00192867 -0.00224283 -0.00350896 0.0109219 0.0459712 -0.0262984 -0.0299103 0.0120955 0.0418515 0.100799 0.0272708 0.0412054 0.0237504 0.0717128 0.0461604 0.0124479 -0.0872891
internal_weight=40540 35666 4874 33818 33691 13012 3370 3324 1848 1529 945 1550 127 1070 112 1774 20679 6613 3663 2950 760 645 480 10643 10448 14066 2369 98 1014 802 584 74 38 833 168 665 45 36 2156 46
internal_count=40540 35666 4874 33818 33691 13012 3370 3324 1848 1529 945 1550 127 1070 112 1774 20679 6613 3663 2950 760 645 480 10643 10448 14066 2369 98 1014 802 584 74 38 833 168 665 45 36 2156 46
is_linear=0
shrinkage=1


Tree=1
num_leaves=41
num_cat=0
split_feature=75 49 45 53 49 46 12 49 81 46 53 75 45 9 78 53 13 35 32 8 42 46 75 37 25 36 35 19 5 8 45 42 6 20 44 82 49 3 47 38
split_gain=982.843 641.695 381.861 353.137 152.725 194.597 115.21 88.4055 76.9483 92.8867 69.3608 66.2631 123.76 64.9626 63.419 62.4048 61.1792 60.5034 49.3895 45.9872 43.4947 40.3099 38.3337 45.7483 38.0657 38.04 43.3174 36.1006 35.0462 45.121 33.0001 32.9487 32.8002 28.5027 27.5595 27.093 26.1558 24.0959 23.5202 23.1302
threshold=7.776542291807793e-05 0.00011069400196673044 300075.52185000008 107999.47500000002 5.6703654093381274e-05 236114.55990000002 107993.65000000001 3.5782378138937559e-05 6.1220796925354864e-06 326412.32100000005 109420.88750000003 5.272101485134462e-05 335294.08245000005 0.012500000000000002 3.3468987651004999e-05 108001.78481122946 1.1435000000000002 1.0000000180025095e-35 109422.8 108061.65000000001 1.1244532003609986 11398.458200000003 2.5845630145272459e-06 1.8095000000000001 1.0000000180025095e-35 109425.20000000003 0.10150000000000002 0.0065000000000000014 0.45850000000000007 109279.95000000001 28908.395250000005 1.2622584490361832 109394.75000000001 108010.45000000001 0.0065000000000000014 1.336367473725953e-05 0.00017638162289931042 1.5630000000000004 0.9692913916206386 109425.05000000002
decision_type=2 2 2 2 2 2 2 2 2 2 2 2 2 2 2 2 2 2 2 2 2 2 2 2 2 2 2 2 2 2 2 2 2 2 2 2 2 2 2 2
left_child=1 3 6 13 11 27 33 10 32 14 16 15 -13 24 17 35 18 -10 -8 -17 -18 -19 -7 -24 38 -12 -27 30 31 -30 -6 -16 36 -2 -26 -5 -3 -11 -1 -29
right_child=2 8 -4 4 5 22 7 -9 9 37 25 12 -14 -15 28 19 20 21 -20 -21 -22 -23 23 -25 34 26 -28 39 29 -31 -32 -33 -34 -35 -36 -37 -38 -39 -40 -41
leaf_value=0.0097934745858455907 -0.056543845080106923 0.0089104852244346368 -0.0018398908275218731 0.02747751676419442 0.020902753970942722 0.0028847495715886907 -0.023135296125730852 -0.0045977765681242122 0.12072787246250127 0.010073929779833393 -0.034590010563913948 -0.01507660735399893 0.0014411015394616162 0.11009977945880245 0.039565381587609701 -0.0046878188920028725 -0.027059055565027822 0.026409985736390824 0.00088136208117381562 0.00035357584338000121 -0.071210889423991425 0.075518931458044308 -0.0033909944746934899 -0.037790532659515763 0.10757108796767283 -0.096795710000091073 -0.029499039759475324 0.0089196895159469498 0.10248473354509324 0.038776540660161223 -0.0051543015690643235 0.02271753225092708 0.04858061379457311 -0.12013952447550395 0.049002542610876977 0.0051163305278294317 0.049665468842041399 -0.035400693359948249 0.062118997665481325 0.031868323741742706
leaf_weight=36 20 559 1754 153 979 3407 2358 333 18 199 94 1153 1294 29 212 2743 61 53 121 21459 59 39 942 55 18 36 20 1235 18 88 70 591 32 18 27 139 22 17 17 62
leaf_count=36 20 559 1754 153 979 3407 2358 333 18 199 94 1153 1294 29 212 2743 61 53 121 21459 59 39 942 55 18 36 20 1235 18 88 70 591 32 18 27 139 22 17 17 62
internal_value=-8.4346e-05 0.00202593 -0.0155265 0.000876354 0.000646333 0.00557781 -0.0232209 -0.0224386 0.0230629 0.0283337 -0.0245997 -0.000589234 -0.00634186 0.061897 0.0329629 -1.45349e-05 -0.0232006 0.0592556 -0.021963 -0.000217804 -0.0487672 0.0472281 0.0010344 -0.00528868 0.0476327 -0.0488409 -0.0727616 0.0141068 0.0297811 0.0495951 0.0191639 0.0271656 0.0124441 -0.0866687 0.0724305 0.016833 0.0104537 0.00649482 0.0265775 0.0100167
internal_weight=40540 35666 4874 33818 33691 6750 3120 3082 1848 1235 2749 26941 2447 127 1019 24494 2599 110 2479 24202 120 92 4404 997 98 150 56 2346 909 106 1049 803 613 38 45 292 581 216 53 1297
internal_count=40540 35666 4874 33818 33691 6750 3120 3082 1848 1235 2749 26941 2447 127 1019 24494 2599 110 2479 24202 120 92 4404 997 98 150 56 2346 909 106 1049 803 613 38 45 292 581 216 53 1297
is_linear=0
shrinkage=0.0366627


Tree=2
num_leaves=41
num_cat=0
split_feature=50 49 53 45 47 46 34 46 50 37 45 47 45 27 22 81 2 50 80 80 45 39 15 49 29 81 43 60 50 32 0 29 29 8 53 7 46 68 44 49
split_gain=875.905 642.074 344.331 325.535 153.509 193.176 103.16 100.218 98.0209 78.9053 75.8611 103.979 87.7982 74.2345 72.6846 68.7234 65.4683 63.5524 57.9422 55.1144 52.8882 52.2173 57.9254 51.6829 47.6185 50.0605 42.2488 40.2586 39.3384 37.1288 60.8699 35.635 34.8062 34.2183 46.8413 32.5684 28.631 28.622 26.5227 23.551
threshold=7.776542291807793e-05 0.00010596187611691567 107999.47500000002 338590.93935000006 0.83335399619803285 53771.049000000006 108091.05000000002 235111.32300000003 9.6013962057303861e-05 1.3575000000000002 214091.43110000005 -0.11499714273475568 32104.83555 1.0000000180025095e-35 108004.75000000001 1.1813229980450081e-05 109406.75000000001 3.6579057659596773e-05 -4.5692061429458688e-06 -1.0000000180025095e-35 180019.99000000002 0.047500000000000007 0.14250000000000002 9.5987845212010977e-05 0.021500000000000002 2.5619645989722072e-05 0.010500000000000004 0.90050000000000019 1.7230516993919449e-05 109424.45000000001 109405.65000000001 0.81900000000000006 0.0025000000000000005 107993.35000000002 108001.78481122946 0.0055000000000000005 3996.0851000000002 0.14150000000000004 3.2040000000000006 2.9243712788469593e-05
decision_type=2 2 2 2 2 2 2 2 2 2 2 2 2 2 2 2 2 2 2 2 2 2 2 2 2 2 2 2 2 2 2 2 2 2 2 2 2 2 2 2
left_child=1 2 13 6 10 23 9 15 29 18 11 17 -13 35 -15 -3 19 -4 -2 -10 -21 24 31 28 25 -17 37 32 -6 -8 -31 -23 -18 34 -7 -1 -25 -20 -26 -12
right_child=3 7 4 -5 5 33 8 -9 16 -11 39 12 -14 14 -16 21 27 -19 26 20 -22 22 -24 36 38 -27 -28 -29 -30 30 -32 -33 -34 -35 -36 -37 -38 -39 -40 -41
leaf_value=0.012171691457702348 -0.016910883881407646 0.018819721400184244 -0.0036964399303754665 -0.0018097027429772932 0.014964682138567225 0.031277129837344542 -0.012521092085556906 0.0065624503765633613 -0.006750329936897977 -0.0034901141084687452 0.00011250361879098422 0.0077719874028514269 -0.005629197873725557 0.031300611669383659 0.12001641466559901 0.043571180113806306 -0.08060024516439758 -0.015084308021629994 -0.031844875860237563 -0.023032053831141243 -0.04166577721622574 0.013903329358427197 0.075474102159799883 0.053659599078612535 0.021130192466855807 0.083731392335745419 -0.12178146289007395 -0.094610241031936923 -0.0022502973662081177 0.061056887333086875 -0.0070338003999614587 0.068673156713535202 -0.022852799160597348 0.0026667377340260116 -0.0044698229521182367 0.065439621940434192 0.022505720687403547 -0.096362108516934705 0.068163509434573694 -0.012283792046287911
leaf_weight=36 19 864 1145 1717 1423 51 782 459 239 29 14367 1122 1586 18 40 252 20 1551 19 1546 236 263 25 63 154 50 30 25 204 25 60 17 47 10116 1454 27 107 18 18 209
leaf_count=36 19 864 1145 1717 1423 51 782 459 239 29 14367 1122 1586 18 40 252 20 1551 19 1546 236 263 25 63 154 50 30 25 204 25 60 17 47 10116 1454 27 107 18 18 209
internal_value=6.91229e-05 0.00205245 0.000819815 -0.0146125 0.000596149 0.00362924 -0.0217151 0.0217083 -0.0204002 -0.055788 -0.00144079 -0.00515099 -7.67059e-05 0.0625552 0.0924843 0.0259396 -0.0246595 -0.0102479 -0.0734231 -0.0232826 -0.0254998 0.0338363 0.022003 0.014816 0.0414506 0.0502203 -0.0894487 -0.0549064 0.0128062 -0.0100197 0.0129927 0.0172287 -0.0400912 0.00189938 -0.00325845 0.0350011 0.0340511 -0.0632322 0.0260524 -6.52412e-05
internal_weight=40433 35621 33519 4812 33398 13418 3095 2102 2980 115 19980 5404 2708 121 58 1643 2113 2696 86 2021 1782 779 305 1797 474 302 67 92 1627 867 85 280 67 11621 1505 63 170 37 172 14576
internal_count=40433 35621 33519 4812 33398 13418 3095 2102 2980 115 19980 5404 2708 121 58 1643 2113 2696 86 2021 1782 779 305 1797 474 302 67 92 1627 867 85 280 67 11621 1505 63 170 37 172 14576
is_linear=0
shrinkage=0.0366627


Tree=3
num_leaves=41
num_cat=0
split_feature=50 49 53 45 47 46 34 46 50 37 45 47 45 27 22 81 2 50 80 80 64 39 15 49 29 81 43 60 50 32 0 29 29 24 53 7 41 46 68 44
split_gain=812.857 595.857 319.546 302.103 142.46 179.271 95.7343 93.0044 90.9653 73.2256 70.4006 96.4941 81.4784 68.891 67.4526 63.7766 60.7558 58.9778 53.7714 51.1472 51.1816 48.4586 53.7559 47.9627 44.1908 47.6464 39.2076 37.3607 36.5067 34.6068 53.6369 33.0699 32.3008 32.0273 37.9439 30.2241 28.0962 26.5701 26.5617 24.6135
threshold=7.776542291807793e-05 0.00010596187611691567 107999.47500000002 338590.93935000006 0.83335399619803285 53771.049000000006 108091.05000000002 235111.32300000003 9.6013962057303861e-05 1.3575000000000002 214091.43110000005 -0.11499714273475568 32104.83555 1.0000000180025095e-35 108004.75000000001 1.1813229980450081e-05 109406.75000000001 3.6579057659596773e-05 -4.5692061429458688e-06 -1.0000000180025095e-35 0.036500000000000012 0.047500000000000007 0.14250000000000002 9.5987845212010977e-05 0.021500000000000002 3.1713607988471681e-05 0.010500000000000004 0.90050000000000019 1.7230516993919449e-05 109423.65000000001 109405.65000000001 0.81900000000000006 0.0025000000000000005 108011.65000000001 108001.78481122946 0.0055000000000000005 9.150000000001457 3996.0851000000002 0.14150000000000004 3.2040000000000006
decision_type=2 2 2 2 2 2 2 2 2 2 2 2 2 2 2 2 2 2 2 2 2 2 2 2 2 2 2 2 2 2 2 2 2 2 2 2 2 2 2 2
left_child=1 2 13 6 10 23 9 15 29 18 11 17 -13 35 -15 -3 19 -4 -2 -10 -21 24 31 28 25 -17 38 32 -6 36 -31 -23 -18 34 -7 -1 -8 -25 -20 -26
right_child=3 7 4 -5 5 33 8 -9 16 -11 -12 12 -14 14 -16 21 27 -19 26 20 -22 22 -24 37 39 -27 -28 -29 -30 30 -32 -33 -34 -35 -36 -37 -38 -39 -40 -41
leaf_value=0.011725445505002968 -0.016290887288385757 0.018129740405069969 -0.0035609185650755147 -0.0017433542891113203 0.014416037051048844 0.019608796351137516 -0.032846741349910391 0.0063218532480971076 -0.0065028448598010869 -0.003362157378888308 -6.2849277649447278e-05 0.0074870456996798344 -0.0054228163412651667 0.030153051362538475 0.11561629720875216 0.044822339372818758 -0.077645232808158951 -0.014531276726277244 -0.0306773627640008 -0.01891851686273114 -0.031402270274540789 0.01339359640228828 0.072707025478264783 0.051692294254567943 0.02035550310135447 0.10800554627089276 -0.11731663881848846 -0.091141584438621151 -0.0021677953628649444 0.054816783436150776 -0.0057764023999929814 0.066155423977103639 -0.022014955638614494 0.0026319562430653131 -0.0041120421565292685 0.063040434413636243 -0.0098909884767235511 0.021680601106263662 -0.092829227098336783 0.065664458677792623
leaf_weight=36 19 864 1145 1717 1423 96 80 459 239 29 14576 1122 1586 18 40 285 20 1551 19 976 806 263 25 63 154 17 30 25 204 27 72 17 47 9901 1624 27 688 107 18 18
leaf_count=36 19 864 1145 1717 1423 96 80 459 239 29 14576 1122 1586 18 40 285 20 1551 19 976 806 263 25 63 154 17 30 25 204 27 72 17 47 9901 1624 27 688 107 18 18
internal_value=6.65887e-05 0.0019772 0.000789759 -0.0140768 0.000574293 0.00349618 -0.020919 0.0209125 -0.0196523 -0.0537427 -0.00138796 -0.00496214 -7.38933e-05 0.0602618 0.0890936 0.0249886 -0.0237554 -0.00987214 -0.0707312 -0.022429 -0.0245649 0.0325958 0.0211963 0.0142728 0.0399309 0.0483791 -0.0861693 -0.0528934 0.0123367 -0.00965237 0.0107488 0.0165971 -0.0386213 0.00182975 -0.00278808 0.0337179 -0.0122822 0.0328027 -0.060914 0.0250973
internal_weight=40433 35621 33519 4812 33398 13418 3095 2102 2980 115 19980 5404 2708 121 58 1643 2113 2696 86 2021 1782 779 305 1797 474 302 67 92 1627 867 99 280 67 11621 1720 63 768 170 37 172
internal_count=40433 35621 33519 4812 33398 13418 3095 2102 2980 115 19980 5404 2708 121 58 1643 2113 2696 86 2021 1782 779 305 1797 474 302 67 92 1627 867 99 280 67 11621 1720 63 768 170 37 172
is_linear=0
shrinkage=0.0366627


Tree=4
num_leaves=41
num_cat=0
split_feature=50 49 45 53 47 46 46 45 47 16 45 46 28 23 41 49 80 44 79 19 50 4 25 53 53 9 25 35 13 15 11 35 50 23 39 27 46 23 41 79
split_gain=770.522 588.233 286.051 277.737 143.253 157.996 74.2166 73.6431 109.935 71.8356 57.1504 55.5462 51.207 72.0708 50.1221 49.7732 45.2247 56.6271 41.1676 40.8419 39.4724 48.9171 41.9685 39.4578 46.1814 37.9545 34.1413 32.1134 32.0168 31.9547 31.7451 31.6622 30.9897 29.8458 29.9658 29.3178 28.582 27.5194 33.7885 27.3116
threshold=9.6013962057303861e-05 0.00010596187611691567 583918.05195000011 107999.47500000002 0.89583711353000162 53771.049000000006 286851.99955000001 254885.74715000004 -0.11499714273475568 107995.15000000001 32104.83555 59610.873750000006 109301.05000000002 0.064500000000000016 12.049999999995636 9.5987845212010977e-05 -4.5692061429458688e-06 0.049500000000000009 3.6108967827936209e-05 1.0000000180025095e-35 0.00013813797516383129 109340.25000000001 0.14550000000000002 108001.78481122946 108001.80060680603 0.012500000000000002 7.6915000000000013 0.0055000000000000005 0.30450000000000005 0.082500000000000018 0.0055000000000000005 0.0035000000000000005 1.7230516993919449e-05 0.0065000000000000014 0.07350000000000001 0.014500000000000001 218.82970000000003 0.13550000000000004 12.900000000001457 5.7414125191677083e-05
decision_type=2 2 2 2 2 2 2 2 2 2 2 2 2 2 2 2 2 2 2 2 2 2 2 2 2 2 2 2 2 2 2 2 2 2 2 2 2 2 2 2
left_child=1 3 12 25 7 15 11 8 9 -5 -10 18 13 14 -2 32 -16 -18 -3 -13 21 22 -14 -7 -25 29 -9 -21 36 -1 -31 -24 -6 34 -20 -17 -22 -15 -39 -38
right_child=2 6 -4 4 5 23 -8 26 10 -11 -12 19 20 37 16 35 17 -19 33 27 28 -23 31 24 -26 -27 -28 -29 -30 30 -32 -33 -34 -35 -36 -37 39 38 -40 -41
leaf_value=0.08548029049348578 -0.021263852955548487 0.014239342447599449 0.00040889474184948633 -0.048807339089609943 0.013821327866412254 0.019471818147689779 0.0064245309066880566 -2.0881993508651045e-05 0.0059902432347099513 -0.008364261702187837 -0.0034076071723940205 0.074654977236931749 -0.0064514293380977155 0.00093290503076353 -0.018850688219541594 0.02532762030982447 -0.055986818829919509 -0.11296580867033369 0.045474882553942109 0.022814314443750226 -0.022198125423547356 -0.02454060052231407 -0.076079885966069072 -0.0048422553567531237 0.002330889700417641 0.092874546740945127 -0.04919815876333275 0.044668502331017566 -0.059167234707547055 0.07157207772536707 0.018447823921481768 -0.022763497813565625 -0.0015682336785468232 0.020077606483774171 0.017279123671011615 0.064944918553228273 -0.064108860030994724 -0.07406189455376197 -0.022067207736367285 -0.028419911387463161
leaf_weight=20 45 730 883 60 1360 165 417 14845 1323 3666 2539 33 504 54 22 105 64 37 171 213 335 832 18 1385 9356 28 19 157 48 21 54 89 202 320 72 33 49 20 105 70
leaf_count=20 45 730 883 60 1360 165 417 14845 1323 3666 2539 33 504 54 22 105 64 37 171 213 335 832 18 1385 9356 28 19 157 48 21 54 89 202 320 72 33 49 20 105 70
internal_value=1.74089e-05 0.00149348 -0.0173208 0.000365051 0.0001721 0.00329978 0.0202816 -0.00158398 -0.00452276 -0.00901552 -0.000188194 0.0236887 -0.0241512 -0.0371253 -0.0543723 0.0136958 -0.066485 -0.0768605 0.0199845 0.0355734 -0.0218365 -0.0187559 -0.0108788 0.00167927 0.00140595 0.0553606 -8.37446e-05 0.0320876 -0.0306916 0.0443036 0.0333229 -0.0317328 0.0118311 0.0274337 0.0371207 0.0348015 -0.0276809 -0.0209381 -0.0303865 -0.0431155
internal_weight=40469 37294 3175 35181 35058 12606 2113 22452 7588 3726 3862 1696 2292 347 168 1700 123 101 1293 403 1945 1443 611 10906 10741 123 14864 370 502 95 75 107 1562 563 243 138 454 179 125 119
internal_count=40469 37294 3175 35181 35058 12606 2113 22452 7588 3726 3862 1696 2292 347 168 1700 123 101 1293 403 1945 1443 611 10906 10741 123 14864 370 502 95 75 107 1562 563 243 138 454 179 125 119
is_linear=0
shrinkage=0.0366627


Tree=5
num_leaves=41
num_cat=0
split_feature=50 49 45 53 47 46 45 50 46 41 16 81 78 11 28 23 41 50 45 80 44 49 80 50 4 13 45 25 46 80 80 9 53 29 25 25 11 71 2 7
split_gain=715.059 545.891 265.46 257.745 134.615 133.749 129.939 80.8786 68.8744 57.7595 56.6943 56.3537 63.0584 61.7532 47.5211 66.8831 46.5142 42.0211 44.324 41.9694 52.5509 41.4681 36.7428 44.6715 47.8517 47.4201 43.4181 43.3867 36.8642 36.2159 37.207 35.2224 34.5606 30.3262 30.0233 29.6905 35.789 28.2044 26.5403 39.6306
threshold=9.6013962057303861e-05 0.00010596187611691567 583918.05195000011 107999.47500000002 -0.49839748497004205 53771.049000000006 65864.658100000015 3.3823366436844651e-05 286851.99955000001 10.400000000001457 107994.35000000002 1.107401143364894e-05 3.5279843588152043e-05 1.0000000180025095e-35 109301.05000000002 0.064500000000000016 12.049999999995636 9.3979941912143074e-07 300075.52185000008 -4.5692061429458688e-06 0.049500000000000009 1.9697030700208565e-05 -1.0000000180025095e-35 0.00013813797516383129 109340.25000000001 0.30450000000000005 169236.6465 0.14550000000000002 218.82970000000003 4.6261086469323595e-06 -1.0000000180025095e-35 0.012500000000000002 108001.78481122946 0.0035000000000000005 7.6915000000000013 0.0015000000000000002 0.0055000000000000005 1.6745000000000003 109387.55000000002 0.032500000000000008
decision_type=2 2 2 2 2 2 2 2 2 2 2 2 2 2 2 2 2 2 2 2 2 2 2 2 2 2 2 2 2 2 2 2 2 2 2 2 2 2 2 2
left_child=1 3 14 31 6 7 10 9 11 -6 -5 38 13 -13 15 16 -2 32 -19 -18 -21 -12 -16 24 27 28 -26 -24 -25 30 -14 35 -7 -15 -8 36 -1 -9 -3 -40
right_child=2 8 -4 4 5 17 34 37 -10 -11 21 12 29 33 22 -17 19 18 -20 20 -22 -23 23 25 26 -27 -28 -29 -30 -31 -32 -33 -34 -35 -36 -37 -38 -39 39 -41
leaf_value=0.064311837858324838 -0.020484263962670671 0.013433049577058447 0.000393903772296614 -0.064832468659769424 0.010625082946507096 0.018490129103426421 -0.0012693324491536771 0.003288373659329543 0.0061889904477136111 0.028671219507970861 -0.013679023357764901 0.11619897112507763 0.0098539237699206347 0.075739377596884538 -0.0072075025086012325 -0.020170465678582047 -0.018159573217400381 -0.0040737092177507142 0.010675862066949314 -0.053934194768356716 -0.10882418682322301 0.0023789606827752563 -0.0068458086051604071 -0.023090151793126956 -0.021752474810549864 -0.075308697334141209 -0.046164018702545953 -0.033668119950306531 -0.04872018234372081 0.0048183795470833207 0.03302239042270038 0.089469524920141208 0.0014129537003315686 0.027958233182266992 -0.047394428305905935 0.072849179861190369 0.0079399560974831602 -0.012360946910115822 0.022308464293420316 0.076253931504202274
leaf_weight=24 45 723 883 27 1881 161 11418 799 417 273 1451 19 113 26 228 179 22 3257 299 64 37 254 469 298 601 33 117 98 101 96 531 28 15027 57 19 30 41 192 109 22
leaf_count=24 45 723 883 27 1881 161 11418 799 417 273 1451 19 113 26 228 179 22 3257 299 64 37 254 469 298 601 33 117 98 101 96 531 28 15027 57 19 30 41 192 109 22
internal_value=1.67707e-05 0.00143873 -0.0166857 0.000351668 0.000165791 0.00192793 -0.00276318 0.00892437 0.019538 0.0129123 -0.0121215 0.0228202 0.0295507 0.0565752 -0.0232657 -0.0357642 -0.0523789 0.000754022 -0.00283351 -0.0640475 -0.0740426 -0.0112868 -0.0210359 -0.0228722 -0.0194433 -0.0330714 -0.0257304 -0.0114818 -0.029578 0.0258257 0.0289571 0.053331 0.00159398 0.0429261 -0.00134596 0.0426794 0.0287545 0.000256398 0.0161842 0.0313682
internal_weight=40469 37294 3175 35181 35058 21889 13169 3145 2113 2154 1732 1696 842 102 2292 347 168 18744 3556 123 101 1705 1945 1717 1285 432 718 567 399 740 644 123 15188 83 11437 95 65 991 854 131
internal_count=40469 37294 3175 35181 35058 21889 13169 3145 2113 2154 1732 1696 842 102 2292 347 168 18744 3556 123 101 1705 1945 1717 1285 432 718 567 399 740 644 123 15188 83 11437 95 65 991 854 131
is_linear=0
shrinkage=0.0366627


Tree=6
num_leaves=41
num_cat=0
split_feature=50 49 53 45 49 46 20 53 46 50 45 45 83 41 53 12 24 2 40 25 13 23 50 46 58 22 81 80 80 15 82 2 57 28 1 8 47 50 37 57
split_gain=671.373 437.725 268.189 244.983 113.756 134.527 62.5505 62.9446 59.9017 58.1081 84.1174 55.8784 48.3433 48.1352 47.0399 42.9075 50.5745 49.4359 46.5218 42.0765 41.7573 41.5579 40.7467 47.0246 37.6414 37.1084 35.2231 44.2126 32.0285 36.8797 30.3387 28.7664 27.796 26.9729 26.8149 26.3727 25.9165 25.8485 37.0125 23.6707
threshold=8.6005085242501602e-05 0.00010824012801731762 107999.47500000002 300075.52185000008 5.6703654093381274e-05 219467.43775000004 108070.05000000002 109420.88750000003 372859.51950000011 3.5645164644927298e-05 318922.0147 44060.453450000008 5.7426151831608325e-06 8.150000000001457 108001.78481122946 109393.15000000001 109423.85000000002 109400.25000000001 109387.62500000001 1.8335000000000001 1.0000000180025095e-35 1.0000000180025095e-35 2.917599832320652e-05 218.63340000000002 1.8335000000000001 108006.85000000002 1.0875334121878258e-05 1.2810087028469754e-05 -1.0000000180025095e-35 0.0035000000000000005 1.039539063886652e-05 107993.35000000002 1.0195000000000001 109401.65000000001 0.063500000000000015 109388.75000000001 -0.55002631114368727 2.7151023517352693e-06 1.8095000000000001 1.0000000180025095e-35
decision_type=2 2 2 2 2 2 2 2 2 2 2 2 2 2 2 2 2 2 2 2 2 2 2 2 2 2 2 2 2 2 2 2 2 2 2 2 2 2 2 2
left_child=1 2 13 6 9 22 31 19 15 14 12 -9 -11 21 30 18 17 34 26 28 -15 -1 23 -6 -10 -16 -3 -28 -8 -30 -4 -2 -24 -20 -17 -35 -12 -7 -39 -18
right_child=3 8 4 -5 5 37 7 11 24 10 36 -13 -14 20 25 16 39 -19 33 -21 -22 -23 32 -25 -26 -27 27 -29 29 -31 -32 -33 -34 35 -36 -37 -38 38 -40 -41
leaf_value=0.076686856004161946 -0.033904551719239902 0.016662020557887246 0.035826492011493107 -0.0011658039064929332 0.033543969704948474 0.0024522524104400394 -0.0065440698766355328 -0.032126405634361484 0.0070493940067173745 -0.056851969421806238 -0.00069098582718330425 -0.090137987707898007 -0.0084098754077304421 0.048030920781367732 -0.0064763751081840081 0.080432720689298048 0.046704337822364925 0.11781112233050357 0.00058063675948653002 -0.057266798386523599 0.12712686734875425 0.022871930204676105 0.0056521708841270743 0.012695489381316783 -0.047510148014629369 0.00033588402559923497 0.033211386810661769 -0.0044282834011164455 -0.02453703533587473 -0.014941402596538882 0.0073611081856605007 -0.084790862373309878 -0.021826994440633844 0.056109301702538993 0.023828916023191898 0.01347209013687979 0.01378560852033143 -0.0026335829386350831 -0.03446255135746331 0.010938043240564155
leaf_weight=28 32 561 75 1282 160 3529 295 110 305 28 2730 28 2510 17 1133 18 38 17 237 37 19 62 375 1596 18 20933 476 46 1010 1153 153 28 57 24 30 104 177 883 52 72
leaf_count=28 32 561 75 1282 160 3529 295 110 305 28 2730 28 2510 17 1133 18 38 17 237 37 19 62 375 1596 18 20933 476 46 1010 1153 153 28 57 24 30 104 177 883 52 72
internal_value=-4.97668e-05 0.00150998 0.000556185 -0.0143574 0.000360575 0.00466641 -0.0206373 -0.0197938 0.0184278 -0.000671992 -0.0040674 -0.043897 -0.00894431 0.0539468 0.000157288 0.0212973 0.0384448 0.0640845 0.0192249 -0.0184606 0.0897766 0.0396146 0.0121136 0.0145951 0.00400886 -1.38972e-05 0.02304 0.0298944 -0.0178765 -0.019422 0.0167248 -0.0576519 0.0020264 0.00790513 0.0450558 0.0214667 0.000190452 0.00101623 -0.00440377 0.0232939
internal_weight=40438 36463 34517 3975 34391 6652 2693 2633 1946 27739 5445 138 2538 126 22294 1623 175 65 1448 2495 36 90 2188 1756 323 22066 1083 522 2458 2163 228 60 432 365 48 128 2907 4464 935 110
internal_count=40438 36463 34517 3975 34391 6652 2693 2633 1946 27739 5445 138 2538 126 22294 1623 175 65 1448 2495 36 90 2188 1756 323 22066 1083 522 2458 2163 228 60 432 365 48 128 2907 4464 935 110
is_linear=0
shrinkage=0.0366627


Tree=7
num_leaves=41
num_cat=0
split_feature=50 49 53 45 49 46 20 53 46 50 45 45 83 41 53 37 0 27 46 25 13 23 24 50 46 5 60 22 31 7 80 15 82 49 2 47 50 37 31 25
split_gain=623.047 406.217 248.884 227.349 105.567 124.843 58.048 58.4138 55.5899 53.9254 78.0625 51.8561 44.8635 44.6704 43.6539 40.2752 43.2343 40.5096 39.4777 39.451 38.7515 38.5665 38.1772 37.8137 43.6397 36.9161 35.4421 34.4373 33.3902 36.3997 30.9689 35.2355 28.1549 27.6544 26.6957 24.5778 24.0268 34.5635 23.4414 23.2792
threshold=8.6005085242501602e-05 0.00010824012801731762 107999.47500000002 300075.52185000008 5.6703654093381274e-05 219467.43775000004 108070.05000000002 109420.88750000003 372859.51950000011 3.5645164644927298e-05 318922.0147 44060.453450000008 5.7426151831608325e-06 8.150000000001457 108001.78481122946 0.024500000000000004 109404.55000000002 1.2775000000000001 59610.873750000006 2.1760000000000006 1.0000000180025095e-35 1.0000000180025095e-35 109424.95000000001 2.917599832320652e-05 218.63340000000002 1.0000000180025095e-35 2.4385000000000008 108006.85000000002 0.0025000000000000005 0.0025000000000000005 -1.0000000180025095e-35 0.0035000000000000005 1.039539063886652e-05 9.7199501377567748e-05 107993.35000000002 -0.87529698564546632 2.5845630145272459e-06 1.8095000000000001 0.0055000000000000005 1.0000000180025095e-35
decision_type=2 2 2 2 2 2 2 2 2 2 2 2 2 2 2 2 2 2 2 2 2 2 2 2 2 2 2 2 2 2 2 2 2 2 2 2 2 2 2 2
left_child=1 2 13 6 9 23 34 19 15 14 12 -9 -11 21 32 16 18 28 38 30 -15 -1 -18 24 -6 -20 -10 -16 -17 -30 -8 -32 -4 -25 -2 -12 -7 -38 -3 -23
right_child=3 8 4 -5 5 36 7 11 26 10 35 -13 -14 20 27 17 22 -19 25 -21 -22 39 -24 33 -26 -27 -28 -29 29 -31 31 -33 -34 -35 -36 -37 37 -39 -40 -41
leaf_value=0.073875316555404483 -0.03266152251416083 0.028774286086630151 0.034512998775372221 -0.0011230624459256128 0.032314158190284312 0.002398054436406703 -0.0062247829531185458 -0.030948566332143188 0.0068122543319023583 -0.05476762963926575 -0.0011178430277597798 -0.086833295692606963 -0.0081015470159852328 0.046269985403354669 -0.0062389339384695836 0.0070820029645419034 0.10510165238797556 0.056988382483724703 0.021461982578595558 -0.064562803369888733 0.12246606904706238 0.0070996155903136878 0.031193200525123206 -0.00062697806741365304 0.012230038669115715 0.054045455915948663 -0.04612939158489647 0.00032356956626748343 0.012672529178062214 0.04073699001427844 -0.023829553142670976 -0.014474496675734205 0.0070912303401630822 0.035314367927932855 -0.081682207751577529 0.0089164606764484018 -0.0024755245742851756 -0.033199063536456012 0.014153239159250562 0.055829781443361676
leaf_weight=28 32 240 75 1282 160 3492 297 110 305 28 2530 28 2510 17 1133 482 17 29 87 24 19 43 21 401 1596 101 18 20933 164 100 1016 1158 153 31 28 377 920 52 382 19
leaf_count=28 32 240 75 1282 160 3492 297 110 305 28 2530 28 2510 17 1133 482 17 29 87 24 19 43 21 401 1596 101 18 20933 164 100 1016 1158 153 31 28 377 920 52 382 19
internal_value=-4.79421e-05 0.00145462 0.000535794 -0.0138311 0.000347355 0.00449533 -0.0198807 -0.0190681 0.0177522 -0.000647355 -0.00391828 -0.0422877 -0.00861639 0.051969 0.000151522 0.0205165 0.0260378 0.0144752 0.0242447 -0.0177838 0.0864852 0.0381622 0.0642581 0.0116694 0.01406 0.038967 0.00386188 -1.33877e-05 0.0128225 0.0233031 -0.0173295 -0.0188465 0.0161116 0.00195211 -0.0555382 0.000183469 0.000978973 -0.00411919 0.0197948 0.0220334
internal_weight=40438 36463 34517 3975 34391 6652 2693 2633 1946 27739 5445 138 2538 126 22294 1623 848 775 810 2495 36 90 38 2188 1756 188 323 22066 746 264 2471 2174 228 432 60 2907 4464 972 622 62
internal_count=40438 36463 34517 3975 34391 6652 2693 2633 1946 27739 5445 138 2538 126 22294 1623 848 775 810 2495 36 90 38 2188 1756 188 323 22066 746 264 2471 2174 228 432 60 2907 4464 972 622 62
is_linear=0
shrinkage=0.0366627


Tree=8
num_leaves=41
num_cat=0
split_feature=49 50 46 45 40 53 50 45 49 49 19 81 34 80 81 53 25 53 80 17 50 57 39 15 43 47 9 8 45 46 82 50 46 25 49 41 4 37 48 24
split_gain=507.672 375.254 256.246 183.192 129.956 97.2862 66.3137 119.447 71.6226 57.5165 55.4835 52.4871 67.882 43.88 55.3495 42.5044 40.6828 40.1556 45.4606 41.8819 37.7374 34.0018 32.3009 30.2284 27.5619 48.0053 27.6909 26.7534 36.29 35.6917 26.2675 25.5204 25.2172 25.1175 24.9099 21.8243 21.2214 20.9115 20.7544 19.6067
threshold=7.2887285289592794e-05 9.9011605053038614e-05 256680.67605000004 532005.70840000024 108001.57500000003 108001.01403413921 3.5645164644927298e-05 352636.33500000002 3.5782378138937559e-05 9.5987845212010977e-05 1.5600000000000003 1.2229110240678227e-05 108091.05000000002 4.6261086469323595e-06 1.2001270492754393e-05 109419.47200990656 0.11250000000000002 109420.88750000003 -5.9442212567706312e-06 0.06950000000000002 0.00017304205032605931 0.0055000000000000005 0.49350000000000005 0.44850000000000007 0.0025000000000000005 0.95006493506493517 0.012500000000000002 108061.65000000001 109.38300000000002 89633.831000000006 4.0433734022413883e-06 2.5845630145272459e-06 327.90450000000004 5.7990000000000013 1.0095429190747753e-05 15.849999999998547 109401.25000000001 1.8095000000000001 109417.89647237735 108010.45000000001
decision_type=2 2 2 2 2 2 2 2 2 2 2 2 2 2 2 2 2 2 2 2 2 2 2 2 2 2 2 2 2 2 2 2 2 2 2 2 2 2 2 2
left_child=1 5 4 11 -2 24 27 8 15 36 13 16 -13 14 -11 -8 20 18 -14 -19 -3 -22 32 -15 25 -1 -27 -7 29 -29 -10 35 -18 -30 -9 -4 -6 39 -38 -33
right_child=2 3 31 -5 9 6 7 34 30 10 -12 12 17 23 -16 -17 22 19 -20 -21 21 -23 -24 -25 -26 26 -28 28 33 -31 -32 37 -34 -35 -36 -37 38 -39 -40 -41
leaf_value=0.072453408310594464 0.098492237223159584 -0.010527710637952136 0.0037353656458619165 0.0018358199538900774 0.0083664523158092467 -0.0030112387459502788 -0.011046362088514372 5.6373974856231855e-05 0.038360400288656497 0.018177464238266258 0.0065699406630600225 -0.079859822268085037 -0.002528174796437019 -0.0034394719240201594 0.032220190744180657 -0.035219586480437222 -0.01855697178464414 -0.082119550506442054 -0.026169439698396076 -0.025845785494308823 -0.073209196044383987 -0.0060024132340560522 -0.076826218292385173 0.047455932072785714 0.011540013000075962 0.0045984718642819557 0.050792425624135384 0.010194196063305398 5.9282109943571763e-05 0.0017679005209360144 -0.0005844296535611835 -0.028728321489238078 -0.052420129360833262 -0.036002396852183184 0.012977957706126881 0.034682010253420929 0.058802233938047642 -0.034633011620316428 0.017175368825972322 -0.00097871856012652411
leaf_weight=33 26 994 2574 699 1092 3046 2359 3187 24 831 344 31 131 122 691 102 147 32 661 40 25 17 18 18 158 53 26 950 17573 2340 775 36 37 26 214 31 21 28 69 694
leaf_count=33 26 994 2574 699 1092 3046 2359 3187 24 831 344 31 131 122 691 102 147 32 661 40 25 17 18 18 158 53 26 950 17573 2340 775 36 37 26 214 31 21 28 69 694
internal_value=0.000138174 -0.00168031 0.00945539 -0.0144529 0.0168579 -0.000508409 -0.000701766 -0.00393726 -0.00895186 0.0161921 0.0199722 -0.0197908 -0.0265548 0.0227462 0.024553 -0.0120483 -0.0149008 -0.0246423 -0.0222591 -0.0508566 -0.0119661 -0.0460069 -0.0299522 0.00310411 0.0214025 0.0353154 0.0198018 0.000198656 0.000666719 0.00420103 0.000585357 0.00238084 -0.0253665 6.005e-06 0.00086944 0.00410364 0.00977678 -0.00353986 0.0268885 -0.00234722
internal_weight=40275 33698 6577 2832 3214 30866 30596 6661 3260 3188 2006 2133 895 1662 1522 2461 1238 864 792 72 1036 42 202 140 270 112 79 23935 20889 3290 799 3363 184 17599 3401 2605 1182 758 90 730
internal_count=40275 33698 6577 2832 3214 30866 30596 6661 3260 3188 2006 2133 895 1662 1522 2461 1238 864 792 72 1036 42 202 140 270 112 79 23935 20889 3290 799 3363 184 17599 3401 2605 1182 758 90 730
is_linear=0
shrinkage=0.0366627


Tree=9
num_leaves=41
num_cat=0
split_feature=49 50 46 40 53 21 50 49 21 78 4 35 58 80 28 20 83 20 48 50 19 23 28 80 43 44 7 41 82 35 25 22 50 49 25 46 83 47 80 41
split_gain=471.129 348.243 237.801 120.602 90.2835 74.9954 62.0889 53.3764 51.8871 51.8731 60.7829 89.3038 51.2214 61.1555 53.3257 53.3819 46.8533 44.8337 44.6425 38.2438 36.0532 33.898 37.4546 28.8607 25.578 45.59 34.864 25.0717 25.197 25.1565 24.7499 24.4252 23.6835 23.2246 23.2919 22.9266 27.3428 22.6128 21.0148 20.2533
threshold=7.2887285289592794e-05 9.9011605053038614e-05 256680.67605000004 108001.57500000003 108001.01403413921 4.8685000000000009 2.5597741565168683e-05 9.5987845212010977e-05 3.0715000000000008 3.5279843588152043e-05 109356.05000000002 0.0015000000000000002 0.03450000000000001 -1.0000000180025095e-35 109300.05000000002 109421.15000000001 5.4248699422685365e-06 108092.95000000001 108003.52959936744 0.00013813797516383129 1.5600000000000003 0.06950000000000002 109316.95000000001 3.6588380712965223e-06 0.0025000000000000005 0.0015000000000000002 0.021500000000000002 15.299999999995636 2.0158615501378085e-05 0.0045000000000000014 5.7990000000000013 108010.65000000001 2.5845630145272459e-06 2.6767973885014249e-07 1.8175000000000001 875.18880000000001 1.4349060268083997e-05 0.94577176724661494 4.5708027629487452e-07 15.849999999998547
decision_type=2 2 2 2 2 2 2 2 2 2 2 2 2 2 2 2 2 2 2 2 2 2 2 2 2 2 2 2 2 2 2 2 2 2 2 2 2 2 2 2
left_child=1 4 3 -2 24 12 30 -5 16 10 38 -12 19 -14 17 -16 -8 -15 -18 35 23 22 -21 -11 25 -1 -27 -7 29 -29 31 -6 39 34 -10 36 -3 -33 -9 -4
right_child=2 5 32 7 6 27 8 9 33 20 11 -13 13 14 15 -17 18 -19 -20 21 -22 -23 -24 -25 -26 26 -28 28 -30 -31 -32 37 -34 -35 -36 -37 -38 -39 -40 -41
leaf_value=0.07656233622852969 0.094881259035685325 -0.0060797392909538589 0.0035984169547385188 0.0094183384089303202 -0.0035432477831243078 -0.0014260396210456863 -0.057220419371502511 0.028473499685084541 -0.0017222836614737697 0.021109415058875314 0.13695929357679493 0.04016240213619901 -0.0065869370142334002 -0.038371752882645049 -0.022788577797381519 -0.065269182008942675 -0.026218916131394893 -0.097728448786156968 -0.0051731310539892923 -0.064684255004576044 0.0063290690988376469 -0.0060211515757568664 -0.024757845239103248 0.0015467584808160797 0.011116925654186807 0.0083085507904312531 0.063564350931708175 -0.018172567745611122 0.0056778301247235492 -0.076989301284756353 -0.036118428797842016 -9.3090464270429208e-05 -0.0034100817938143234 0.0035061134174108914 -0.02069633767077686 0.002884226770605491 -0.020108412304710343 0.0025232618753459283 -0.0082152528131570444 0.033410477815843435
leaf_weight=26 26 463 2574 1182 1945 644 24 167 2577 1292 17 52 199 50 528 43 140 26 4194 38 344 102 187 110 158 66 20 23 22 17 25 13646 758 1373 90 177 313 6582 24 31
leaf_count=26 26 463 2574 1182 1945 644 24 167 2577 1292 17 52 199 50 528 43 140 26 4194 38 344 102 187 110 158 66 20 23 22 17 25 13646 758 1373 90 177 313 6582 24 31
internal_value=0.000133108 -0.00161871 0.00910873 0.0162399 -0.000489769 -0.013923 -0.000676037 0.0155985 -0.00336118 0.01924 0.034518 0.0640113 -0.0173611 -0.0243609 -0.0298277 -0.0259877 -0.00613586 -0.0586783 -0.00585297 -0.0127346 0.0169649 -0.0235533 -0.0315011 0.0195746 0.0206178 0.0340207 0.021159 -0.00356978 -0.0258367 -0.0431702 0.000339813 0.00038092 0.00229355 -0.000368095 -0.00236259 -0.0090224 -0.0117382 0.000758245 0.0238633 0.00395319
internal_weight=40275 33698 6577 3214 30866 2832 30596 3188 8398 2006 260 69 2126 846 647 571 4358 76 4334 1280 1746 327 225 1402 270 112 86 706 62 40 22198 22173 3363 4040 2667 953 776 20228 191 2605
internal_count=40275 33698 6577 3214 30866 2832 30596 3188 8398 2006 260 69 2126 846 647 571 4358 76 4334 1280 1746 327 225 1402 270 112 86 706 62 40 22198 22173 3363 4040 2667 953 776 20228 191 2605
is_linear=0
shrinkage=0.0366627


Tree=10
num_leaves=41
num_cat=0
split_feature=50 49 45 53 49 46 40 39 47 45 13 27 22 80 33 54 7 50 44 22 78 80 53 81 27 78 50 46 36 80 59 41 78 62 23 78 68 5 13 15
split_gain=446.045 339.836 206.963 196.614 84.9456 115.915 53.4171 80.8896 46.2561 60.6445 45.7511 44.5258 45.7924 43.3119 43.5198 41.2496 39.805 39.4247 50.0233 37.4596 64.1215 39.6948 37.0826 36.8218 37.3575 63.8474 35.9842 47.8326 33.6452 33.1835 31.1272 29.5941 28.4894 28.0771 26.6436 25.3264 23.4264 20.2229 19.9283 16.5087
threshold=8.0427067736389042e-05 0.00010596187611691567 268930.98050000006 107999.47500000002 4.209041496603959e-05 98648.447700000019 109419.27500000001 0.0025000000000000005 -0.99991515246875828 32104.83555 1.2950000000000002 1.0000000180025095e-35 108004.75000000001 4.5707327759325631e-06 1.5730000000000002 -0.65879892536097151 1.0000000180025095e-35 1.8030901917405308e-05 8.8540000000000028 108091.55000000002 4.5035055167622869e-05 1.8296449597610123e-06 108001.78481122946 5.2153589506705981e-06 0.80350000000000021 4.9196697077222233e-05 4.8443035839556925e-05 218.63340000000002 109419.70000000003 -1.0000000180025095e-35 1.8775000000000002 16.450000000004369 5.1249086564624165e-05 16.334500000000002 1.8115000000000003 4.1645793405619861e-05 0.066500000000000017 0.0065000000000000014 6.1795000000000009 0.074500000000000011
decision_type=2 2 2 2 2 2 2 2 2 2 2 2 2 2 2 2 2 2 2 2 2 2 2 2 2 2 2 2 2 2 2 2 2 2 2 2 2 2 2 2
left_child=1 3 6 11 8 26 10 -8 9 -5 19 32 -13 14 23 16 -12 -7 -19 20 35 29 36 28 34 -26 27 -6 -3 -21 -17 -16 -1 -11 -25 -2 -10 -14 -24 -18
right_child=2 13 -4 4 5 17 7 -9 22 33 15 12 37 -15 31 30 39 18 -20 21 -22 -23 38 24 25 -27 -28 -29 -30 -31 -32 -33 -34 -35 -36 -37 -38 -39 -40 -41
leaf_value=0.008979203031385944 -0.03124459753889567 0.0077132518503881696 -0.00079574021812214976 -0.017273925738469066 0.026388739918079336 0.0014982667206569146 -0.016511215679011586 -0.11383498899946101 0.023822266208883756 -0.00099413683305916837 -0.10028790975980016 0.020436151414778093 0.11574999526324772 0.00032614107950178895 0.082888530184055134 0.00098172535679804502 -0.051359261449848731 -0.0080795671463217474 -0.072599068296963165 -0.0040544964081007948 -0.08022446797105949 0.00053437881910141046 -0.00056249226203016411 0.017265309413951446 0.093467509514661887 0.025922142520870724 0.00036502287760420318 0.010096901739117974 0.054916817184050053 -0.016954482179873425 -0.047381575301048341 0.0264972615977958 0.058637655875019436 -0.012644563834362731 0.054150336036156543 0.0030722932228144082 -0.0005562940727872473 0.062505727212110146 0.038029848283760895 -0.013706327326596573
leaf_weight=44 98 606 1761 484 287 6390 29 19 138 1738 18 17 22 223 22 53 49 324 17 309 30 236 21857 1051 24 87 389 1553 21 2022 27 29 24 331 27 41 86 17 18 23
leaf_count=44 98 606 1761 484 287 6390 29 19 138 1738 18 17 22 223 22 53 49 324 17 309 30 236 21857 1051 24 87 389 1553 21 2022 27 29 24 331 27 41 86 17 18 23
internal_value=-0.000143734 0.00125137 -0.0107442 0.00036261 0.00019261 0.00324978 -0.0166749 -0.0550357 -0.000918546 -0.00559098 -0.0160412 0.0464434 0.0706528 0.0155975 0.0174215 -0.0344962 -0.0515231 0.000850085 -0.0112961 -0.0148945 -0.0316139 -0.0137938 -0.000378759 0.0164834 0.0202745 0.0405268 0.0104962 0.0126381 0.00929427 -0.0152445 -0.0153407 0.0508233 0.026506 -0.00285799 0.0181892 -0.0211222 0.0144626 0.0925415 -0.000530735 -0.0393315
internal_weight=40541 35826 4715 33736 33612 8960 2954 48 24652 2553 2906 124 56 2090 1867 170 90 6731 341 2736 169 2567 22099 1816 1189 111 2229 1840 627 2331 80 51 68 2069 1078 139 224 39 21875 72
internal_count=40541 35826 4715 33736 33612 8960 2954 48 24652 2553 2906 124 56 2090 1867 170 90 6731 341 2736 169 2567 22099 1816 1189 111 2229 1840 627 2331 80 51 68 2069 1078 139 224 39 21875 72
is_linear=0
shrinkage=0.0366627


Tree=11
num_leaves=41
num_cat=0
split_feature=50 76 45 53 76 46 40 39 47 45 13 78 22 54 80 33 54 7 50 44 22 78 80 53 81 27 78 50 46 25 11 36 59 41 55 62 78 44 25 23
split_gain=413.939 315.375 192.066 182.461 78.8311 107.572 49.5721 75.067 42.9265 56.2792 42.4579 41.9941 46.8203 41.8301 40.1942 40.3872 38.2804 36.9397 36.5869 46.4225 34.7632 59.506 36.8376 34.4133 34.1713 34.6685 59.2516 33.5398 35.6569 31.8852 31.6332 31.2234 28.8866 27.4638 26.3164 26.056 23.5034 21.781 18.9654 16.1478
threshold=8.0427067736389042e-05 0.00010596187611691567 268930.98050000006 107999.47500000002 4.209041496603959e-05 98648.447700000019 109419.27500000001 0.0025000000000000005 -0.99991515246875828 32104.83555 1.2950000000000002 5.1249086564624165e-05 108005.95000000001 0.48831451494068145 4.5707327759325631e-06 1.5730000000000002 -0.65879892536097151 1.0000000180025095e-35 1.8030901917405308e-05 8.8540000000000028 108091.55000000002 4.5035055167622869e-05 1.8296449597610123e-06 108001.78481122946 5.2153589506705981e-06 0.80350000000000021 4.9196697077222233e-05 4.9366341509889291e-05 218.63340000000002 1.8335000000000001 0.0055000000000000005 109419.70000000003 1.8775000000000002 16.450000000004369 0.99938133138385676 16.334500000000002 4.1645793405619861e-05 0.066500000000000017 4.0485000000000007 0.0085000000000000023
decision_type=2 2 2 2 2 2 2 2 2 2 2 2 2 2 2 2 2 2 2 2 2 2 2 2 2 2 2 2 2 2 2 2 2 2 2 2 2 2 2 2
left_child=1 3 6 11 8 27 10 -8 9 -5 20 12 -1 -13 15 24 17 -12 -7 -20 21 36 29 37 31 34 -27 28 -6 -22 -14 -3 -18 -17 -26 -11 -2 -10 -25 -19
right_child=2 14 -4 4 5 18 7 -9 23 35 16 13 30 -15 -16 33 32 39 19 -21 22 -23 -24 38 25 26 -28 -29 -30 -31 -32 -33 -34 -35 -36 -37 -38 -39 -40 -41
leaf_value=0.0049521749638477084 -0.030099087505774093 0.0074304633752274888 -0.00076656623420401945 -0.016640617685406943 0.023093497942102231 0.0014433362796241157 -0.015905871221046929 -0.10966150892834826 0.023564941262786073 -0.00095768921828639814 -0.096611099069817866 0.11548141112598907 0.08917422125073643 0.036316983110426991 0.00031418386862736936 0.079849622953661076 0.00094573261658441256 -0.054776607916850253 -0.0077833487030619722 -0.069937401239413222 -0.014179653262993303 -0.077283230407990774 0.00051478709132805043 -0.00047549955017229633 0.021992464722225689 0.090040747121654191 0.024971768260464839 -0.00032649877293070803 0.0097407632169013124 -0.051030512375023769 0.026264157627730211 0.05290342515505031 -0.04564444348516615 0.02552580334795106 0.010181549381396423 -0.012180980537776255 0.0029596551004889889 0.00036359226876853356 -0.033084464317378874 -0.020036889404982182
leaf_weight=45 98 606 1761 484 325 6390 29 19 131 1738 18 19 22 17 223 22 53 37 324 17 2299 30 236 21851 670 24 87 349 1555 32 21 21 27 29 408 331 41 93 24 35
leaf_count=45 98 606 1761 484 325 6390 29 19 131 1738 18 19 22 17 223 22 53 37 324 17 2299 30 236 21851 670 24 87 349 1555 32 21 21 27 29 408 331 41 93 24 35
internal_value=-0.000138464 0.0012055 -0.0103503 0.000349316 0.000185548 0.00313063 -0.0160635 -0.0530179 -0.00088487 -0.005386 -0.0154531 0.0447407 0.031094 0.0780988 0.0150256 0.0167828 -0.0332315 -0.0496341 0.000818918 -0.010882 -0.0143485 -0.0304548 -0.0132881 -0.000364873 0.0158791 0.0195312 0.0390409 0.0101114 0.0120491 -0.0146856 0.0584512 0.00895351 -0.0147782 0.04896 0.0175223 -0.00275321 -0.0203478 0.0139323 -0.000511277 -0.0378895
internal_weight=40541 35826 4715 33736 33612 8960 2954 48 24652 2553 2906 124 88 36 2090 1867 170 90 6731 341 2736 169 2567 22099 1816 1189 111 2229 1880 2331 43 627 80 51 1078 2069 139 224 21875 72
internal_count=40541 35826 4715 33736 33612 8960 2954 48 24652 2553 2906 124 88 36 2090 1867 170 90 6731 341 2736 169 2567 22099 1816 1189 111 2229 1880 2331 43 627 80 51 1078 2069 139 224 21875 72
is_linear=0
shrinkage=0.0366627


Tree=12
num_leaves=41
num_cat=0
split_feature=50 49 46 45 40 53 12 50 45 49 45 41 25 80 9 49 1 19 49 40 80 64 82 46 0 28 45 21 43 58 41 64 78 22 2 82 32 7 46 78
split_gain=427.85 287.892 201.116 125.865 108.354 73.424 55.2058 50.2147 56.9285 61.5064 50.1531 49.5058 42.5199 41.4139 41.0799 37.3669 38.8698 36.9373 45.3517 34.214 34.0566 55.4543 30.8608 29.3878 29.315 28.9273 25.5997 24.6055 22.1444 21.455 54.7986 24.6916 21.4025 21.0358 20.2231 16.1809 15.2714 15.0532 13.5309 11.637
threshold=9.9011605053038614e-05 7.4881371850428396e-05 372859.51950000011 532005.70840000024 108001.97500000002 107999.47500000002 108063.75000000001 7.9562783499987932e-07 352636.33500000002 9.2590620755972418e-06 327.92445000000009 4.4000000000014561 1.0000000180025095e-35 1.0968204556371932e-05 2.1175000000000006 3.9855053557793917e-06 14.721500000000001 1.2455000000000003 9.5987845212010977e-05 109418.37500000001 -1.0000000180025095e-35 0.064500000000000016 8.1115033843020686e-06 338485.82040000003 109286.15000000001 109298.95000000001 19901.317800000004 25.317000000000004 9.0920000000000023 6.7605000000000013 11.299999999995636 4.3655000000000008 4.1771771181422544e-05 109296.85000000002 107993.35000000002 1.0767837323078224e-06 108012.25000000001 3.8670000000000004 7053.1117500000009 6.2668598892831219e-05
decision_type=2 2 2 2 2 2 2 2 2 2 2 2 2 2 2 2 2 2 2 2 2 2 2 2 2 2 2 2 2 2 2 2 2 2 2 2 2 2 2 2
left_child=1 5 4 6 -3 12 34 23 9 11 -11 -9 36 17 19 27 -17 18 -6 20 -8 -22 -19 24 33 -26 -21 -10 35 31 -31 -4 -14 -7 -2 -25 -1 -30 -5 -40
right_child=3 2 29 38 13 7 14 8 15 10 -12 -13 32 -15 -16 16 -18 22 -20 26 21 -23 -24 28 25 -27 -28 -29 37 30 -32 -33 -34 -35 -36 -37 -38 -39 39 -41
leaf_value=0.0339281425218287 -0.034928817119030335 0.08766069701643231 0.001600282450868698 -0.0039805653829683854 0.010489206180874275 0.011903765977937337 -0.0035012611497921304 -0.0031277718556960541 0.00020520968866213397 0.0055631376832152328 -0.0036035893374538365 -0.011970162131524287 0.031495051083349081 -0.00048998705875169741 -0.057687574143111917 0.0074345532152143758 0.051200445529376651 0.035414138395178645 0.02050881342339406 -0.02193888369947828 -0.012247164553047947 -0.025238850777006216 0.0019759520877619435 -0.022428080471658545 -0.042133768899903369 0.003264564743167761 -0.084676320879654779 -0.0069759236356796601 0.0024816217806650854 0.0032704903197801143 -0.058844072675531947 0.042479867453336977 0.08335461810728613 0.053613480028629784 -0.088422803099685296 -0.0006239717575096922 -0.010002004577646597 0.028141458161734464 0.0044068362205604249 0.033483108515542849
leaf_weight=18 19 27 2841 418 972 370 262 1608 7537 1097 2986 1808 20 248 33 459 29 41 1618 18 1064 755 390 46 19 2670 17 701 3535 60 28 20 23 17 19 8358 26 31 247 20
leaf_count=18 19 27 2841 418 972 370 262 1608 7537 1097 2986 1808 20 248 33 459 29 41 1618 18 1064 755 390 46 19 2670 17 701 3535 60 28 20 23 17 19 8358 26 31 247 20
internal_value=6.30609e-05 0.0011048 0.00829326 -0.0135763 0.0145166 -0.000326797 -0.0178718 -0.000420372 -0.00183515 -0.00417777 -0.00114071 -0.00780782 0.0333073 0.0139125 -0.0170972 0.00017807 0.0100354 0.0150948 0.0167486 -0.0164641 -0.0158595 -0.0176395 0.00515689 0.00110526 0.00430159 0.00294378 -0.052412 -0.000405856 0.000283881 0.00133761 -0.0164931 0.00188606 0.0592344 0.013736 -0.0616764 -0.000743321 0.00796902 0.00270469 0.00013763 0.00658491
internal_weight=40475 37603 6245 2872 3296 31358 2187 31271 16225 7499 4083 3416 87 3269 2149 8726 488 3021 2590 2116 2081 1819 431 15046 3076 2689 35 8238 11970 2949 88 2861 43 387 38 8404 44 3566 685 267
internal_count=40475 37603 6245 2872 3296 31358 2187 31271 16225 7499 4083 3416 87 3269 2149 8726 488 3021 2590 2116 2081 1819 431 15046 3076 2689 35 8238 11970 2949 88 2861 43 387 38 8404 44 3566 685 267
is_linear=0
shrinkage=0.0366627


Tree=13
num_leaves=41
num_cat=0
split_feature=50 49 46 45 40 53 20 47 45 80 81 15 81 80 54 14 40 23 49 8 53 50 50 4 2 50 59 62 80 80 21 6 82 68 37 80 81 11 29 13
split_gain=397.053 267.297 192.04 116.806 110.968 61.9057 59.65 44.1087 51.0259 37.4993 38.549 36.1159 35.7568 36.6609 34.4741 49.5607 33.6342 37.3952 33.1647 29.5244 48.6367 40.0471 30.5289 29.3447 27.6086 26.6915 26.5605 25.7833 30.3584 37.4068 26.6434 23.4183 22.4551 22.3697 21.8961 20.0246 19.2564 59.1658 19.1546 17.8137
threshold=9.9011605053038614e-05 7.345084145698876e-05 352804.15680000006 532005.70840000024 108001.97500000002 108001.01403413921 108070.05000000002 -0.99991515246875828 32104.83555 2.7421463807075778e-05 1.1319541744932364e-05 0.0055000000000000005 1.2229110240678227e-05 -5.9442212567706312e-06 0.97490460964996883 109280.45000000001 107999.72500000002 1.0000000180025095e-35 0.00011069400196673044 108061.65000000001 108082.90777720186 7.7471807656608525e-07 7.226808470315941e-05 107998.35000000002 107993.35000000002 2.5845630145272459e-06 14.735500000000002 0.043500000000000011 4.5708027629487452e-07 -1.0000000180025095e-35 1.8845000000000003 108072.75000000001 8.7399795715429336e-06 28.128000000000004 1.8095000000000001 -1.0000000180025095e-35 5.2153589506705981e-06 0.45750000000000007 0.0055000000000000005 1.9170000000000003
decision_type=2 2 2 2 2 2 2 2 2 2 2 2 2 2 2 2 2 2 2 2 2 2 2 2 2 2 2 2 2 2 2 2 2 2 2 2 2 2 2 2
left_child=1 5 4 6 -3 11 24 8 36 10 32 -1 27 -14 15 -15 17 -13 -12 22 31 -22 -9 -24 -2 -4 -16 30 29 -29 -8 -21 -6 39 -27 -35 37 -7 -32 -10
right_child=3 2 25 -5 9 7 12 19 33 -11 18 16 13 14 26 -17 -18 -19 -20 20 21 -23 23 -25 -26 34 -28 28 -30 -31 38 -33 -34 35 -36 -37 -38 -39 -40 -41
leaf_value=0.068667531111524488 -0.033648237317984608 0.082990404054144318 0.0031056691892365029 0.00013258364881574115 0.016458193971760238 -0.048073799366981439 -0.0049900355406793471 -0.002955404928600924 -0.0017753548806075914 -0.0044863398212801053 0.013243293650629409 0.085606362149249993 -0.0057892888668132471 -0.058345876450326753 -0.01096755120649461 -0.026030911726424914 0.0078347814647379034 0.014534033354893557 0.024575268887725359 0.0048589265656091198 0.0016527816495209187 -0.0013476245981727435 -0.071865174821517969 -0.0063476576888409483 -0.097963030527970743 -0.0036065205378463579 -0.058436785847833204 0.0012087500435822923 0.010582332812563303 -0.025315053657776105 -0.049950156771972377 0.018161446047550291 0.0076941809277051324 0.0011125794261342449 -0.034197379403571905 -0.027087264956467662 -0.010647700217066326 0.0013816020666945147 -0.013539788787671418 0.020585224537734377
leaf_weight=17 19 31 2336 685 586 74 606 3187 2112 152 717 17 156 75 233 427 220 24 673 537 11499 12457 17 20 17 670 17 86 45 423 31 266 1193 55 33 88 515 58 52 49
leaf_count=17 19 31 2336 685 586 74 606 3187 2112 152 717 17 156 75 233 427 220 24 673 537 11499 12457 17 20 17 670 17 86 45 423 31 266 1193 55 33 88 515 58 52 49
internal_value=6.07489e-05 0.00106429 0.00789533 -0.0130786 0.0139466 -0.000334437 -0.0172165 -0.000489224 -0.00475237 0.0133021 0.0141554 0.0168892 -0.0164332 -0.0219639 -0.0253192 -0.0308589 0.0135165 0.0440036 0.0187299 -3.96446e-05 0.000390088 9.25847e-05 -0.00333982 -0.0364509 -0.0640197 0.00122077 -0.0141955 -0.0123931 -0.0182817 -0.0208336 -0.00765824 0.00926551 0.010581 -0.00219763 -0.00504254 -0.016241 -0.0138499 -0.0263433 -0.0271391 -0.00126833
internal_weight=40475 37603 6391 2872 3352 31212 2187 30934 2951 3321 3169 278 2151 908 752 502 261 41 1390 27983 24759 23956 3224 37 36 3039 250 1243 554 509 689 803 1779 2304 703 143 647 132 83 2161
internal_count=40475 37603 6391 2872 3352 31212 2187 30934 2951 3321 3169 278 2151 908 752 502 261 41 1390 27983 24759 23956 3224 37 36 3039 250 1243 554 509 689 803 1779 2304 703 143 647 132 83 2161
is_linear=0
shrinkage=0.0366627


Tree=14
num_leaves=41
num_cat=0
split_feature=50 76 46 45 12 53 48 23 35 3 78 81 50 23 22 13 83 50 45 76 50 1 76 25 46 20 9 1 35 7 81 54 13 79 60 41 64 46 1 41
split_gain=353.305 241.695 188.818 164.621 76.7913 76.0583 64.5865 42.7721 42.4507 54.9886 46.2823 57.5907 38.1695 44.1915 69.5315 52.627 35.086 34.797 36.472 52.8249 48.5076 47.7554 43.4034 32.1682 30.7314 29.9106 28.7833 28.5769 28.0659 27.626 26.5273 37.6354 24.8945 22.4937 20.7484 49.2331 26.0945 19.4662 34.8225 18.3086
threshold=8.0427067736389042e-05 7.8654468061187759e-05 256680.67605000004 824135.34450000024 107993.65000000001 107999.47500000002 108008.49412814064 1.0000000180025095e-35 0.0045000000000000014 0.19150000000000003 3.0366016347272881e-05 1.5471064641256491e-05 0.00011244393231086312 0.064500000000000016 108091.55000000002 0.98550000000000015 1.4173422973442326e-05 7.5889642908892439e-07 318922.0147 1.4862002150843959e-05 4.0155512620814887e-05 2.2155000000000005 9.0917557859281861e-07 2.1760000000000006 7053.1117500000009 108006.65000000001 0.0015000000000000002 0.0025000000000000005 0.0025000000000000005 0.52700000000000014 1.7788806788605456e-05 -0.9986876617818522 5.9000000000000012 5.8429474433680858e-05 6.7855000000000008 11.299999999995636 4.2635000000000014 3063.1776000000004 1.0000000180025095e-35 16.849999999998548
decision_type=2 2 2 2 2 2 2 2 2 2 2 2 2 2 2 2 2 2 2 2 2 2 2 2 2 2 2 2 2 2 2 2 2 2 2 2 2 2 2 2
left_child=1 5 6 4 -2 7 25 -1 10 26 11 -8 23 14 -14 -16 -9 32 19 20 -19 -21 -20 24 29 -3 -10 -11 -26 -6 -15 -32 37 -12 36 -36 39 38 -7 -4
right_child=3 2 34 -5 12 17 8 16 9 27 33 -13 13 30 15 -17 -18 18 22 21 -22 -23 -24 -25 28 -27 -28 -29 -30 -31 31 -33 -34 -35 35 -37 -38 -39 -40 -41
leaf_value=0.068868579175341768 -0.070643247797050737 0.09893794270230892 0.0016022394171375637 0.00061299781874768087 -0.0095505031693588812 -0.0078246655564586428 0.013095136529803323 -0.0060584449310847202 0.024141010796628545 -0.005198474736583727 0.0069076114836754618 0.068108780371538474 -0.07876441125685138 -0.0054086870769803454 -0.019002933063707608 -0.060143326724618591 0.056631417372060913 -0.0030521257145159153 -0.00068920257504828783 0.0027074902589475083 -0.012735141995465873 -0.0058106985074043143 0.0082872824230464433 -0.056128182433143908 -0.015331087069882739 0.032790788551630097 0.010945579390482641 0.045044183019610301 0.012170905405370564 -0.025719142295829073 -0.070865392947586772 -0.015725404175923094 0.038379287318437608 0.018234750525698559 0.0022314050539748893 -0.055080064461386392 0.046162753972481617 0.00075048427453251645 0.013274964463032404 0.03518403009089436
leaf_weight=31 32 17 2698 1488 1332 142 68 36 388 17 1239 41 29 425 834 44 18 1600 7717 2269 1230 1450 799 20 74 20 520 145 153 159 20 99 24 291 66 29 18 14330 405 22
leaf_count=31 32 17 2698 1488 1332 142 68 36 388 17 1239 41 29 425 834 44 18 1600 7717 2269 1230 1450 799 20 74 20 520 145 153 159 20 99 24 291 66 29 18 14330 405 22
internal_value=-3.44771e-05 0.00121288 0.008221 -0.00947247 -0.0141316 -8.81784e-05 0.0150718 0.0345434 0.0144147 0.0200948 0.0107064 0.0337885 -0.0135646 -0.0179544 -0.0229096 -0.0210647 0.0148379 -0.000186413 -0.00142893 -0.00348601 -0.00726065 -0.000613659 0.000153 -0.00989964 -0.00936146 0.0631833 0.0165842 0.0397717 0.00320542 -0.0112747 -0.00969275 -0.0249928 0.00106978 0.009062 0.00158059 -0.0152635 0.00216503 0.00100959 0.00779751 0.00187386
internal_weight=40339 35630 5579 4709 3221 30051 2746 85 2709 1070 1639 109 3189 1451 907 878 54 29966 15065 6549 2830 3719 8516 1738 1718 37 908 162 227 1491 544 119 14901 1530 2833 95 2738 14877 547 2720
internal_count=40339 35630 5579 4709 3221 30051 2746 85 2709 1070 1639 109 3189 1451 907 878 54 29966 15065 6549 2830 3719 8516 1738 1718 37 908 162 227 1491 544 119 14901 1530 2833 95 2738 14877 547 2720
is_linear=0
shrinkage=0.0366627


Tree=15
num_leaves=41
num_cat=0
split_feature=50 49 46 45 40 12 53 56 2 35 3 78 81 49 13 21 53 10 50 45 49 1 52 49 4 13 83 79 58 41 64 35 46 58 35 1 41 43 47 2
split_gain=327.873 224.297 175.227 152.772 81.9832 71.2637 70.5836 40.8245 46.5034 37.9535 49.0373 44.9905 51.3762 36.7404 39.036 34.4968 34.0324 56.0124 32.2923 33.8589 46.316 55.8247 49.359 44.2365 30.7994 23.1025 22.763 20.3901 19.2549 45.6893 24.2162 18.8968 18.065 33.8997 17.2117 18.0511 16.9907 16.1209 15.8266 15.7409
threshold=8.0427067736389042e-05 7.8654468061187759e-05 256680.67605000004 824135.34450000024 108001.57500000003 107993.65000000001 107999.47500000002 -0.99721564541362562 107999.35000000002 0.0045000000000000014 0.19150000000000003 3.0366016347272881e-05 1.5471064641256491e-05 4.4794491586743668e-05 1.2950000000000002 0.8135 109418.42948711844 109398.85000000002 7.5889642908892439e-07 335294.08245000005 2.2872983874798158e-05 2.2155000000000005 3.7010735500977302e-05 9.0917557859281861e-07 108071.85000000002 5.9000000000000012 1.4966864925466857e-05 5.9236911523145009e-05 6.7605000000000013 11.299999999995636 4.2635000000000014 0.34300000000000003 3063.1776000000004 1.0000000180025095e-35 0.20700000000000002 0.043500000000000004 16.849999999998548 1.0000000180025095e-35 0.18055490617017977 109406.75000000001
decision_type=2 2 2 2 2 2 2 2 2 2 2 2 2 2 2 2 2 2 2 2 2 2 2 2 2 2 2 2 2 2 2 2 2 2 2 2 2 2 2 2
left_child=1 6 4 5 -3 -2 7 8 -1 11 31 12 -6 14 16 26 17 -7 25 20 22 -22 -20 -21 -12 32 -16 -13 30 -30 36 -11 33 -8 -15 -36 -4 -17 -25 -18
right_child=3 2 28 -5 9 13 18 -9 -10 10 24 27 -14 34 15 37 39 -19 19 23 21 -23 -24 38 -26 -27 -28 -29 29 -31 -32 -33 -34 -35 35 -37 -38 -39 -40 -41
leaf_value=0.090798436268659438 -0.068053281424597226 0.085009431214197878 0.0015434968968159005 0.0005905237172966519 0.013792787138678618 -0.013420671673830603 0.014772267654177652 0.008165396472788326 0.012201762731055001 0.019945002938753672 -0.0047815723739584107 0.0071638139917635521 0.065611734633702873 -0.0053159048170770056 -0.038364790746694036 -0.045244957637253662 -0.016393499572096095 0.0093717146816986296 -0.0020082684783873511 -0.00066281363198187422 0.00382364123042356 -0.0059517121822962411 -0.010828874228145897 0.0095417504064687578 0.043791833117088189 0.036972203686885155 -0.085138737377260978 0.019482278512210995 0.0021495958455871561 -0.053060684737801726 0.044470310345005079 0.0089405386423235724 0.00072296950170803033 -0.0039614510509721106 0.04313181078322461 0.0028920459446295848 0.033894093404449252 -0.0053599816513902202 -0.023515050049925962 -0.036963906315050588
leaf_weight=25 32 22 2698 1488 69 2460 335 43 17 585 20 1330 41 161 53 18 91 154 1748 7657 1911 1333 1665 731 143 24 19 209 66 29 18 327 14330 212 23 43 22 56 20 111
leaf_count=25 32 22 2698 1488 69 2460 335 43 17 585 20 1330 41 161 53 18 91 154 1748 7657 1911 1333 1665 731 143 24 19 209 66 29 18 327 14330 212 23 43 22 56 20 111
internal_value=-3.3213e-05 0.00116842 0.0079196 -0.00912519 0.0145192 -0.0136135 -8.49454e-05 0.033277 0.058986 0.0139499 0.0193098 0.0104557 0.0331073 -0.0130673 -0.0141567 -0.0326411 -0.0131983 -0.0120779 -0.000179579 -0.00137655 -0.00332991 -0.000193168 -0.00631132 0.000170019 0.0378318 0.00103056 -0.0507082 0.0088367 0.00152264 -0.0147039 0.00208566 0.0159993 0.000972578 0.00751163 0.00114771 0.0169153 0.00180516 -0.015062 0.00866138 -0.0276971
internal_weight=40339 35630 5579 4709 2746 3221 30051 85 42 2724 1075 1649 110 3189 2962 146 2816 2614 29966 15065 6657 3244 3413 8408 163 14901 72 1539 2833 95 2738 912 14877 547 227 66 2720 74 751 202
internal_count=40339 35630 5579 4709 2746 3221 30051 85 42 2724 1075 1649 110 3189 2962 146 2816 2614 29966 15065 6657 3244 3413 8408 163 14901 72 1539 2833 95 2738 912 14877 547 227 66 2720 74 751 202
is_linear=0
shrinkage=0.0366627


Tree=16
num_leaves=41
num_cat=0
split_feature=50 49 46 45 40 50 8 53 22 7 12 9 80 43 19 80 64 9 57 56 54 45 47 14 50 83 44 35 21 45 61 31 37 7 50 23 15 60 81 3
split_gain=304.91 215.221 176.864 99.6632 86.1644 54.4647 45.2049 42.1591 35.6787 36.973 35.5071 34.7461 33.6357 32.689 29.2263 28.5885 44.7228 53.2768 34.9037 28.5263 24.9786 24.9637 60.848 50.5372 20.5993 19.5136 27.3904 38.053 18.8618 18.1446 15.5552 15.0059 14.5208 33.964 14.179 13.2611 13.008 12.7179 12.7135 12.5857
threshold=9.5100943687092412e-05 5.6703654093381274e-05 256680.67605000004 583918.05195000011 108001.97500000002 3.4758207588931865e-05 109380.05000000002 108001.78481122946 108005.55000000002 1.0000000180025095e-35 107993.65000000001 0.064500000000000016 1.1110653311385834e-05 12.768500000000001 1.7720000000000002 -1.0000000180025095e-35 0.036500000000000012 0.52450000000000008 15.742500000000001 -0.11219331235219597 0.48831451494068145 268930.98050000006 -0.23976005043550139 108061.60000000002 2.8455647595551044e-06 1.268633545867818e-05 0.0075000000000000006 0.018500000000000003 25.519000000000002 19987.899500000003 10.553000000000003 1.8095000000000001 1.8095000000000001 1.0000000180025095e-35 8.4172529087184309e-05 2.4025000000000003 0.44850000000000007 26.016500000000004 1.107401143364894e-05 0.10550000000000001
decision_type=2 2 2 2 2 2 2 2 2 2 2 2 2 2 2 2 2 2 2 2 2 2 2 2 2 2 2 2 2 2 2 2 2 2 2 2 2 2 2 2
left_child=1 7 4 10 8 6 12 25 -3 -10 -2 -8 -6 21 15 20 18 -18 -17 -15 -12 22 23 -9 -4 26 27 -1 35 -24 -21 32 -26 -34 -32 -23 38 -30 -7 -27
right_child=3 2 24 -5 5 36 11 13 9 -11 14 -13 -14 19 -16 16 17 -19 -20 30 -22 28 29 -25 31 39 -28 -29 37 -31 34 -33 33 -35 -36 -37 -38 -39 -40 -41
leaf_value=0.072131758791607631 -0.057944436123082116 0.018656429574730592 0.0023512601015324309 -0.00044324996803247194 0.011569113261856627 -0.0035354953739846653 0.025921158073993346 -0.029211235313706858 0.029586460839199073 0.096937174543077223 -0.00052824768480712076 0.0082800236118145999 -0.0035471985149028943 -0.038599710985619873 -0.00015275976719324015 -0.010198629382358019 -0.020049978493091213 -0.051126204489081416 -0.041595508386309155 0.033335953708382736 -0.037661878340954101 0.00055166610185464031 0.00034006782298369302 -0.0056178841757767908 -0.0033655699852248189 0.0095506956750176942 0.0089803135667751253 0.012737939439848599 -0.01310723471345524 -0.0035551193845854562 0.0033016443560935937 0.028357510359802236 0.0078865548755608725 -0.050905437241833121 -0.024425537335006457 -0.0080447343183919946 -0.022561195994450885 -0.0026099512431941342 0.0080318804708528358 -0.015442609742578895
leaf_weight=29 25 29 3757 951 2623 292 508 127 18 28 248 213 214 22 188 989 775 82 50 23 27 12388 6370 3121 811 151 76 29 214 2150 2954 19 25 28 25 246 32 564 227 33
leaf_count=29 25 29 3757 951 2623 292 508 127 18 28 248 213 214 22 188 989 775 82 50 23 27 12388 6370 3121 811 151 76 29 214 2150 2954 19 25 28 25 246 32 564 227 33
internal_value=0.000143543 0.00109205 0.00609587 -0.010478 0.0115619 0.0108511 0.0125122 -0.000456007 0.050505 0.070583 -0.014481 0.0207096 0.0104289 -0.000605678 -0.0140204 -0.0152212 -0.0168235 -0.0230235 -0.0117096 0.00299601 -0.00417417 -0.00103822 -0.00227061 -0.00654041 0.00116698 0.0128186 0.0234609 0.0424352 4.30971e-05 -0.00064287 0.00330085 -0.00387186 -0.00458063 -0.023173 0.00306895 0.000384282 0.000125003 -0.0054974 0.0015238 0.0050681
internal_weight=40681 37346 8824 3335 4184 4109 3558 28522 75 46 2384 721 2837 28204 2359 2171 1896 857 1039 3024 275 25180 11768 3248 4640 318 134 58 13412 8520 3002 883 864 53 2979 12634 551 778 519 184
internal_count=40681 37346 8824 3335 4184 4109 3558 28522 75 46 2384 721 2837 28204 2359 2171 1896 857 1039 3024 275 25180 11768 3248 4640 318 134 58 13412 8520 3002 883 864 53 2979 12634 551 778 519 184
is_linear=0
shrinkage=0.0366627


Tree=17
num_leaves=41
num_cat=0
split_feature=50 49 46 45 40 50 10 0 53 82 22 7 19 80 80 64 59 28 0 43 54 56 49 45 81 57 50 70 49 82 27 41 80 13 46 21 50 1 30 37
split_gain=282.963 199.729 164.48 92.4894 80.6691 47.6486 42.253 41.1959 39.1245 35.5738 33.1104 34.3116 31.5363 30.9009 37.8665 56.0587 51.3956 50.9058 56.7641 30.336 27.9037 26.4729 23.5419 49.5376 24.073 22.5472 20.4031 20.3564 18.8413 24.3374 32.2702 31.1796 18.4193 15.9366 15.3045 15.1652 18.8764 14.8019 14.6906 12.8361
threshold=9.5100943687092412e-05 5.6703654093381274e-05 301656.69920000009 583918.05195000011 108001.97500000002 3.4758207588931865e-05 109379.85000000002 109382.35000000002 108001.78481122946 6.2964864609537568e-06 108005.55000000002 1.0000000180025095e-35 1.0000000180025095e-35 -5.9442212567706312e-06 4.6280444743196375e-07 0.036500000000000012 0.0025000000000000005 108090.70000000001 109411.35000000002 12.768500000000001 0.70889377960496924 -0.11219331235219597 5.6828011560186863e-10 32104.83555 5.2153589506705981e-06 15.742500000000001 2.8455647595551044e-06 7.4730000000000016 1.1884267002545475e-05 1.039539063886652e-05 1.0000000180025095e-35 2.5999999999985453 2.7436498261090851e-06 0.40250000000000008 85974.505350000021 1.9895000000000003 8.5836363384713677e-06 3.7065000000000006 108013.10000000002 1.8095000000000001
decision_type=2 2 2 2 2 2 2 2 2 2 2 2 2 2 2 2 2 2 2 2 2 2 2 2 2 2 2 2 2 2 2 2 2 2 2 2 2 2 2 2
left_child=1 8 4 9 10 6 12 -8 28 33 -3 -12 -6 20 15 25 -17 -16 -19 22 -11 -21 23 24 -10 -15 -4 -25 -1 30 -30 -32 34 -2 -31 36 -24 -23 -39 -28
right_child=3 2 26 -5 5 -7 7 -9 19 13 11 -13 -14 14 17 16 -18 18 -20 21 -22 37 35 27 -26 -27 39 -29 29 32 31 -33 -34 -35 -36 -37 -38 38 -40 -41
leaf_value=-0.0042961912553346315 -0.0013155835182310106 0.017972435642594389 0.0021265706206802489 -0.00042699919866288807 0.019476180218702472 0.00025743236225348392 0.055242442584277761 0.017460211968635057 -0.029334783627757304 -0.00054479901015918957 0.028501744933992903 0.093383205656893828 0.0083211784391927866 -0.012409860141821253 -0.060093510703643417 -0.021030167794881646 -0.043523023456287765 0.0063145446762638332 -0.063401916613358297 -0.037184546960109852 -0.049185196738969338 0.037293288254365085 -0.0006059258186596571 0.00072674823861097087 -0.010154604814325683 -0.039931225424858358 -0.0030264816824688043 -0.0072026979586916296 0.0084873617903345779 0.0069522744596091203 0.026676392666506392 0.095914358559183899 -0.02608045285744828 -0.032858023344650211 0.031691764429785066 0.00034430085078757165 -0.0039080657147814698 0.029416858540288148 0.0027352561835465236 -0.021355946989319256
leaf_weight=71 337 29 3654 951 393 553 41 720 108 235 18 28 2558 846 20 445 197 205 17 22 17 17 8062 1471 474 42 775 618 30 118 18 17 17 23 47 11176 3271 28 2957 55
leaf_count=71 337 29 3654 951 393 553 41 720 108 235 18 28 2558 846 20 445 197 205 17 22 17 17 8062 1471 474 42 775 618 30 118 18 17 17 23 47 11176 3271 28 2957 55
internal_value=0.00013828 0.00105201 0.00587238 -0.0100939 0.0109602 0.0102974 0.0117931 0.0194958 -0.000439288 -0.0139501 0.0486534 0.0679953 0.00980675 -0.0158389 -0.0175472 -0.0196787 -0.0279322 -0.00407119 0.0009758 -0.000583473 -0.00382618 0.00288617 -0.00100016 -0.00425447 -0.0137138 -0.0137116 0.000947893 -0.00161905 0.0123486 0.0171333 0.0363905 0.0603069 0.0102556 -0.00333085 0.0139994 -0.000613992 -0.00155901 0.00317983 0.00298554 -0.00424111
internal_weight=40681 37346 8824 3335 4340 4265 3712 761 28522 2384 75 46 2951 2024 1772 1530 642 242 222 28204 252 3024 25180 2671 582 888 4484 2089 318 247 65 35 182 360 165 22509 11333 3002 2985 830
internal_count=40681 37346 8824 3335 4340 4265 3712 761 28522 2384 75 46 2951 2024 1772 1530 642 242 222 28204 252 3024 25180 2671 582 888 4484 2089 318 247 65 35 182 360 165 22509 11333 3002 2985 830
is_linear=0
shrinkage=0.0366627


Tree=18
num_leaves=41
num_cat=0
split_feature=50 49 53 45 49 46 5 47 78 22 12 25 25 82 17 56 40 50 45 78 10 2 83 29 58 17 25 16 78 47 53 39 13 41 78 8 29 49 39 25
split_gain=279.805 202.207 110.708 99.5014 65.8081 76.9042 47.3286 45.3346 42.6665 49.6338 38.1871 37.2699 54.2441 40.4718 36.0946 63.1971 34.749 34.7388 92.3687 29.8047 29.2786 27.9385 27.3322 26.941 42.6983 42.5285 32.9848 31.9969 42.267 28.0803 26.47 26.4448 25.8228 25.6101 25.6013 24.3216 23.6073 23.5354 36.6783 23.2098
threshold=9.6013962057303861e-05 0.00011289392809724819 107999.47500000002 583918.05195000011 3.6582265469770871e-05 291024.59190000006 0.97500000000000009 0.24647887753160233 5.2048581098413204e-05 108005.95000000001 107993.65000000001 0.10250000000000001 0.17850000000000002 2.0710596798415001e-05 0.41650000000000004 0.97212209848878273 109412.97500000002 3.2929310363718994e-05 222698.83965000001 5.1513589144814679e-05 109403.75000000001 109412.55000000002 1.3229186575653883e-05 1.0000000180025095e-35 0.017500000000000005 0.0025000000000000005 0.079000000000000015 109377.65000000001 5.0405735377356092e-05 0.94242587785373211 108001.78481122946 0.57150000000000012 5.642500000000001 3.4000000000014556 7.5193507886520678e-05 109402.25000000001 0.87450000000000017 9.5987845212010977e-05 0.0075000000000000006 1.0000000180025095e-35
decision_type=2 2 2 2 2 2 2 2 2 2 2 2 2 2 2 2 2 2 2 2 2 2 2 2 2 2 2 2 2 2 2 2 2 2 2 2 2 2 2 2
left_child=1 2 8 10 17 37 23 -7 9 -1 -2 16 13 -13 15 19 35 30 21 -8 -18 -19 -11 24 27 -26 -25 34 -29 -27 33 36 -32 -4 -3 39 -14 -6 -39 -12
right_child=3 6 4 -5 5 7 14 -9 -10 22 11 12 31 -15 -16 -17 20 18 -20 -21 -22 -23 -24 26 25 29 -28 28 -30 -31 32 -33 -34 -35 -36 -37 -38 38 -40 -41
leaf_value=-0.0060204742642361213 -0.057818083074242049 0.0068112134189868574 0.0085570834791176883 4.9659114809072277e-05 0.005318842361398627 -0.059770797837807553 0.090389323718304132 0.00018224801652688225 0.074221310541473962 0.026159203880688098 -0.015977289690613933 -0.099344882075502419 -0.014236959015768951 -0.02324782379849798 0.085393537068686159 -0.0092437758081059078 -0.059551341655228095 -0.0083795054238317377 0.00025079717109217399 0.027093017357631276 -0.019821695032576147 -0.0343657170469399 0.082733200538131296 0.0056457348604044503 0.086670208273494892 0.057796127444153959 0.022343762084625511 0.073907898629450949 0.013242433199161513 0.0065985800883293436 -0.00029130294884036176 -0.053944040226237555 0.04139008120698294 0.049915521984866935 0.044645385207783848 0.024979573993197716 -0.046224467641468148 0.026189060096371536 0.0070247646762690201 -0.0071797752436157172
leaf_weight=42 27 319 161 874 3468 17 20 6171 29 29 679 21 353 17 18 34 33 2284 3789 20 102 57 19 903 22 24 193 26 38 36 18713 28 20 23 26 26 34 196 426 992
leaf_count=42 27 319 161 874 3468 17 20 6171 29 29 679 21 353 17 18 34 33 2284 3789 20 102 57 19 903 22 24 193 26 38 36 18713 28 20 23 26 26 34 196 426 992
internal_value=-6.14604e-05 0.000833393 0.000244474 -0.0104882 0.000125548 0.00259583 0.0132656 1.75384e-05 0.0355473 0.0230855 -0.0144718 -0.0139596 -0.0233758 -0.065302 0.0388312 0.0275049 -0.0116313 -0.000888127 -0.00328668 0.0587417 -0.0295335 -0.00901224 0.0485535 0.0117835 0.0189204 0.0430664 0.00858619 0.0140793 0.0378881 0.0270779 -0.000110881 -0.0195368 -0.000246801 0.013727 0.00966254 -0.0102071 -0.0170473 0.00649667 0.0130637 -0.0107546
internal_weight=40309 37123 35444 3186 35325 10278 1679 6188 119 90 2312 2285 453 38 92 74 1832 25047 6130 40 135 2341 48 1587 491 82 1096 409 64 60 18917 415 18733 184 345 1697 387 4090 622 1671
internal_count=40309 37123 35444 3186 35325 10278 1679 6188 119 90 2312 2285 453 38 92 74 1832 25047 6130 40 135 2341 48 1587 491 82 1096 409 64 60 18917 415 18733 184 345 1697 387 4090 622 1671
is_linear=0
shrinkage=0.0366627


Tree=19
num_leaves=41
num_cat=0
split_feature=50 49 53 45 49 46 5 47 81 34 25 78 22 20 33 21 50 45 39 80 80 42 40 7 15 25 37 11 16 25 29 58 17 81 25 16 78 53 78 50
split_gain=259.664 187.652 102.739 92.3392 61.0712 71.3686 43.9218 42.0714 39.952 45.2644 39.8435 39.5952 46.0611 34.4433 34.232 42.7065 32.2383 85.7199 31.3356 27.2702 33.3134 49.2165 29.1318 27.101 39.8456 29.0317 26.903 26.2435 25.9665 25.2984 25.0018 39.6249 39.4672 31.8849 30.6105 29.6937 39.2245 24.4085 23.7585 22.1409
threshold=9.6013962057303861e-05 0.00011289392809724819 107999.47500000002 583918.05195000011 3.6582265469770871e-05 291024.59190000006 0.97500000000000009 0.24647887753160233 1.2229110240678227e-05 108091.05000000002 0.016500000000000004 5.2048581098413204e-05 108005.95000000001 108011.15000000001 0.0025000000000000005 0.0035000000000000005 3.2929310363718994e-05 222698.83965000001 0.57150000000000012 -5.9442212567706312e-06 1.3715414305393028e-06 1.0054072631301025 109414.87500000001 0.0035000000000000005 0.026500000000000003 0.8650000000000001 1.8 0.0055000000000000005 107994.35000000002 7.6915000000000013 1.0000000180025095e-35 0.017500000000000005 0.0025000000000000005 1.054383306815651e-05 0.079000000000000015 109377.65000000001 5.0405735377356092e-05 108001.78481122946 7.5193507886520678e-05 1.2806829990096931e-05
decision_type=2 2 2 2 2 2 2 2 2 2 2 2 2 2 2 2 2 2 2 2 2 2 2 2 2 2 2 2 2 2 2 2 2 2 2 2 2 2 2 2
left_child=1 2 11 8 16 39 30 -7 10 13 26 12 -1 -10 15 -8 29 28 23 -11 21 -21 -22 25 -25 -12 -2 -14 -18 37 31 35 -33 -34 -32 38 -37 -4 -3 -6
right_child=3 6 4 -5 5 7 14 -9 9 19 18 -13 27 -15 -16 -17 17 -19 -20 20 22 -23 -24 24 -26 -27 -28 -29 -30 -31 34 32 33 -35 -36 36 -38 -39 -40 -41
leaf_value=-0.0057997479694183304 -0.0047698988338116177 0.0065614961002609567 0.013223736742911794 4.7838505400658314e-05 0.0082352479379098585 -0.057579448330518299 0.001623765066734091 0.00017556631439357299 -0.024990818172092789 -0.0042604284380191393 -0.004130225781236725 0.0715001641465286 0.071710338536782159 -0.0977621631282488 0.069557851212133329 0.067626010519791696 -0.04002386785481496 0.00024160228897591909 -0.062480800840147413 -0.082435185835626923 -0.00014992820873475609 -0.022559854161310362 -0.049639913282446456 -0.020730273680995778 -0.072956412797850381 -0.049669754658428787 -0.047753234418295987 0.0173016323688336 -0.008206116611658985 -0.042390724919652026 0.0054387471737052341 0.083492652186420629 0.066910556677104091 0.0085881213934681875 0.021524580627236473 0.071198242898879285 0.012756931549173511 -0.00019495470138739801 0.043008569038844778 0.0025774660639663574
leaf_weight=42 916 319 184 874 2661 17 43 6171 18 164 181 29 26 17 30 19 35 3789 22 19 143 641 18 108 24 21 20 22 2306 19 903 22 18 42 193 26 38 18714 26 1429
leaf_count=42 916 319 184 874 2661 17 43 6171 18 164 181 29 26 17 30 19 35 3789 22 19 143 641 18 108 24 21 20 22 2306 19 903 22 18 42 193 26 38 18714 26 1429
internal_value=-5.92069e-05 0.000802838 0.000235511 -0.0101037 0.000120945 0.00250066 0.0127792 1.68952e-05 -0.0139413 -0.0193654 -0.00965902 0.0342441 0.0222391 -0.0603375 0.0374075 0.0218506 -0.000855566 -0.00316618 -0.0200987 -0.0179095 -0.020636 -0.0242836 -0.0056831 -0.0173069 -0.0302261 -0.00886464 -0.00568837 0.0467734 -0.00868183 -0.000106816 0.0113515 0.0182267 0.0414875 0.0260852 0.0082714 0.0135631 0.036499 -6.43029e-05 0.00930829 0.00625849
internal_weight=40309 37123 35444 3186 35325 10278 1679 6188 2312 1020 1292 119 90 35 92 62 25047 6130 356 985 821 660 161 334 132 202 936 48 2341 18917 1587 491 82 60 1096 409 64 18898 345 4090
internal_count=40309 37123 35444 3186 35325 10278 1679 6188 2312 1020 1292 119 90 35 92 62 25047 6130 356 985 821 660 161 334 132 202 936 48 2341 18917 1587 491 82 60 1096 409 64 18898 345 4090
is_linear=0
shrinkage=0.0366627


Tree=20
num_leaves=41
num_cat=0
split_feature=50 49 45 53 12 53 50 37 47 46 45 33 83 82 30 40 80 54 28 7 18 40 37 42 54 32 23 28 1 50 15 58 46 62 37 81 5 4 28 3
split_gain=234.068 144.261 97.9519 81.2886 48.7329 46.6521 41.7811 40.8997 38.2945 85.408 37.9599 37.1098 37.2332 39.6001 36.8072 37.5007 34.6744 34.1557 34.0711 44.7217 32.5289 32.2582 31.4679 30.8333 28.9797 35.5099 28.6813 28.2604 27.6076 26.8744 26.0341 25.4246 25.1511 28.949 26.4682 33.9231 40.9888 30.0423 23.9227 23.3058
threshold=7.776542291807793e-05 0.00010596187611691567 855490.26590000011 108000.10035100304 107993.65000000001 109420.88750000003 0.00013813797516383129 0.0095000000000000015 0.81944790800775857 12577.849000000004 254885.74715000004 0.041500000000000009 1.4513167811934114e-05 1.778032421283745e-05 109424.45000000001 109407.425 9.142012943330614e-07 0.99319647542512512 108011.55000000002 1.0000000180025095e-35 107993.65000000001 108002.17500000002 0.62750000000000006 0.8870371861441757 -0.99719036503264646 109426.05000000002 0.07350000000000001 109301.05000000002 1.0000000180025095e-35 3.0250552526572048e-05 0.040500000000000008 0.97300000000000009 449196.95400000003 2.5725000000000002 0.024500000000000004 2.1942778995151565e-05 0.0015000000000000002 109400.85000000002 108094.05000000002 0.018500000000000003
decision_type=2 2 2 2 2 2 2 2 2 2 2 2 2 2 2 2 2 2 2 2 2 2 2 2 2 2 2 2 2 2 2 2 2 2 2 2 2 2 2 2
left_child=1 3 4 17 -2 6 14 -7 10 28 20 32 26 -14 27 -16 22 18 -1 -20 29 -21 -8 -22 25 -9 31 -6 -10 -5 -30 39 34 -34 35 37 -37 -3 -36 -13
right_child=2 11 -4 8 5 7 16 24 9 -11 -12 12 13 -15 15 -17 -18 -19 19 21 23 -23 -24 -25 -26 -27 -28 -29 30 -31 -32 -33 33 -35 38 36 -38 -39 -40 -41
leaf_value=0.0027778932902583742 -0.049906825717938925 0.010126671397714419 0.00018347964409632712 -0.0064697194240746717 -0.017768273948916884 -0.083915032036143283 -0.018757957533178701 -0.017277774290412884 -0.0030398071990594723 0.00079943004729993042 0.00022539435890737812 0.026947426399128477 0.058520116131912006 0.021081736120401484 0.049511328446554405 0.0012913592673361989 0.0099791753964626854 0.003933452317149597 0.016632744228811301 0.076275514472473063 -0.0043301122619255001 0.017660985538324674 -0.049979681162965008 0.0028046348961043811 -0.013289590635755057 -0.088259721031901231 -0.0037042857689759418 -0.0070156367598652944 0.0094493700659463893 -0.071661481079419873 0.022099048946021056 0.057276650625060495 0.0013962034882713053 -0.047736646397901289 0.043761142067311146 0.015904325090702529 0.061451294152511965 0.05965493828718247 0.0040288123316045343 -0.010693280571833262
leaf_weight=43 43 520 1488 17 391 17 452 20 167 12188 14113 67 56 118 27 110 51 103 56 49 4717 17 48 984 100 18 103 2057 786 17 303 23 311 17 21 67 44 17 678 33
leaf_count=43 43 520 1488 17 391 17 452 20 167 12188 14113 67 56 118 27 110 51 103 56 49 4717 17 48 984 100 18 103 2057 786 17 303 23 311 17 21 67 44 17 678 33
internal_value=-5.72187e-05 0.000968606 -0.00763816 0.000388566 -0.011129 -0.0106224 -0.00965191 -0.0302568 0.000226673 0.00173751 -0.000796686 0.0103499 0.020383 0.033131 -0.00769814 0.0107947 -0.0188179 0.0204994 0.0308405 0.0407312 -0.00331188 0.0611781 -0.0217553 -0.00309864 -0.0236466 -0.0509014 0.0105682 -0.00873308 0.0108404 -0.0390662 0.012969 0.02252 0.00795389 -0.00115027 0.0101708 0.0155085 0.0339592 0.0116946 0.00522252 0.0145258
internal_weight=40457 35635 4822 33560 3334 3291 3136 155 33292 13444 19848 2075 400 174 2585 137 551 268 165 122 5735 66 500 5701 138 38 226 2448 1256 34 1089 123 1675 328 1347 648 111 537 699 100
internal_count=40457 35635 4822 33560 3334 3291 3136 155 33292 13444 19848 2075 400 174 2585 137 551 268 165 122 5735 66 500 5701 138 38 226 2448 1256 34 1089 123 1675 328 1347 648 111 537 699 100
is_linear=0
shrinkage=0.0366627


Tree=21
num_leaves=41
num_cat=0
split_feature=50 45 76 53 76 1 28 53 80 16 56 19 80 45 46 76 7 40 46 81 80 27 83 78 21 5 29 24 76 23 39 19 59 29 5 27 45 1 69 25
split_gain=217.577 133.786 130.527 73.5056 48.2455 54.8269 40.3385 43.0308 42.8438 43.0234 38.6371 50.1762 59.9244 37.8339 39.2554 53.5468 56.7378 40.1234 33.9845 38.1334 39.2897 50.4605 55.1744 42.3821 32.6702 31.6174 29.6429 28.3039 28.2019 36.4934 53.1862 27.2872 27.4741 25.7136 30.7879 27.7505 25.4817 23.3752 21.688 23.1553
threshold=5.272101485134462e-05 338590.93935000006 0.00010596187611691567 108000.10035100304 1.0973037847325385e-05 15.592000000000001 109301.05000000002 109419.47200990656 1.8296449597610123e-06 109399.00000000001 0.98941146674835201 1.0620000000000003 -1.0000000180025095e-35 19901.317800000004 372859.51950000011 4.6295417540011892e-06 0.68600000000000005 109288.52500000001 449196.95400000003 1.1813229980450081e-05 1.2810087028469754e-05 1.0415000000000003 1.2770358139501785e-05 3.5279843588152043e-05 0.29550000000000004 0.045500000000000006 0.36150000000000004 109423.85000000002 1.9697030700208565e-05 1.6515000000000002 0.18050000000000002 0.0055000000000000005 0.92250000000000021 1.0000000180025095e-35 0.020500000000000004 0.0015000000000000002 71563.688400000028 6.7295000000000007 1.8275000000000003 1.0275000000000001
decision_type=2 2 2 2 2 2 2 2 2 2 2 2 2 2 2 2 2 2 2 2 2 2 2 2 2 2 2 2 2 2 2 2 2 2 2 2 2 2 2 2
left_child=2 4 3 24 6 38 10 8 9 -8 11 12 -2 14 15 16 -5 -17 19 33 21 23 -23 -21 -1 36 -20 -27 -15 -30 -31 -12 -33 34 -4 -36 -9 -16 -6 -40
right_child=1 -3 18 13 5 -7 7 25 -10 -11 31 -13 -14 28 37 17 -18 -19 26 20 -22 22 -24 -25 -26 27 -28 -29 29 30 -32 32 -34 -35 35 -37 -38 -39 39 -41
leaf_value=0.016312978368511522 -0.0065950031862213338 0.0003230064153952478 0.008908794383443502 -0.013249851788484921 -0.00056268844043422944 -0.059951341317601672 -0.01176591771200928 -0.011387957495673551 0.0070790921125268944 0.0082639017746562234 -0.00080914101063107879 -0.0060647186376803931 -0.054243458890321151 -4.9458950647757752e-05 -0.0019951781813510668 0.012493639439831023 0.032770258742396356 0.003832472018017413 0.0024196451229977498 0.042438469771142039 -0.0060620157696842933 0.015946928253115573 0.098143149720326853 0.014888837168365464 0.067453420629012703 -0.018921802393554024 -0.044629069202897768 -0.07779276067651969 -0.00312792731900051 -0.011476913204642048 -0.067221363262995742 -0.01032029199812916 -0.047142729643680492 0.0036485215061859443 0.07143677683084533 0.021741557705374084 -0.043216494669331064 0.0022665504586624457 -0.0092758215145250737 -0.050404361738765315
leaf_weight=250 48 2985 150 361 1061 23 2058 146 207 155 143 74 136 15649 3440 858 40 4436 342 86 81 21 23 590 18 19 19 26 2218 129 28 69 45 682 23 44 44 3480 230 20
leaf_count=250 48 2985 150 361 1061 23 2058 146 207 155 143 74 136 15649 3440 858 40 4436 342 86 81 21 23 590 18 19 19 26 2218 129 28 69 45 682 23 44 44 3480 230 20
internal_value=-5.51207e-05 -0.00569628 0.00122632 0.000630606 -0.00968553 -0.00383619 -0.012147 -0.0103255 -0.00887105 -0.010363 -0.0215375 -0.0315601 -0.0418135 0.000463386 0.00200335 0.00425777 -0.00865927 0.00523619 0.0101598 0.0123292 0.0181465 0.0208699 0.0589136 0.0183937 0.0197479 -0.0253036 -5.6559e-05 -0.0529366 -0.000614431 -0.00433705 -0.0214187 -0.0114758 -0.0248556 0.0071461 0.0181384 0.0388014 -0.0187589 0.000148001 -0.0028517 -0.0125662
internal_weight=40457 7489 32968 30907 4504 1334 3170 2655 2420 2213 515 258 184 30639 12615 5695 401 5294 2061 1700 801 720 44 676 268 235 361 45 18024 2375 157 257 114 899 217 67 190 6920 1311 250
internal_count=40457 7489 32968 30907 4504 1334 3170 2655 2420 2213 515 258 184 30639 12615 5695 401 5294 2061 1700 801 720 44 676 268 235 361 45 18024 2375 157 257 114 899 217 67 190 6920 1311 250
is_linear=0
shrinkage=0.0366627


Tree=22
num_leaves=41
num_cat=0
split_feature=50 49 45 53 45 46 49 46 50 80 13 23 78 22 24 40 79 58 37 40 16 24 46 41 57 60 53 22 80 12 49 45 35 60 81 27 22 27 23 57
split_gain=230.761 145.792 96.0566 94.4631 45.0935 49.8298 42.7616 41.3424 37.7835 40.2465 38.8042 61.4481 37.5521 36.2328 35.0596 39.6098 31.8823 82.3005 31.549 39.7562 36.0319 55.7635 29.9521 28.8213 28.1803 26.6076 25.1744 51.8578 25.3517 37.0964 25.0755 39.4362 28.4796 22.3829 20.0339 18.9179 18.5022 18.8438 18.1864 31.1254
threshold=8.2174958638590916e-05 0.00010824012801731762 300075.52185000008 107999.47500000002 109.39925000000001 99453.763500000015 1.8518192736514226e-05 418260.08935000008 0.00013813797516383129 9.142012943330614e-07 0.30450000000000005 0.064500000000000016 5.2267211603859366e-05 108005.95000000001 109424.45000000001 109359.80000000002 8.5459272688761497e-06 1.0000000180025095e-35 0.024500000000000004 108083.42500000002 109395.25000000001 109423.45000000001 166491.04730000003 9.150000000001457 0.90750000000000008 2.3845000000000005 109423.9942857143 109426.85000000002 -5.9442212567706312e-06 107993.65000000001 5.6828011560186863e-10 15637.571950000001 0.011500000000000002 25.552000000000003 1.3040395262069977e-05 1.0235000000000001 108009.25000000001 2.7570000000000006 0.062500000000000014 9.5005000000000024
decision_type=2 2 2 2 2 2 2 2 2 2 2 2 2 2 2 2 2 2 2 2 2 2 2 2 2 2 2 2 2 2 2 2 2 2 2 2 2 2 2 2
left_child=1 3 8 12 5 6 -5 16 23 10 14 -12 13 -1 15 -10 17 -3 20 -20 22 -22 -18 -2 -8 38 28 -28 -25 -30 31 32 -6 -33 -15 -21 -7 -38 -9 -40
right_child=2 7 -4 4 30 36 24 25 9 -11 11 -13 -14 34 -16 -17 18 -19 19 35 21 -23 -24 26 -26 -27 27 -29 29 -31 -32 33 -34 -35 -36 -37 37 -39 39 -41
leaf_value=-0.002248783227723517 -0.055039641745470685 -0.0014528876988047742 -0.0010442238022362927 -0.0040199548940488055 -0.010899953156500974 -0.0045198438813072424 0.010623601038141563 -0.003933761420060345 -0.028941356092165856 0.0089991727552975239 -0.088663489410943722 -0.01616386121902778 0.069431750329915276 0.069028043736037048 -0.071669542754350557 -0.0069904944790634546 0.012399220006720514 0.079895831681928015 0.050662832232531686 0.0035739344004151047 0.094042856505334907 0.012613426375259779 0.037358562246077705 0.0024605500176151877 -0.0019348068025796643 -0.046462137976937587 -0.082420056050849511 0.0011729293944149762 -0.053167919085083545 -0.0099079945037613294 -0.00041292590825313912 -0.0017332690994985051 -0.038631664474177596 -0.018789662857111651 0.021895109727641818 0.041635987794946309 0.0012081194804388518 0.036886344680595443 -0.0067821995469204742 0.045197976430455242
leaf_weight=46 19 35 1636 413 224 870 1765 237 222 56 30 33 28 22 17 220 720 32 26 706 20 26 71 226 278 17 19 21 27 2025 24184 2019 64 109 27 18 3902 20 32 30
leaf_count=46 19 35 1636 413 224 870 1765 237 222 56 30 33 28 22 17 220 720 32 26 706 20 26 71 226 278 17 19 21 27 2025 24184 2019 64 109 27 18 3902 20 32 30
internal_value=-0.000376207 0.000608663 -0.00815411 4.63539e-05 -7.01888e-05 0.00249339 0.00673962 0.0103052 -0.0121444 -0.0205375 -0.0237063 -0.0506878 0.0321175 0.0211194 -0.0200029 -0.0180156 0.0126267 0.0374 0.0115808 0.00611989 0.016474 0.048018 0.0146396 -0.0100686 0.00891471 -0.00184578 -0.00969995 -0.0385333 -0.00919365 -0.0104772 -0.000768716 -0.00433014 -0.0170626 -0.00260694 0.0430573 0.00452026 0.000317101 0.00139006 0.000690879 0.0183692
internal_weight=40492 35941 4551 33971 33848 7248 2456 1970 2915 578 522 63 123 95 459 442 1654 67 1587 750 837 46 791 2337 2043 316 2318 40 2278 2052 26600 2416 288 2128 49 724 4792 3922 299 62
internal_count=40492 35941 4551 33971 33848 7248 2456 1970 2915 578 522 63 123 95 459 442 1654 67 1587 750 837 46 791 2337 2043 316 2318 40 2278 2052 26600 2416 288 2128 49 724 4792 3922 299 62
is_linear=0
shrinkage=0.0366627


Tree=23
num_leaves=41
num_cat=0
split_feature=50 49 45 47 46 45 2 80 46 25 9 45 49 25 33 40 81 50 82 1 15 82 46 45 80 82 0 4 33 60 68 45 27 40 49 49 22 59 2 38
split_gain=214.95 141.097 69.3748 61.6832 91.9505 57.0647 40.5414 38.4045 38.3666 37.6441 41.568 36.4434 37.4282 36.2946 73.4142 31.8685 29.9846 29.7201 29.4635 29.2393 28.8247 27.6363 27.0528 34.6845 31.4319 42.0243 25.9076 25.6706 25.5216 24.6924 23.4406 45.4323 22.0286 21.7574 21.6302 26.5152 21.3221 27.2452 21.0484 35.1085
threshold=9.9011605053038614e-05 0.00010824012801731762 532005.70840000024 0.55637536788340991 8046.0607000000009 268930.98050000006 107999.35000000002 -1.1886067802668874e-05 418260.08935000008 0.93000000000000016 2.1175000000000006 324.10035000000011 8.2115933421358032e-06 1.4425000000000001 1.0000000180025095e-35 108004.27500000001 1.2560932077631137e-05 0.00017304205032605931 1.2055143497062383e-05 1.0000000180025095e-35 0.014500000000000001 1.3868659594269924e-05 59610.873750000006 5358.6767500000014 -1.387844471734123e-06 9.7795049802331077e-06 109410.45000000001 109410.35000000002 0.0055000000000000005 2.3845000000000005 24.427500000000006 1833358.7919000003 2.0955000000000008 108001.57500000003 7.4058328909592589e-06 3.88470323238463e-05 108006.85000000002 8.5770000000000017 109388.25000000001 109430.10000000002
decision_type=2 2 2 2 2 2 2 2 2 2 2 2 2 2 2 2 2 2 2 2 2 2 2 2 2 2 2 2 2 2 2 2 2 2 2 2 2 2 2 2
left_child=1 3 9 5 6 7 18 -1 22 10 15 12 -9 14 -11 -2 17 -17 -5 -8 -21 -15 32 24 -24 -26 -18 -13 -12 -10 34 -32 38 -6 -7 -36 37 -35 -3 -40
right_child=2 8 -4 4 33 30 19 11 29 13 28 27 -14 21 -16 16 26 -19 -20 20 -22 -23 23 -25 25 -27 -28 -29 -30 -31 31 -33 -34 36 35 -37 -38 -39 39 -41
leaf_value=0.0051090079490543425 -0.054043571826301831 0.0069615684727014912 1.1781525398514108e-05 0.06379980712805905 0.022349737631428113 -5.8447589607243587e-05 -0.0050592254506610602 -0.011258008597212564 0.00066554533699743487 -0.01301707060845784 -0.083792506339028502 -0.0066171391930360743 0.0049383287956382641 -0.038957059429971609 -0.11248024625068004 -0.0057283815244649292 -0.014510735124748006 -0.03714570205795744 0.019654579122028316 0.0072090724824498929 0.020010084521687479 -0.0054736543798226903 -0.0020786612519903898 0.0030431701065380574 0.0704082714057431 0.026053268620749071 -0.043159339263762288 -0.025605089516493273 -0.020262245024875104 -0.044758717882156802 -0.064431706038365552 -0.0041129532665215738 0.048646099329398541 -0.0033069485016180501 0.011118632636720636 -0.024137265047800519 0.00096593606371905459 -0.03314281709193298 0.029401337473731165 -0.012845841667225204
leaf_weight=497 23 1059 700 30 62 12241 176 259 299 21 17 4085 739 60 19 1113 743 42 63 798 336 74 43 113 33 221 45 98 17 17 17 1324 19 951 382 31 13516 43 133 33
leaf_count=497 23 1059 700 30 62 12241 176 259 299 21 17 4085 739 60 19 1113 743 42 63 798 336 74 43 113 33 221 45 98 17 17 17 1324 19 951 382 31 13516 43 133 33
internal_value=-0.000362415 0.00037592 -0.0100265 -0.000151918 0.00154049 -0.0015262 0.0105047 -0.0046262 0.00992738 -0.0132588 -0.0118358 -0.00556007 0.000735052 -0.0296151 -0.0602626 -0.0111407 -0.0106328 -0.00687085 0.0338952 0.00884413 0.011002 -0.0204664 0.0121638 0.0203311 0.0269086 0.031816 -0.0161468 -0.007062 -0.052028 -0.00177811 -0.000268476 -0.00487764 0.00947192 0.000677409 0.000219975 0.00847226 0.000584804 -0.00459766 0.0088643 0.0210027
internal_weight=40492 37618 2874 35648 15975 19673 1403 5678 1970 2174 2000 5181 998 174 40 1966 1943 1155 93 1310 1134 134 1654 410 297 254 788 4183 34 316 13995 1341 1244 14572 12654 413 14510 994 1225 166
internal_count=40492 37618 2874 35648 15975 19673 1403 5678 1970 2174 2000 5181 998 174 40 1966 1943 1155 93 1310 1134 134 1654 410 297 254 788 4183 34 316 13995 1341 1244 14572 12654 413 14510 994 1225 166
is_linear=0
shrinkage=0.0366627


Tree=24
num_leaves=41
num_cat=0
split_feature=50 49 45 46 53 35 3 20 22 58 29 23 37 27 7 7 78 4 0 55 73 78 25 6 47 46 45 53 68 47 62 11 40 29 55 29 41 82 44 62
split_gain=213.285 132.154 73.6862 72.6774 52.8752 36.2548 43.5902 35.5784 34.9178 33.5777 39.5323 31.8317 53.439 39.8555 36.1003 57.5296 30.9966 45.9162 71.8421 26.8438 26.6232 26.6168 23.9542 24.182 29.9429 28.9619 28.7831 26.3612 23.2016 25.3469 28.7004 22.4909 23.0907 22.1637 21.5042 20.7031 19.6259 24.8571 33.7419 20.7551
threshold=9.6013962057303861e-05 7.5527511354498089e-05 583918.05195000011 301656.69920000009 108001.01403413921 0.011500000000000002 0.19150000000000003 108070.05000000002 108075.25000000001 0.03450000000000001 0.16200000000000003 0.013500000000000002 0.17500000000000002 1.0000000180025095e-35 0.82250000000000012 1.6005000000000003 3.0366016347272881e-05 109356.05000000002 109382.45000000001 -0.863587178735155 1.9680000000000002 5.5263490216941201e-05 7.6915000000000013 107997.75000000001 0.90305333276547695 11398.458200000003 254885.74715000004 108001.8962767716 2.4935000000000005 -0.95122130388276604 2.9905000000000004 0.28150000000000003 109335.92500000002 1.0000000180025095e-35 0.76935235983035688 1.0000000180025095e-35 1.5499999999956346 1.0330389833137152e-05 0.0025000000000000005 0.043500000000000011
decision_type=2 2 2 2 2 2 2 2 2 2 2 2 2 2 2 2 2 2 2 2 2 2 2 2 2 2 2 2 2 2 2 2 2 2 2 2 2 2 2 2
left_child=1 4 7 5 36 16 8 35 -7 21 -11 12 14 19 20 -16 17 34 -19 -14 -9 -8 23 27 26 -26 -25 -6 -13 30 -30 32 -18 -15 -3 -2 -1 38 -38 -40
right_child=2 3 -4 -5 22 6 9 11 -10 10 -12 28 13 33 15 -17 31 18 -20 -21 -22 -23 -24 24 25 -27 -28 -29 29 -31 -32 -33 -34 -35 -36 -37 37 -39 39 -41
